tree
version=v2
num_class=1
num_tree_per_iteration=1
label_index=0
max_feature_idx=1
objective=regression
feature_names=cardreader_error_by_day status_count
feature_infos=[0:0.57142857142857106] [8:178]
tree_sizes=2438 434 2533 435 2528 438 2539 439 2543 439 2528 436 2532 434 2532 437 2539 437 2544 436 2540 436 2548 437 2544 437 2560 436 2560 437 2559 442 2559 441 2570 435 2560 437 2564 437 2557 438 2558 437 2561 439 2577 440 2573 441 2572 435 2573 435 2579 440 2574 441 2577 439 2561 436 2556 436 2558 438 2576 437 2574 438 2596 436 2596 437 2594 437 2574 440 2579 441 2605 440 2592 440 2595 441 2622 442 2617 444 2577 438 2580 437 2590 433 2586 433 2589 430

Tree=0
num_leaves=31
num_cat=0
split_feature=1 1 1 1 1 1 1 1 1 1 1 1 1 1 1 1 1 1 1 1 1 1 1 1 1 1 1 1 1 1
split_gain=10.9063 6.09629 8.21867 3.14868 2.09555 1.0977 0.645396 0.644533 1.54938 1.34949 1.97868 0.62282 0.569006 0.768067 0.582048 0.46665 0.38611 0.376558 0.326607 0.282649 0.405844 0.281669 0.228445 0.201299 0.240425 0.194708 1.30655 1.06422 0.274225 0.658158
threshold=37.500000000000007 16.500000000000004 25.500000000000004 56.500000000000007 18.500000000000004 14.500000000000002 32.500000000000007 84.500000000000014 79.500000000000014 97.000000000000014 100.50000000000001 70.500000000000014 59.500000000000007 60.500000000000007 63.500000000000007 31.500000000000004 19.500000000000004 75.500000000000014 15.500000000000002 119.00000000000001 108.50000000000001 76.500000000000014 30.500000000000004 66.500000000000014 65.500000000000014 42.500000000000007 44.500000000000007 40.500000000000007 46.500000000000007 48.500000000000007
decision_type=2 2 2 2 2 2 2 2 2 2 2 2 2 2 2 2 2 2 2 2 2 2 2 2 2 2 2 2 2 2
left_child=1 5 4 25 -3 -1 15 8 11 -9 -11 12 -5 -14 -15 22 -6 -13 -7 20 -12 -19 -4 24 -16 27 -27 -2 -28 -30
right_child=3 2 6 7 16 18 -8 9 -10 10 19 17 13 14 23 -17 -18 21 -20 -21 -22 -23 -24 -25 -26 26 28 -29 29 -31
leaf_value=0.44694988101379396 0.4628504541536867 0.46181809762495013 0.45825543623241771 0.47084643202575915 0.46441717021285434 0.45726671238949673 0.4594738981077981 0.4734036617380149 0.45966416634916446 0.45144988087968352 0.47037845174413956 0.47297765801588354 0.45918797588716553 0.47155857593257161 0.46569406650168532 0.45595324774883972 0.46704393982088493 0.46394988050715447 0.45373482704814594 0.47373248891126218 0.46144988058166031 0.47076806212213868 0.46302395460882328 0.46694988041774754 0.45991762256280899 0.45757733167746339 0.46605268418280382 0.46747748776398679 0.45907975078216579 0.46432025086648698
leaf_count=50 523 516 360 58 214 101 916 119 70 20 35 72 42 46 43 297 404 28 186 23 20 33 27 75 31 102 107 163 77 270
internal_value=0 -0.038412 -0.0227694 0.0571095 0.0423567 -0.165317 -0.0689275 0.109975 0.0901563 0.155459 0.0685597 0.112714 0.0871 0.0653737 0.0917936 -0.0921695 0.0816368 0.169526 -0.141495 0.140512 0.101584 0.111718 -0.0692876 0.0614374 0.024434 0.0266753 0.0127676 0.0379475 0.0357448 0.0220973
internal_count=5028 3071 2734 1957 1134 337 1600 715 498 217 98 428 295 237 195 684 618 133 287 78 55 61 387 149 74 1242 556 686 454 347
shrinkage=1


Tree=1
num_leaves=4
num_cat=0
split_feature=0 0 0
split_gain=0.120508 0.394013 0.157906
threshold=0.10714285714285722 1.0000000180025095e-35 0.17857142857142852
decision_type=2 2 2
left_child=1 -1 -2
right_child=2 -3 -4
leaf_value=-7.4999796522844838e-05 -0.0023453549341817875 0.0034415225555867327 0.001735372990369797
leaf_count=4804 113 81 30
internal_value=0 -0.000333821 -0.0297852
internal_count=5028 4885 143
shrinkage=0.05


Tree=2
num_leaves=31
num_cat=0
split_feature=1 1 1 1 1 1 1 1 1 1 1 1 1 1 1 1 1 1 1 1 1 1 1 1 1 1 1 1 1 1
split_gain=9.87582 6.71592 4.03032 4.74511 1.89093 0.990575 0.828752 1.21738 1.78656 1.16314 0.840901 0.583054 0.456253 0.960137 0.845654 0.518563 0.419846 0.348136 0.339586 0.294707 0.267087 0.468137 0.254531 0.254315 0.367016 0.204483 0.188675 0.646592 0.178207 0.164797
threshold=51.500000000000007 16.500000000000004 25.500000000000004 37.500000000000007 18.500000000000004 14.500000000000002 84.500000000000014 97.000000000000014 100.50000000000001 79.500000000000014 70.500000000000014 32.500000000000007 42.500000000000007 40.500000000000007 44.500000000000007 46.500000000000007 31.500000000000004 19.500000000000004 75.500000000000014 15.500000000000002 48.500000000000007 49.500000000000007 76.500000000000014 119.00000000000001 108.50000000000001 30.500000000000004 29.500000000000004 28.500000000000004 41.500000000000007 22.500000000000004
decision_type=2 2 2 2 2 2 2 2 2 2 2 2 2 2 2 2 2 2 2 2 2 2 2 2 2 2 2 2 2 2
left_child=1 5 4 11 -3 -1 9 -8 -9 10 -2 16 13 -5 -14 -16 25 -6 -12 -7 -17 -22 -20 24 -10 26 27 -4 -15 -19
right_child=6 2 3 12 17 19 7 8 23 -11 18 -13 14 28 15 20 -18 29 22 -21 21 -23 -24 -25 -26 -27 -28 -29 -30 -31
leaf_value=-0.014347260624170303 0.0035614969033115314 -0.00022594982454943104 -0.0039025049547702947 0.00076476372849644948 0.002243607978675967 -0.004546852232796131 0.010788689466083752 -0.010068744421005249 0.007923128392015184 -0.0022632223580564769 0.01038296442064974 -0.0024455114711059754 -0.0042443264641013802 0.0092385722243267573 0.0038051954635949896 -0.0028144707927456152 -0.0057888994965489063 0.0040892113911938834 0.0018062561750411988 -0.0079018265970291629 0.0077317453566051663 -0.00082386000387704196 0.0082876660607077868 0.011096798596174821 -0.00056759402155876165 0.00090708975438718448 -0.004935829370629554 0.0034700993448495867 0.0044896160704748977 0.0063100231653552942
leaf_count=50 477 516 171 523 214 101 119 20 35 70 72 916 102 23 107 77 297 286 28 186 21 67 33 23 20 27 153 36 140 118
internal_value=0 -0.0217647 -0.00974778 -0.0310285 0.04017 -0.157053 0.0939958 0.147803 0.0652672 0.076825 0.0908353 -0.0654061 0.0208621 0.0361809 -0.00723591 0.0218831 -0.087497 0.0774831 0.161149 -0.134423 -0.0132783 0.0243564 0.106252 0.133637 0.0967119 -0.065793 -0.0720881 -0.0524063 0.103194 0.0947573
internal_count=5028 4131 3794 2660 1134 337 897 217 98 680 610 1600 1060 686 374 272 684 618 133 287 165 88 61 78 55 387 360 207 163 404
shrinkage=0.05


Tree=3
num_leaves=4
num_cat=0
split_feature=0 0 0
split_gain=0.118833 0.353355 0.134367
threshold=0.10714285714285722 1.0000000180025095e-35 0.17857142857142852
decision_type=2 2 2
left_child=1 -1 -2
right_child=2 -3 -4
leaf_value=-6.6490939738450707e-05 -0.0022632812372351116 0.0032636617620786035 0.0015010171135266624
leaf_count=4804 113 81 30
internal_value=0 -0.000225449 -0.0294714
internal_count=5028 4885 143
shrinkage=0.05


Tree=4
num_leaves=31
num_cat=0
split_feature=1 1 1 1 1 1 1 1 1 1 1 1 1 1 1 1 1 1 1 1 1 1 1 1 1 1 1 1 1 1
split_gain=8.92905 4.96806 6.65772 2.59256 1.7063 0.893908 0.526696 0.517817 1.27032 1.09814 1.61319 0.497321 0.511733 0.69542 0.524328 0.377732 0.313915 0.306238 0.265927 0.230034 0.228856 0.331876 0.183023 0.180481 0.217899 0.170214 0.581878 0.16332 1.05598 0.866242
threshold=37.500000000000007 16.500000000000004 25.500000000000004 56.500000000000007 18.500000000000004 14.500000000000002 32.500000000000007 84.500000000000014 79.500000000000014 97.000000000000014 100.50000000000001 70.500000000000014 59.500000000000007 60.500000000000007 63.500000000000007 31.500000000000004 19.500000000000004 75.500000000000014 15.500000000000002 76.500000000000014 119.00000000000001 108.50000000000001 30.500000000000004 66.500000000000014 65.500000000000014 29.500000000000004 28.500000000000004 42.500000000000007 44.500000000000007 40.500000000000007
decision_type=2 2 2 2 2 2 2 2 2 2 2 2 2 2 2 2 2 2 2 2 2 2 2 2 2 2 2 2 2 2
left_child=1 5 4 27 -3 -1 15 8 11 -9 -11 12 -5 -14 -15 22 -6 -13 -7 -19 21 -12 25 24 -16 26 -4 29 -29 -2
right_child=3 2 6 7 16 18 -8 9 -10 10 20 17 13 14 23 -17 -18 19 -20 -21 -22 -23 -24 -25 -26 -27 -28 28 -30 -31
leaf_value=-0.013629903793334961 0.00073274236678165419 -0.00021793990460939184 -0.0037032697371572085 0.0081860476783637334 0.0021285274039919131 -0.0043200434729604434 -0.0023194698006825678 0.010254030305297436 -0.002144718361752374 -0.0095619827508926399 0.0075397121054785595 0.0098675773582524717 -0.0028897102744806381 0.0088694780093172328 0.0033144544723422032 -0.0054944500327110297 0.0044970242583220552 0.0017192684113979341 -0.007506991049615286 0.0078808882019736556 0.010543243327866429 -0.00053431704640388483 0.00084655869890142379 0.0044911666512489319 -0.002184728797404997 -0.0046862484680281749 0.0032906687508026757 -0.0040255556211752051 0.0016044315328156895 0.0049072674904132915
leaf_count=50 523 516 171 58 214 101 916 119 70 20 35 72 42 46 43 297 404 28 186 33 23 20 27 75 31 153 36 102 454 163
internal_value=0 -0.0346447 -0.0205236 0.0517854 0.0380925 -0.149206 -0.0620677 0.0997562 0.0819918 0.140524 0.0621344 0.102417 0.0795289 0.0589249 0.0840645 -0.0830639 0.0735373 0.153184 -0.127709 0.101052 0.127102 0.092074 -0.0624772 0.0552527 0.0202149 -0.0684328 -0.0497387 0.0241693 0.0114318 0.034493
internal_count=5028 3071 2734 1957 1134 337 1600 715 498 217 98 428 295 237 195 684 618 133 287 61 78 55 387 149 74 360 207 1242 556 686
shrinkage=0.05


Tree=5
num_leaves=4
num_cat=0
split_feature=0 0 0
split_gain=0.54614 0.0659129 0.00198347
threshold=0.10714285714285722 0.17857142857142852 1.0000000180025095e-35
decision_type=2 2 2
left_child=2 -2 -1
right_child=1 -3 -4
leaf_value=3.9130970292979548e-05 -0.0035453903157848959 -0.00067698316027720766 0.00029330549713892817
leaf_count=4805 121 24 78
internal_value=0 -0.0614124 0.000863822
internal_count=5028 145 4883
shrinkage=0.05


Tree=6
num_leaves=31
num_cat=0
split_feature=1 1 1 1 1 1 1 1 1 1 1 1 1 1 1 1 1 1 1 1 1 1 1 1 1 1 1 1 1 1
split_gain=9.06476 3.27472 3.15402 2.01161 1.68145 0.926473 0.798099 0.770182 0.755014 0.65379 1.07398 0.586313 0.669479 0.647442 0.614544 0.458205 0.567813 0.398514 0.2768 0.226908 0.223985 0.425585 0.194411 0.254911 0.191164 0.142993 0.672721 0.550924 0.511725 0.17591
threshold=44.500000000000007 17.500000000000004 25.500000000000004 34.500000000000007 66.500000000000014 113.00000000000001 18.500000000000004 14.500000000000002 35.500000000000007 29.500000000000004 28.500000000000004 97.000000000000014 102.50000000000001 88.500000000000014 75.500000000000014 42.500000000000007 37.500000000000007 43.500000000000007 72.500000000000014 32.500000000000007 80.500000000000014 79.500000000000014 19.500000000000004 20.500000000000004 21.500000000000004 56.500000000000007 52.500000000000007 51.500000000000007 59.500000000000007 61.500000000000007
decision_type=2 2 2 2 2 2 2 2 2 2 2 2 2 2 2 2 2 2 2 2 2 2 2 2 2 2 2 2 2 2
left_child=1 7 6 9 25 11 -3 -1 -5 10 -4 13 -13 14 18 16 -10 -17 -6 -11 21 -16 -8 -24 -25 26 27 -2 -27 -30
right_child=4 2 3 8 5 -7 22 -9 15 19 -12 12 -14 -15 20 17 -18 -19 -20 -21 -22 -23 23 24 -26 28 -28 -29 29 -31
leaf_value=-0.01037342236019098 0.0019732982030213979 -0.00044134011484467931 -0.0021483653765401725 0.006520646265367182 0.0062646284842720404 0.014406791521656899 0.0016774368170954755 -0.0040149763568761909 -0.0014505353347774139 -0.0043731269986967292 0.0076262183049145872 -0.0044140029946962995 0.0061491310596466066 0.010497863045040991 0.003518727517897083 -0.0094322133971297233 0.00084305662160201087 -0.0018847355899745473 0.011073995239677885 -0.0027960606666155908 0.0049172564276627135 -0.0045758749951015816 0.0056566692262052382 0.0011964133041992523 0.0037595857583468239 0.0072322135759612261 -0.0013664110339889233 0.0074618587981570856 -0.0005638306433299803 0.0029178053270215577
leaf_count=52 271 243 162 41 104 31 207 566 456 487 34 30 30 71 62 23 661 73 42 429 98 22 107 114 201 59 129 55 53 115
internal_value=0 -0.0242941 -0.0115628 -0.03051 0.0761312 0.120817 0.0398467 -0.0909998 -0.00305205 -0.0614742 -0.00905549 0.109517 0.0173513 0.123376 0.104635 -0.00756324 -0.00186542 -0.0738597 0.152963 -0.0726905 0.0658663 0.0279743 0.0586506 0.0709636 0.0566392 0.0440253 0.0337978 0.0579856 0.0645256 0.0363886
internal_count=5028 3856 3238 2366 1172 490 872 618 1254 1112 196 459 60 399 328 1213 1117 96 146 916 182 84 629 422 315 682 455 326 227 168
shrinkage=0.05


Tree=7
num_leaves=4
num_cat=0
split_feature=0 0 0
split_gain=0.511752 0.0562187 0.00219161
threshold=0.10714285714285722 0.17857142857142852 1.0000000180025095e-35
decision_type=2 2 2
left_child=2 -2 -1
right_child=1 -3 -4
leaf_value=4.0594326655896971e-05 -0.0034077926854456752 -0.00075870733708143239 0.00030777246142045045
leaf_count=4805 121 24 78
internal_value=0 -0.0593865 0.000897243
internal_count=5028 145 4883
shrinkage=0.05


Tree=8
num_leaves=31
num_cat=0
split_feature=1 1 1 1 1 1 1 1 1 1 1 1 1 1 1 1 1 1 1 1 1 1 1 1 1 1 1 1 1 1
split_gain=8.21451 3.13806 2.57356 2.18365 1.1967 0.783066 0.720822 0.695272 0.639602 0.590785 0.967695 0.527457 0.606122 0.583182 0.553953 0.411879 0.35794 0.62725 0.461093 0.252482 0.250228 0.204357 0.202671 0.384989 0.175683 0.229931 0.172578 0.159285 0.450418 0.120398
threshold=48.500000000000007 17.500000000000004 25.500000000000004 34.500000000000007 113.00000000000001 66.500000000000014 18.500000000000004 14.500000000000002 35.500000000000007 29.500000000000004 28.500000000000004 97.000000000000014 102.50000000000001 88.500000000000014 75.500000000000014 37.500000000000007 52.500000000000007 56.500000000000007 59.500000000000007 51.500000000000007 72.500000000000014 32.500000000000007 80.500000000000014 79.500000000000014 19.500000000000004 20.500000000000004 21.500000000000004 61.500000000000007 62.500000000000007 46.500000000000007
decision_type=2 2 2 2 2 2 2 2 2 2 2 2 2 2 2 2 2 2 2 2 2 2 2 2 2 2 2 2 2 2
left_child=1 7 6 9 5 16 -3 -1 -5 10 -4 13 -13 14 20 -10 19 -18 -19 -2 -7 -11 23 -16 -8 -26 -27 -20 -29 -17
right_child=4 2 3 8 -6 11 24 -9 15 21 -12 12 -14 -15 22 29 17 18 27 -21 -22 -23 -24 -25 25 26 -28 28 -30 -31
leaf_value=-0.0098570380933009662 0.0028554204044882788 -0.00042108839431417334 -0.0020358570747905308 0.0061919313378450344 0.013691273764256509 0.0059547252953052526 0.0015921734381413113 -0.0038157210254205834 -0.0013758508782637747 -0.0041518440787552324 0.0072424840401200691 -0.0041882529358069102 0.0058626344799995421 0.0099739308298473633 0.0033497488787097318 0.00062042963837081967 -0.0012926108268804329 0.0068762226124941296 -0.00052965460520870288 0.0070961410890926016 0.010527427991231283 -0.0026551967734223482 0.0046803277822173367 -0.0043491110205650333 0.0053730435182000992 0.0011362995887011812 0.0035716855703894776 0.0079343329033543988 0.0008824314922094346 -0.0015358471231801171
leaf_count=52 97 243 162 41 31 104 207 566 456 487 34 30 30 71 62 861 129 59 53 55 42 429 98 22 107 114 201 31 84 70
internal_value=0 -0.0209135 -0.00903759 -0.0251294 0.0804241 0.074224 0.0378353 -0.086481 0.000744563 -0.058356 -0.00852698 0.104161 0.0167438 0.117307 0.0995195 -0.00289412 0.0471744 0.0298296 0.0614726 0.0877978 0.145403 -0.0690181 0.0627117 0.0266676 0.0557056 0.0674106 0.0538062 0.0347639 0.0556676 0.00916607
internal_count=5028 4030 3412 2540 998 967 872 618 1428 1112 196 459 60 399 328 1387 508 356 227 152 146 916 182 84 629 422 315 168 115 931
shrinkage=0.05


Tree=9
num_leaves=4
num_cat=0
split_feature=0 0 0
split_gain=0.477761 0.0477303 0.00226678
threshold=0.10714285714285722 0.17857142857142852 1.0000000180025095e-35
decision_type=2 2 2
left_child=2 -2 -1
right_child=1 -3 -4
leaf_value=4.1686438807091527e-05 -0.0032703502611680468 -0.00082943476736545567 0.00031340811879206933
leaf_count=4805 121 24 78
internal_value=0 -0.0573267 0.000920537
internal_count=5028 145 4883
shrinkage=0.05


Tree=10
num_leaves=31
num_cat=0
split_feature=1 1 1 1 1 1 1 1 1 1 1 1 1 1 1 1 1 1 1 1 1 1 1 1 1 1 1 1 1 1
split_gain=9.95201 4.65887 1.44342 2.89006 2.65891 1.52047 1.0699 0.477972 0.357335 0.35676 0.344991 0.638939 0.800533 0.32594 0.286913 0.976846 0.387706 0.303119 0.5816 0.329027 0.699841 0.263479 0.489502 0.253956 0.526525 0.219573 0.540776 0.282631 0.175838 0.424463
threshold=67.500000000000014 16.500000000000004 39.500000000000007 25.500000000000004 18.500000000000004 34.500000000000007 113.00000000000001 65.500000000000014 22.500000000000004 14.500000000000002 44.500000000000007 42.500000000000007 43.500000000000007 35.500000000000007 97.000000000000014 100.50000000000001 86.500000000000014 75.500000000000014 72.500000000000014 80.500000000000014 79.500000000000014 55.500000000000007 56.500000000000007 20.500000000000004 19.500000000000004 59.500000000000007 60.500000000000007 62.500000000000007 29.500000000000004 28.500000000000004
decision_type=2 2 2 2 2 2 2 2 2 2 2 2 2 2 2 2 2 2 2 2 2 2 2 2 2 2 2 2 2 2
left_child=1 9 3 4 -3 28 14 10 23 -1 11 -4 -13 -7 16 -16 17 18 -2 20 -19 -12 -23 24 -6 -24 -27 -28 29 -5
right_child=6 2 7 5 8 13 -8 -9 -10 -11 21 12 -14 -15 15 -17 -18 19 -20 -21 -22 22 25 -25 -26 26 27 -29 -30 -31
leaf_value=-0.010147166953367346 0.0055690232774998887 -0.0014172687363126924 0.0014426469504833222 -0.0029369169954330692 0.0021348430009761657 0.0041108290851116181 0.015901108284791309 -0.00412681954793441 0.0059075170292936527 -0.0056112649892440724 0.0029895977750598393 -0.012042878568172455 -0.00084466688995119888 -0.00052283898337810786 -0.0061252889037132262 0.0070270157108704261 0.0095426649346456432 0.0047756435646527061 0.012757769800149477 0.0066810964836793788 -0.0056488911310831709 -0.0037289908398752628 0.0046489122722830093 0.0013789006326564407 0.0063274390807672711 -0.0036045490679415789 0.0065091752119966458 0.00071982437250565521 -0.0034520043333803869 0.0030234612323142389
leaf_count=51 101 527 350 155 202 40 30 39 116 289 419 20 79 741 20 48 91 69 39 85 21 46 56 189 119 44 37 49 919 37
internal_value=0 -0.0132598 -0.00411184 -0.0154716 0.0239928 -0.0395215 0.134882 0.0262573 0.0680539 -0.125833 0.0301145 0.00879021 -0.0621386 -0.00571038 0.12329 0.0631738 0.133359 0.11675 0.151432 0.0890041 0.046865 0.044822 0.0177859 0.0566594 0.0737822 0.040629 0.0180786 0.0642118 -0.0632898 -0.035766
internal_count=5028 4524 4184 3045 1153 1892 504 1139 626 340 1100 449 99 781 474 68 406 315 140 175 90 651 232 510 321 186 130 86 1111 192
shrinkage=0.05


Tree=11
num_leaves=4
num_cat=0
split_feature=0 0 0
split_gain=0.0992254 0.203335 0.0209888
threshold=0.10714285714285722 1.0000000180025095e-35 0.17857142857142852
decision_type=2 2 2
left_child=1 -1 -2
right_child=2 -3 -4
leaf_value=6.9812657966546307e-05 -0.0015296255940930887 0.0025368359159020819 0.00012617195430009262
leaf_count=4806 114 85 23
internal_value=0 0.00225373 -0.0250329
internal_count=5028 4891 137
shrinkage=0.05


Tree=12
num_leaves=31
num_cat=0
split_feature=1 1 1 1 1 1 1 1 1 1 1 1 1 1 1 1 1 1 1 1 1 1 1 1 1 1 1 1 1 1
split_gain=8.99138 4.20986 1.30739 2.59875 2.40006 1.37332 0.964868 0.431054 0.322781 0.322125 0.31137 0.576687 0.723869 0.293101 0.258492 0.881991 0.349591 0.273603 0.525031 0.296846 0.632193 0.236895 0.441672 0.230127 0.474834 0.197552 0.489058 0.254416 0.158811 0.382394
threshold=67.500000000000014 16.500000000000004 39.500000000000007 25.500000000000004 18.500000000000004 34.500000000000007 113.00000000000001 65.500000000000014 22.500000000000004 14.500000000000002 44.500000000000007 42.500000000000007 43.500000000000007 35.500000000000007 97.000000000000014 100.50000000000001 86.500000000000014 75.500000000000014 72.500000000000014 80.500000000000014 79.500000000000014 55.500000000000007 56.500000000000007 20.500000000000004 19.500000000000004 59.500000000000007 60.500000000000007 62.500000000000007 29.500000000000004 28.500000000000004
decision_type=2 2 2 2 2 2 2 2 2 2 2 2 2 2 2 2 2 2 2 2 2 2 2 2 2 2 2 2 2 2
left_child=1 9 3 4 -3 28 14 10 23 -1 11 -4 -13 -7 16 -16 17 18 -2 20 -19 -12 -23 24 -6 -24 -27 -28 29 -5
right_child=6 2 7 5 8 13 -8 -9 -10 -11 21 12 -14 -15 15 -17 -18 19 -20 -21 -22 22 25 -25 -26 26 27 -29 -30 -31
leaf_value=-0.0096481363855156245 0.0052902207368671307 -0.0013548985321562477 0.0013691769370010921 -0.002791839876482564 0.0020219528143948849 0.0038956303149461748 0.015102468331654868 -0.0039198688207528537 0.005605086324543789 -0.0053380342039269979 0.0028374483306538804 -0.011450393125414848 -0.00080187547055980831 -0.00049842061944979567 -0.0058186575025320061 0.0066787797026336198 0.0090637374710250684 0.0045379666746526532 0.012120419893509303 0.0063463742592755491 -0.0053699374198913578 -0.0035409392222114236 0.0044135793777448796 0.0012987972251952643 0.0060034298721481777 -0.0034261229363354768 0.0061845487436732738 0.00069176731060962291 -0.0032827265114727167 0.00286546458263655
leaf_count=51 101 527 350 155 202 40 30 39 116 289 419 20 79 741 20 48 91 69 39 85 21 46 56 189 119 44 37 49 919 37
internal_value=0 -0.0126799 -0.00398396 -0.0147952 0.0226275 -0.0376009 0.12813 0.0249188 0.064489 -0.119691 0.0285818 0.0083232 -0.0590618 -0.00546746 0.117123 0.0600613 0.12668 0.110908 0.143858 0.0845478 0.0445224 0.0425543 0.0169183 0.0536594 0.069959 0.0386168 0.017227 0.0610988 -0.0601897 -0.0340326
internal_count=5028 4524 4184 3045 1153 1892 504 1139 626 340 1100 449 99 781 474 68 406 315 140 175 90 651 232 510 321 186 130 86 1111 192
shrinkage=0.05


Tree=13
num_leaves=4
num_cat=0
split_feature=0 0 0
split_gain=0.0953013 0.189215 0.0175723
threshold=0.10714285714285722 1.0000000180025095e-35 0.17857142857142852
decision_type=2 2 2
left_child=1 -1 -2
right_child=2 -3 -4
leaf_value=6.3223200468435622e-05 -0.0014868519677404771 0.0024430513907881344 2.8200382771699327e-05
leaf_count=4806 114 85 23
internal_value=0 0.00209164 -0.02465
internal_count=5028 4891 137
shrinkage=0.05


Tree=14
num_leaves=31
num_cat=0
split_feature=1 1 1 1 1 1 1 1 1 1 1 1 1 1 1 1 1 1 1 1 1 1 1 1 1 1 1 1 1 1
split_gain=8.12375 3.80423 1.18428 2.33665 2.16643 1.24041 0.870151 0.388741 0.29157 0.290854 0.28104 0.520504 0.654568 0.263553 0.232867 0.796337 0.315228 0.246968 0.473976 0.267803 0.571102 0.212959 0.398495 0.208536 0.428212 0.177729 0.442274 0.229005 0.145928 0.490156
threshold=67.500000000000014 16.500000000000004 39.500000000000007 25.500000000000004 18.500000000000004 34.500000000000007 113.00000000000001 65.500000000000014 22.500000000000004 14.500000000000002 44.500000000000007 42.500000000000007 43.500000000000007 35.500000000000007 97.000000000000014 100.50000000000001 86.500000000000014 75.500000000000014 72.500000000000014 80.500000000000014 79.500000000000014 55.500000000000007 56.500000000000007 20.500000000000004 19.500000000000004 59.500000000000007 60.500000000000007 62.500000000000007 48.500000000000007 46.500000000000007
decision_type=2 2 2 2 2 2 2 2 2 2 2 2 2 2 2 2 2 2 2 2 2 2 2 2 2 2 2 2 2 2
left_child=1 9 3 4 -3 -5 14 10 23 -1 11 -4 -13 -7 16 -16 17 18 -2 20 -19 28 -23 24 -6 -24 -27 -28 29 -12
right_child=6 2 7 5 8 13 -8 -9 -10 -11 21 12 -14 -15 15 -17 -18 19 -20 -21 -22 22 25 -25 -26 26 27 -29 -30 -31
leaf_value=-0.0091735574836824454 0.0050256349957815494 -0.0012951317672711396 0.0012996578386851719 -0.0028618897622389155 0.0019151329625361037 0.0036917373538017276 0.014344242364168168 -0.0037230613522040538 0.0053182365822380985 -0.005077998536062076 0.0039020841797957058 -0.010886984169483187 -0.00076101808985577356 -0.0004749458469199105 -0.0055269224941730498 0.0063481747483213743 0.0086091312897074359 0.0043124251823494402 0.011515257182793739 0.0060286288752275357 -0.0051046013832092285 -0.0033619229560313021 0.0041904144521270484 0.0012233501073544619 0.0056960968159827869 -0.0032561371272260492 0.0058763493959968155 0.00066509036993493839 0.003518908955949418 -0.0013036803714931012
leaf_count=51 101 527 350 1111 202 40 30 39 116 289 104 20 79 741 20 48 91 69 39 85 21 46 56 189 119 44 37 49 235 80
internal_value=0 -0.0121215 -0.00385513 -0.0141448 0.0213406 -0.0357698 0.121723 0.0236531 0.0611125 -0.113847 0.0271317 0.00788508 -0.0561334 -0.00523087 0.111269 0.05711 0.12034 0.105364 0.136669 0.0803193 0.0423024 0.0404063 0.0160999 0.0508198 0.066336 0.0367105 0.0164222 0.0581429 0.0538647 0.0327742
internal_count=5028 4524 4184 3045 1153 1892 504 1139 626 340 1100 449 99 781 474 68 406 315 140 175 90 651 232 510 321 186 130 86 419 184
shrinkage=0.05


Tree=15
num_leaves=4
num_cat=0
split_feature=0 0 0
split_gain=0.0972552 0.21426 0.0717641
threshold=0.10714285714285722 0.17857142857142852 1.0000000180025095e-35
decision_type=2 2 2
left_child=2 -2 -1
right_child=1 -3 -4
leaf_value=-3.7472067090372249e-05 -0.0022961296141147613 0.0024444082379341129 0.0014542743381930562
leaf_count=4800 116 30 82
internal_value=0 -0.0264409 -0.000248322
internal_count=5028 146 4882
shrinkage=0.05


Tree=16
num_leaves=31
num_cat=0
split_feature=1 1 1 1 1 1 1 1 1 1 1 1 1 1 1 1 1 1 1 1 1 1 1 1 1 1 1 1 1 1
split_gain=5.35139 1.88714 1.1171 1.83772 0.756956 0.709073 0.701693 0.67135 0.575422 0.557878 0.62609 0.496932 0.711559 0.40507 0.555767 1.18327 0.444344 0.350505 0.169195 0.192769 0.164597 0.160095 0.142119 0.129151 0.11025 0.103777 0.775199 0.319786 0.345263 0.248936
threshold=60.500000000000007 16.500000000000004 39.500000000000007 25.500000000000004 59.500000000000007 34.500000000000007 17.500000000000004 14.500000000000002 107.50000000000001 92.500000000000014 89.500000000000014 100.50000000000001 97.000000000000014 56.500000000000007 42.500000000000007 43.500000000000007 44.500000000000007 40.500000000000007 31.500000000000004 32.500000000000007 27.500000000000004 19.500000000000004 55.500000000000007 116.50000000000001 20.500000000000004 67.500000000000014 65.500000000000014 75.500000000000014 80.500000000000014 78.500000000000014
decision_type=2 2 2 2 2 2 2 2 2 2 2 2 2 2 2 2 2 2 2 2 2 2 2 2 2 2 2 2 2 2
left_child=1 7 3 6 13 18 -3 -1 9 10 25 12 -11 14 17 -16 -17 -4 20 -20 -5 -8 -18 -10 -23 26 -2 -27 29 -29
right_child=8 2 4 5 -6 -7 21 -9 23 11 -12 -13 -14 -15 15 16 22 -19 19 -21 -22 24 -24 -25 -26 27 -28 28 -30 -31
leaf_value=-0.0095204007923603076 0.0050677577654520672 -0.0014929823771285301 0.0012895187148107934 -0.0040163104213885407 -0.005344280092553659 -0.00064179341535310498 0.00077629174645009805 -0.0032712119174938578 0.012065439112484456 0.0017027603857444997 0.010727377437256477 0.0058645835767189665 -0.010249260812997818 0.0053399068365494419 -0.011250404674898495 -0.0028600031137466435 0.0014808573064432817 0.0044363923177316595 -0.0040620485873057921 -0.0023931684159176612 -0.0012879687538252603 0.0034480934168981472 -0.0013679013568527847 0.0070244332154591879 0.0016330081447716257 0.0062877810286248439 -0.0037178765324985281 0.0025446553864786701 0.005126878047230268 -0.0032840555103925556
leaf_count=50 96 269 208 67 44 777 456 306 24 33 37 24 20 60 22 80 411 154 290 429 316 115 49 27 307 136 34 62 99 26
internal_value=0 -0.0131711 -0.00704105 -0.0167164 0.021439 -0.0359705 0.0148255 -0.0829781 0.0861902 0.0770387 0.0894732 -0.00208938 -0.0561487 0.0271771 0.0220069 0.0023237 0.0115854 0.0525649 -0.0522823 -0.0613258 -0.035305 0.028516 0.0235481 0.187933 0.0425528 0.0792574 0.0553995 0.0888596 0.0620261 0.0164507
internal_count=5028 4410 4054 3026 1028 1879 1147 356 618 567 490 77 53 984 924 562 540 362 1102 719 383 878 460 51 422 453 130 323 187 88
shrinkage=0.05


Tree=17
num_leaves=4
num_cat=0
split_feature=0 0 0
split_gain=0.093942 0.189436 0.0674597
threshold=0.10714285714285722 0.17857142857142852 1.0000000180025095e-35
decision_type=2 2 2
left_child=2 -2 -1
right_child=1 -3 -4
leaf_value=-3.2444110140204428e-05 -0.0022111977354205888 0.0022462665041287741 0.0014138732559797241
leaf_count=4800 116 30 82
internal_value=0 -0.0259056 -0.000163024
internal_count=5028 146 4882
shrinkage=0.05


Tree=18
num_leaves=31
num_cat=0
split_feature=1 1 1 1 1 1 1 1 1 1 1 1 1 1 1 1 1 1 1 1 1 1 1 1 1 1 1 1 1 1
split_gain=4.83573 1.70521 1.00988 1.65304 0.683565 0.64069 0.633213 0.60617 0.517636 0.503826 0.564252 0.449491 0.642193 0.364499 0.501876 1.06891 0.40017 0.316186 0.152225 0.173775 0.149144 0.144571 0.128419 0.116543 0.0997081 0.0934355 0.700221 0.288594 0.312054 0.224461
threshold=60.500000000000007 16.500000000000004 39.500000000000007 25.500000000000004 59.500000000000007 34.500000000000007 17.500000000000004 14.500000000000002 107.50000000000001 92.500000000000014 89.500000000000014 100.50000000000001 97.000000000000014 56.500000000000007 42.500000000000007 43.500000000000007 44.500000000000007 40.500000000000007 31.500000000000004 32.500000000000007 27.500000000000004 19.500000000000004 55.500000000000007 116.50000000000001 20.500000000000004 67.500000000000014 65.500000000000014 75.500000000000014 80.500000000000014 78.500000000000014
decision_type=2 2 2 2 2 2 2 2 2 2 2 2 2 2 2 2 2 2 2 2 2 2 2 2 2 2 2 2 2 2
left_child=1 7 3 6 13 18 -3 -1 9 10 25 12 -11 14 17 -16 -17 -4 20 -20 -5 -8 -18 -10 -23 26 -2 -27 29 -29
right_child=8 2 4 5 -6 -7 21 -9 23 11 -12 -13 -14 -15 15 16 22 -19 19 -21 -22 24 -24 -25 -26 27 -28 28 -30 -31
leaf_value=-0.0090456511080265044 0.0048228001377234857 -0.0014190133010144571 0.001229436301554625 -0.0038182650929066671 -0.0050756714899431576 -0.00060584230619354447 0.00073647218053801017 -0.0031075632211819194 0.011459042256077131 0.0016190938877336906 0.010192631386421822 0.0055820552632212641 -0.0097354266047477728 0.0050706529120604204 -0.010689549283547836 -0.0027099336497485639 0.0014099925720198602 0.0042182846212541905 -0.0038549787628239605 -0.002270447461060433 -0.0012211527156678937 0.0032763719558715821 -0.0012979858079735114 0.0066704289780722724 0.001550243008602714 0.0059789457084501495 -0.0035271563074168039 0.0024207209627474507 0.0048775576130308286 -0.0031140398520689747
leaf_count=50 96 269 208 67 44 777 456 306 24 33 37 24 20 60 22 80 411 154 290 429 316 115 49 27 307 136 34 62 99 26
internal_value=0 -0.0124744 -0.00664726 -0.0158466 0.0204317 -0.0341076 0.0140684 -0.0788313 0.0819785 0.0732987 0.0851154 -0.00189847 -0.0533126 0.0258845 0.0209801 0.00227548 0.0110782 0.0500187 -0.049613 -0.058191 -0.0335096 0.0270738 0.0224307 0.178478 0.0404127 0.0754172 0.0527793 0.0845285 0.0590372 0.015709
internal_count=5028 4410 4054 3026 1028 1879 1147 356 618 567 490 77 53 984 924 562 540 362 1102 719 383 878 460 51 422 453 130 323 187 88
shrinkage=0.05


Tree=19
num_leaves=4
num_cat=0
split_feature=0 0 0
split_gain=0.0905468 0.167461 0.0633718
threshold=0.10714285714285722 0.17857142857142852 1.0000000180025095e-35
decision_type=2 2 2
left_child=2 -2 -1
right_child=1 -3 -4
leaf_value=-2.7939346929391226e-05 -0.0021292061641298493 0.0020617526769638062 0.001373871815640752
leaf_count=4800 116 30 82
internal_value=0 -0.025361 -8.78795e-05
internal_count=5028 146 4882
shrinkage=0.05


Tree=20
num_leaves=31
num_cat=0
split_feature=1 1 1 1 1 1 1 1 1 1 1 1 1 1 1 1 1 1 1 1 1 1 1 1 1 1 1 1 1 1
split_gain=5.13542 1.95523 0.814306 1.35947 0.62047 0.50364 0.614651 0.443649 0.395634 0.380421 0.345853 0.306035 0.689882 0.307827 0.459727 0.22396 0.83136 0.321708 0.215933 0.753143 0.19083 0.445881 0.490852 0.281688 0.14413 0.13537 0.144612 0.149472 0.130708 0.424002
threshold=61.500000000000007 16.500000000000004 37.500000000000007 25.500000000000004 18.500000000000004 63.500000000000007 66.500000000000014 14.500000000000002 36.500000000000007 59.500000000000007 32.500000000000007 44.500000000000007 42.500000000000007 46.500000000000007 48.500000000000007 107.50000000000001 97.000000000000014 100.50000000000001 31.500000000000004 30.500000000000004 80.500000000000014 75.500000000000014 76.500000000000014 79.500000000000014 17.500000000000004 85.500000000000014 89.500000000000014 92.500000000000014 20.500000000000004 19.500000000000004
decision_type=2 2 2 2 2 2 2 2 2 2 2 2 2 2 2 2 2 2 2 2 2 2 2 2 2 2 2 2 2 2
left_child=1 7 3 4 24 -2 -7 -1 10 11 18 12 -4 -13 -15 16 20 -18 19 -5 21 -8 -23 -24 -3 -22 -27 -28 29 -6
right_child=5 2 9 8 28 6 15 -9 -10 -11 -12 13 -14 14 -16 -17 17 -19 -20 -21 25 22 23 -25 -26 26 27 -29 -30 -31
leaf_value=-0.0083330236099384454 0.010377585797598869 -0.0015197097521388171 0.00087474083064953032 -0.0022726677754679983 0.0010023034666434374 -0.0001929906407992045 0.0057088119375122183 -0.0033983759966093245 -0.0076885954649360093 -0.0035222674310207373 -0.00093559736113869743 0.0043261905028982072 -0.0035489047665407166 -0.0027347746686857254 0.0019823968587360324 0.0076731790195811878 -0.0067275711148977284 0.0015154247653895413 -0.0034511418211258063 0.0062431395586047857 0.0083278648555278785 -0.0055415660142898561 0.0063288010882608832 -0.0011912402510643007 0.00014205869547156402 0.003412475872714565 0.0093465596437454224 0.0044339677194754285 0.00091049224622063822 0.0048602787202054812
leaf_count=54 33 264 692 357 202 75 143 291 27 50 890 103 101 61 337 55 20 29 295 28 56 21 33 20 258 53 32 30 308 110
internal_value=0 -0.0111256 -0.00501743 -0.01491 0.0114356 0.0874583 0.0804688 -0.0834151 -0.0337495 0.015143 -0.0316854 0.0184502 0.00622651 0.0377982 0.0251883 0.0933237 0.0857547 -0.0369813 -0.0486653 -0.0330667 0.101255 0.081568 0.0185548 0.069821 -0.0139675 0.126237 0.106604 0.13939 0.0328235 0.0472497
internal_count=5028 4428 4083 2739 1142 600 567 345 1597 1344 1570 1294 793 501 398 492 437 49 680 385 388 217 74 53 522 171 115 62 620 312
shrinkage=0.05


Tree=21
num_leaves=4
num_cat=0
split_feature=0 0 0
split_gain=0.693318 0.0553372 0.0851811
threshold=1.0000000180025095e-35 0.17857142857142852 0.10714285714285722
decision_type=2 2 2
left_child=-1 2 -2
right_child=1 -3 -4
leaf_value=0.00015711455507441227 -0.0017223012819886207 -0.00056592921415964765 -0.0038393796509147713
leaf_count=4804 80 27 117
internal_value=0 -0.0537743 -0.059593
internal_count=5028 224 197
shrinkage=0.05


Tree=22
num_leaves=31
num_cat=0
split_feature=1 1 1 1 1 1 1 1 1 1 1 1 1 1 1 1 1 1 1 1 1 1 1 1 1 1 1 1 1 1
split_gain=4.64388 1.76659 0.736045 1.22561 0.560402 0.453841 0.551778 0.400468 0.357216 0.342988 0.318896 0.27666 0.621024 0.277058 0.414547 0.202152 0.750525 0.290112 0.172411 0.402416 0.44286 0.255164 0.129827 0.123768 0.18928 0.122373 0.129545 0.134514 0.117188 0.382505
threshold=61.500000000000007 16.500000000000004 37.500000000000007 25.500000000000004 18.500000000000004 63.500000000000007 66.500000000000014 14.500000000000002 36.500000000000007 59.500000000000007 34.500000000000007 44.500000000000007 42.500000000000007 46.500000000000007 48.500000000000007 107.50000000000001 97.000000000000014 100.50000000000001 80.500000000000014 75.500000000000014 76.500000000000014 79.500000000000014 17.500000000000004 40.500000000000007 41.500000000000007 85.500000000000014 89.500000000000014 92.500000000000014 20.500000000000004 19.500000000000004
decision_type=2 2 2 2 2 2 2 2 2 2 2 2 2 2 2 2 2 2 2 2 2 2 2 2 2 2 2 2 2 2
left_child=1 7 3 4 22 -2 -7 -1 10 11 -5 12 23 -13 -15 16 18 -18 19 -8 -21 -22 -3 -4 -25 -20 -27 -28 29 -6
right_child=5 2 9 8 28 6 15 -9 -10 -11 -12 13 -14 14 -16 -17 17 -19 25 20 21 -23 -24 24 -26 26 27 -29 -30 -31
leaf_value=-0.0079207477746186441 0.0098569059010707987 -0.0014463692790631093 0.0004454968586535463 -0.0019627381055958609 0.0009476479474860843 -0.0001698819398880005 0.0054241524605484273 -0.0032323972926926372 -0.0073072028380853152 -0.0033452943563461305 -0.00039302922066366468 0.0041062568287247598 -0.0033684919818793195 -0.0025960641073398904 0.0018833245297214044 0.0072909025441516536 -0.0063890569657087323 0.0014386878959063826 0.0079149662650057264 -0.0052628282989774441 0.0060177106297377384 -0.0011395344138145447 0.00013078842167706453 0.0059242350550798269 0.0012913646677444723 0.003249759353556723 0.0088713753968477256 0.0042110741138458255 0.00086470658032151016 0.004611972746523944
leaf_count=54 33 264 521 1114 202 75 143 291 27 50 456 103 101 61 337 55 20 29 56 21 33 20 258 26 145 53 32 30 308 110
internal_value=0 -0.0106107 -0.00480464 -0.0142098 0.0108051 0.0831366 0.0765016 -0.0793245 -0.0320978 0.0143626 -0.0301365 0.0175028 0.00588056 0.0358988 0.0239357 0.0886813 0.0814902 -0.0351262 0.0962175 0.0775049 0.0176417 0.0663373 -0.0133371 0.0165717 0.0399156 0.119964 0.101296 0.132328 0.0311313 0.0447911
internal_count=5028 4428 4083 2739 1142 600 567 345 1597 1344 1570 1294 793 501 398 492 437 49 388 217 74 53 522 692 171 171 115 62 620 312
shrinkage=0.05


Tree=23
num_leaves=4
num_cat=0
split_feature=0 0 0
split_gain=0.627891 0.0462392 0.0814176
threshold=1.0000000180025095e-35 0.17857142857142852 0.10714285714285722
decision_type=2 2 2
left_child=-1 2 -2
right_child=1 -3 -4
leaf_value=0.00014802666875742357 -0.0015968841128051283 -0.00061974580641146072 -0.0036666643925202199
leaf_count=4804 80 27 117
internal_value=0 -0.0512039 -0.0565229
internal_count=5028 224 197
shrinkage=0.05


Tree=24
num_leaves=31
num_cat=0
split_feature=1 1 1 1 1 1 1 1 1 1 1 1 1 1 1 1 1 1 1 1 1 1 1 1 1 1 1 1 1 1
split_gain=4.19955 1.59621 0.665377 1.10485 0.506146 0.408956 0.495328 0.361491 0.322521 0.309228 0.292423 0.250123 0.559039 0.249358 0.373817 0.19673 0.681055 0.184363 0.402675 0.475046 0.155772 0.363184 0.399568 0.231148 0.116942 0.111597 0.170397 0.110628 0.116036 0.12105
threshold=61.500000000000007 16.500000000000004 37.500000000000007 25.500000000000004 18.500000000000004 63.500000000000007 66.500000000000014 14.500000000000002 36.500000000000007 59.500000000000007 32.500000000000007 44.500000000000007 42.500000000000007 46.500000000000007 48.500000000000007 31.500000000000004 30.500000000000004 113.00000000000001 97.000000000000014 100.50000000000001 80.500000000000014 75.500000000000014 76.500000000000014 79.500000000000014 17.500000000000004 40.500000000000007 41.500000000000007 85.500000000000014 89.500000000000014 92.500000000000014
decision_type=2 2 2 2 2 2 2 2 2 2 2 2 2 2 2 2 2 2 2 2 2 2 2 2 2 2 2 2 2 2
left_child=1 7 3 4 24 -2 -7 -1 10 11 15 12 25 -13 -15 16 -5 18 20 -20 21 -8 -23 -24 -3 -4 -27 -22 -29 -30
right_child=5 2 9 8 -6 6 17 -9 -10 -11 -12 13 -14 14 -16 -17 -18 -19 19 -21 27 22 23 -25 -26 26 -28 28 29 -31
leaf_value=-0.0075288793279065028 0.0093624388629739933 -0.0013765578637972024 0.00042118749611666013 -0.0020582605977686181 0.0014763145749607394 -0.0001484440565109253 0.0051538147709586403 -0.003074524682207206 -0.0069445910277190041 -0.0031770336329936984 -0.000836623294299908 0.003897619030429322 -0.0031971629450816921 -0.002464281364542539 0.0017893634006955858 -0.0031853169909978316 0.0060397511082036157 0.0077110696264675697 -0.006067469045519829 0.0030768110739941498 0.0075227198590125362 -0.0049980059975669499 0.0057221472263336189 -0.0010899591445922851 0.00012029226898222931 0.0056206214886445269 0.0012249214382007206 0.0030949897080097561 0.0084204047918319709 0.0039994767308235172
leaf_count=54 33 264 521 357 620 75 143 291 27 50 890 103 101 61 337 295 28 35 20 49 56 21 33 20 258 26 145 53 32 30
internal_value=0 -0.0101183 -0.00459927 -0.0135415 0.0102091 0.0790314 0.072733 -0.0754346 -0.0305254 0.0136246 -0.0286618 0.0166062 0.00555549 0.0340978 0.0227485 -0.0442751 -0.0293863 0.084273 0.0789159 0.0085259 0.0914337 0.0736469 0.0167766 0.0630308 -0.0127347 0.0156991 0.0378655 0.114005 0.0962559 0.125625
internal_count=5028 4428 4083 2739 1142 600 567 345 1597 1344 1570 1294 793 501 398 680 385 492 457 69 388 217 74 53 522 692 171 171 115 62
shrinkage=0.05


Tree=25
num_leaves=4
num_cat=0
split_feature=0 0 0
split_gain=0.223393 0.0862561 0.00237801
threshold=0.10714285714285722 1.0000000180025095e-35 0.17857142857142852
decision_type=2 2 2
left_child=1 -1 -2
right_child=2 -3 -4
leaf_value=0.00011246490574111493 -0.0017814130217087372 0.0017192819539238427 -0.0023367848085320514
leaf_count=4801 119 85 23
internal_value=0 0.00280836 -0.0374274
internal_count=5028 4886 142
shrinkage=0.05


Tree=26
num_leaves=31
num_cat=0
split_feature=1 1 1 1 1 1 1 1 1 1 1 1 1 1 1 1 1 1 1 1 1 1 1 1 1 1 1 1 1 1
split_gain=4.34718 1.16958 1.53415 0.755479 0.476297 0.442552 0.407061 0.347594 0.295187 0.168117 0.300204 0.434753 0.188633 0.16257 0.156613 0.147512 0.836817 0.138984 0.12034 0.111861 0.138196 0.106079 0.0885908 0.333211 0.0850128 0.178364 0.101682 0.0824647 0.067859 0.0627196
threshold=37.500000000000007 26.500000000000004 16.500000000000004 46.500000000000007 35.500000000000007 14.500000000000002 107.50000000000001 42.500000000000007 17.500000000000004 97.000000000000014 84.500000000000014 77.500000000000014 80.500000000000014 70.500000000000014 75.500000000000014 40.500000000000007 41.500000000000007 49.500000000000007 15.500000000000002 43.500000000000007 45.500000000000007 119.00000000000001 29.500000000000004 28.500000000000004 22.500000000000004 25.500000000000004 24.500000000000004 36.500000000000007 92.500000000000014 21.500000000000004
decision_type=2 2 2 2 2 2 2 2 2 2 2 2 2 2 2 2 2 2 2 2 2 2 2 2 2 2 2 2 2 2
left_child=1 2 5 7 22 -1 9 15 -4 10 11 13 -13 17 -15 -2 -17 -5 -7 -9 -21 -8 23 -3 29 26 -26 -6 -12 -10
right_child=3 4 8 6 27 18 21 19 24 -11 28 12 -14 14 -16 16 -18 -19 -20 20 -22 -23 -24 -25 25 -27 -28 -29 -30 -31
leaf_value=-0.0071610347540290269 0.00095641487323607952 -0.0028018815743346371 -0.00069597505255421601 0.0043627126120972907 -0.00048923459893124863 -0.00084894895553588867 0.0097349454338351901 -0.0041721986606717111 0.0011314489149975274 -0.00024448660016059877 0.0057389906545480089 -0.0027957601874482401 0.0014257225394248962 0.0056730779153960093 0.0016078966585072606 0.011521257719267972 0.0012145237004669914 0.0022159059517151487 -0.0029593434855341911 0.00070515994978423164 -0.0020307638364679675 0.0048044565320014962 -0.0028122701817453856 0.002549725614095989 0.0021905691804070221 -0.00065731864709120532 0.005331084246818836 -0.0034486325979232791 0.0031953636053446179 -0.00036758438516885808
leaf_count=54 511 124 268 87 403 102 24 24 662 50 90 51 55 84 33 23 137 565 200 101 85 20 943 38 76 39 39 25 37 78
internal_value=0 -0.022081 -0.00240541 0.0381163 -0.0415641 -0.0598403 0.0556426 0.0163128 0.0151908 0.0517013 0.0545252 0.0479308 -0.0121074 0.0562066 0.0905298 0.0274249 0.0539223 0.0500473 -0.0449312 -0.019193 -0.0109026 0.149876 -0.0525342 -0.0309313 0.0239174 0.0452935 0.0651123 -0.0132419 0.0999587 0.0194689
internal_count=5028 3051 1518 1977 1533 356 1096 881 1162 1052 1002 875 106 769 117 671 160 652 302 210 186 44 1105 162 894 154 115 428 127 740
shrinkage=0.05


Tree=27
num_leaves=4
num_cat=0
split_feature=0 0 0
split_gain=0.206973 0.0800173 0.00227373
threshold=0.10714285714285722 1.0000000180025095e-35 0.17857142857142852
decision_type=2 2 2
left_child=1 -1 -2
right_child=2 -3 -4
leaf_value=0.00010321559110946196 -0.0017183391111237662 0.0016508321727023408 -0.0022613968538201376
leaf_count=4801 119 85 23
internal_value=0 0.00260278 -0.036126
internal_count=5028 4886 142
shrinkage=0.05


Tree=28
num_leaves=31
num_cat=0
split_feature=1 1 1 1 1 1 1 1 1 1 1 1 1 1 1 1 1 1 1 1 1 1 1 1 1 1 1 1 1 1
split_gain=3.93464 1.05133 1.38461 0.683278 0.430152 0.399551 0.36737 0.313907 0.266473 0.151176 0.27093 0.392053 0.170205 0.146491 0.141379 0.133143 0.754684 0.125248 0.108584 0.101316 0.125242 0.0957513 0.0798826 0.299941 0.0771119 0.160413 0.0917187 0.0746234 0.0611612 0.0565324
threshold=37.500000000000007 26.500000000000004 16.500000000000004 46.500000000000007 35.500000000000007 14.500000000000002 107.50000000000001 42.500000000000007 17.500000000000004 97.000000000000014 84.500000000000014 77.500000000000014 80.500000000000014 70.500000000000014 75.500000000000014 40.500000000000007 41.500000000000007 49.500000000000007 15.500000000000002 43.500000000000007 45.500000000000007 119.00000000000001 29.500000000000004 28.500000000000004 22.500000000000004 25.500000000000004 24.500000000000004 36.500000000000007 92.500000000000014 21.500000000000004
decision_type=2 2 2 2 2 2 2 2 2 2 2 2 2 2 2 2 2 2 2 2 2 2 2 2 2 2 2 2 2 2
left_child=1 2 5 7 22 -1 9 15 -4 10 11 13 -13 17 -15 -2 -17 -5 -7 -9 -21 -8 23 -3 29 26 -26 -6 -12 -10
right_child=3 4 8 6 27 18 21 19 24 -11 28 12 -14 14 -16 16 -18 -19 -20 20 -22 -23 -24 -25 25 -27 -28 -29 -30 -31
leaf_value=-0.0068110101752811014 0.00090636433978836606 -0.0026644129906931231 -0.0006685954254509798 0.004142714437397047 -0.00046763851979825992 -0.0008138039825009365 0.0092479634409149483 -0.0039719743033250175 0.0010670549379734836 -0.00022777202725410463 0.0054509281449847749 -0.0026552432308010031 0.001354737308892337 0.0053875159294832324 0.0015251002528450708 0.010940034169217815 0.0011521588929378204 0.0021047594985075758 -0.002818471223115921 0.00067015240097990133 -0.0019343861060983998 0.0045636269450187684 -0.0026753014259727741 0.0024130058523855712 0.0020750408698069424 -0.00062424666606462919 0.0050577355118898246 -0.0032828224897384645 0.0030360925036507684 -0.00035611937443415324
leaf_count=54 511 124 268 87 403 102 24 24 662 50 90 51 55 84 33 23 137 565 200 101 85 20 943 38 76 39 39 25 37 78
internal_value=0 -0.0210848 -0.00243028 0.036185 -0.0395568 -0.0569942 0.0528528 0.0154496 0.0142864 0.0491085 0.0517864 0.0455218 -0.0114919 0.0533806 0.0859623 0.0260095 0.0511833 0.0475339 -0.042828 -0.0182919 -0.0104019 0.142374 -0.0499819 -0.0294683 0.0225777 0.0429363 0.0617313 -0.0126415 0.0949479 0.0183409
internal_count=5028 3051 1518 1977 1533 356 1096 881 1162 1052 1002 875 106 769 117 671 160 652 302 210 186 44 1105 162 894 154 115 428 127 740
shrinkage=0.05


Tree=29
num_leaves=4
num_cat=0
split_feature=0 0 0
split_gain=0.191714 0.0742148 0.00217062
threshold=0.10714285714285722 1.0000000180025095e-35 0.17857142857142852
decision_type=2 2 2
left_child=1 -1 -2
right_child=2 -3 -4
leaf_value=9.4799126617314044e-05 -0.0016570175520512237 0.0015852470608318553 -0.0021876188076060754
leaf_count=4801 119 85 23
internal_value=0 0.00241456 -0.0348592
internal_count=5028 4886 142
shrinkage=0.05


Tree=30
num_leaves=31
num_cat=0
split_feature=1 1 1 1 1 1 1 1 1 1 1 1 1 1 1 1 1 1 1 1 1 1 1 1 1 1 1 1 1 1
split_gain=2.59427 1.765 0.765392 0.587894 1.47835 0.54523 0.292084 0.222163 0.165606 0.149425 0.149096 0.588715 0.265499 0.117802 0.580489 0.127974 0.230514 0.254931 0.163571 0.251913 0.125533 0.118825 0.13439 0.392167 0.125975 0.151533 0.112379 0.0999778 0.091128 0.0883049
threshold=39.500000000000007 14.500000000000002 84.500000000000014 25.500000000000004 18.500000000000004 83.500000000000014 16.500000000000004 26.500000000000004 37.500000000000007 21.500000000000004 95.500000000000014 100.50000000000001 89.500000000000014 56.500000000000007 59.500000000000007 46.500000000000007 50.500000000000007 52.500000000000007 44.500000000000007 42.500000000000007 43.500000000000007 61.500000000000007 76.500000000000014 80.500000000000014 72.500000000000014 63.500000000000007 49.500000000000007 78.500000000000014 36.500000000000007 66.500000000000014
decision_type=2 2 2 2 2 2 2 2 2 2 2 2 2 2 2 2 2 2 2 2 2 2 2 2 2 2 2 2 2 2
left_child=1 -1 5 4 6 13 -3 -5 28 -6 12 -12 -4 15 -15 18 26 -18 19 -2 -21 -16 24 27 25 -23 -17 -24 -9 -27
right_child=2 3 10 7 9 -7 -8 8 -10 -11 11 -13 -14 14 21 16 17 -19 -20 20 -22 22 23 -25 -26 29 -28 -29 -30 -31
leaf_value=-0.010514425827811162 0.0014784901726828971 -0.0027412785273609741 0.0029116537421941761 -0.0053854953816958838 0.0022753550346059598 -0.007006935562406268 -0.00077169351714594363 -0.0015223476269006888 -0.00028956980009873709 0.00058050466412528951 -0.002659567051074084 0.0051252260278252994 0.0078948734565214684 0.0061011255690545749 -0.0012317085266113281 -0.00022671280118326346 0.0037943386938422922 -2.3584521335104237e-05 0.0030219435551256508 -0.0043630662560462958 -0.0003324945533976836 0.0042549587786197664 -0.0011766842433384487 0.0040725817282994594 0.0037505961078054765 -0.00062762216941730396 -0.0028721345723539161 -0.0056808720258149231 -0.0044529712310543762 0.0016062534939159047
leaf_count=48 368 297 52 35 427 21 514 1511 300 187 34 85 55 66 50 96 64 138 106 25 85 36 28 30 68 74 69 22 27 110
internal_value=0 -0.0199117 0.0282308 -0.0171409 -0.00183409 0.0198265 -0.0298597 -0.0287866 -0.0272837 0.0351834 0.0823755 0.05802 0.109462 0.0221675 0.0348679 0.0157037 0.00107037 0.0237211 0.0248997 0.0170186 -0.0249707 0.0211066 0.0273214 -0.00893722 0.0373933 0.0257657 -0.0266596 -0.0631705 -0.0314759 0.0141569
internal_count=5028 3346 1682 3298 1425 1456 811 1873 1838 614 226 119 107 1435 484 951 367 202 584 478 110 418 368 80 288 220 165 50 1538 184
shrinkage=0.05


Tree=31
num_leaves=4
num_cat=0
split_feature=0 0 0
split_gain=0.0130332 0.0942537 0.000712655
threshold=0.10714285714285722 1.0000000180025095e-35 0.17857142857142852
decision_type=2 2 2
left_child=1 -1 -2
right_child=2 -3 -4
leaf_value=-0.00019511906530934509 -0.00070577614140092284 0.001546076826656921 -0.00043540496018625073
leaf_count=4804 114 79 31
internal_value=0 -0.00333898 -0.0129595
internal_count=5028 4883 145
shrinkage=0.05


Tree=32
num_leaves=31
num_cat=0
split_feature=1 1 1 1 1 1 1 1 1 1 1 1 1 1 1 1 1 1 1 1 1 1 1 1 1 1 1 1 1 1
split_gain=2.34591 1.59304 0.691008 0.528365 1.34348 0.492161 0.22274 0.200355 0.149855 0.134663 0.134476 0.531339 0.23944 0.106537 0.523651 0.11551 0.208074 0.230249 0.147611 0.227419 0.113571 0.107261 0.121234 0.353965 0.113679 0.136756 0.101405 0.0995945 0.090276 0.0850968
threshold=39.500000000000007 14.500000000000002 84.500000000000014 25.500000000000004 17.500000000000004 83.500000000000014 18.500000000000004 26.500000000000004 37.500000000000007 21.500000000000004 95.500000000000014 100.50000000000001 89.500000000000014 56.500000000000007 59.500000000000007 46.500000000000007 50.500000000000007 52.500000000000007 44.500000000000007 42.500000000000007 43.500000000000007 61.500000000000007 76.500000000000014 80.500000000000014 72.500000000000014 63.500000000000007 49.500000000000007 16.500000000000004 78.500000000000014 29.500000000000004
decision_type=2 2 2 2 2 2 2 2 2 2 2 2 2 2 2 2 2 2 2 2 2 2 2 2 2 2 2 2 2 2
left_child=1 -1 5 4 27 13 -6 -5 29 -8 12 -12 -4 15 -15 18 26 -18 19 -2 -21 -16 24 28 25 -23 -17 -3 -24 -9
right_child=2 3 10 7 6 -7 9 8 -10 -11 11 -13 -14 14 21 16 17 -19 -20 20 -22 22 23 -25 -26 -27 -28 -29 -30 -31
leaf_value=-0.0099807617564996089 0.00141484460429005 -0.002596424319326677 0.0027775307973990078 -0.0051053923794201449 -0.00011336382878713372 -0.0066468316884267901 0.0021677361823077505 -0.0003828942301167045 -0.00026431402067343392 0.00055877948827284547 -0.0025153752197237577 0.0048803458318990821 0.0075098855116150602 0.0058062137527899313 -0.001159105360507965 -0.00020546391606330873 0.0036157626425847413 -1.2637512839358786e-05 0.0028809558108167828 -0.0041386394500732421 -0.00030491204822764677 0.0040533856799205145 -0.0011058413556643896 0.003880811333656311 0.0035741254468174542 0.00068366349391315304 -0.0027184017758438554 -0.0012721401639282704 -0.005385911396958612 -0.0016113463128329534
leaf_count=48 368 297 52 35 242 21 427 157 300 187 34 85 55 66 50 96 64 138 106 25 85 36 28 30 68 184 69 272 22 1381
internal_value=0 -0.0187503 0.0270299 -0.0161179 -0.00160672 0.0190444 0.0234271 -0.0271582 -0.025731 0.0335542 0.0784763 0.0553457 0.104201 0.0212685 0.0333464 0.0151216 0.0012191 0.0227391 0.0238582 0.0163715 -0.0235243 0.0202762 0.0261808 -0.00825732 0.035747 0.0247015 -0.0251266 -0.0392675 -0.0597814 -0.0297189
internal_count=5028 3346 1682 3298 1425 1456 856 1873 1838 614 226 119 107 1435 484 951 367 202 584 478 110 418 368 80 288 220 165 569 50 1538
shrinkage=0.05


Tree=33
num_leaves=4
num_cat=0
split_feature=0 0 0
split_gain=0.0136917 0.0854324 0.000481565
threshold=0.10714285714285722 1.0000000180025095e-35 0.17857142857142852
decision_type=2 2 2
left_child=1 -1 -2
right_child=2 -3 -4
leaf_value=-0.00017579238641569756 -0.00068951405976947985 0.0014819212540795532 -0.00046726085485950593
leaf_count=4804 114 79 31
internal_value=0 -0.00297946 -0.01284
internal_count=5028 4883 145
shrinkage=0.05


Tree=34
num_leaves=31
num_cat=0
split_feature=1 1 1 1 1 1 1 1 1 1 1 1 1 1 1 1 1 1 1 1 1 1 1 1 1 1 1 1 1 1
split_gain=2.12145 1.43784 0.623875 0.474837 1.21162 0.444268 0.201161 0.180678 0.135608 0.121358 0.121278 0.479549 0.215925 0.0963612 0.472397 0.104251 0.187833 0.207954 0.133207 0.205308 0.102753 0.0968229 0.109358 0.319489 0.102584 0.123418 0.0915055 0.0897937 0.0824963 0.0815217
threshold=39.500000000000007 14.500000000000002 84.500000000000014 25.500000000000004 17.500000000000004 83.500000000000014 18.500000000000004 26.500000000000004 37.500000000000007 21.500000000000004 95.500000000000014 100.50000000000001 89.500000000000014 56.500000000000007 59.500000000000007 46.500000000000007 50.500000000000007 52.500000000000007 44.500000000000007 42.500000000000007 43.500000000000007 61.500000000000007 76.500000000000014 80.500000000000014 72.500000000000014 63.500000000000007 49.500000000000007 16.500000000000004 36.500000000000007 78.500000000000014
decision_type=2 2 2 2 2 2 2 2 2 2 2 2 2 2 2 2 2 2 2 2 2 2 2 2 2 2 2 2 2 2
left_child=1 -1 5 4 27 13 -6 -5 28 -8 12 -12 -4 15 -15 18 26 -18 19 -2 -21 -16 24 29 25 -23 -17 -3 -9 -24
right_child=2 3 10 7 6 -7 9 8 -10 -11 11 -13 -14 14 21 16 17 -19 -20 20 -22 22 23 -25 -26 -27 -28 -29 -30 -31
leaf_value=-0.0094746612943708911 0.0013534441144894 -0.0024596807531234795 0.0026492063242655535 -0.0048401826194354467 -0.00010256682299385387 -0.0063057018177849911 0.0020647258578474683 -0.0013544372055484791 -0.00024128055572509769 0.00053732274847234629 -0.0023792038945590751 0.0046468413577360262 0.0071431809663772584 0.0055252662662303815 -0.0010910413265228271 -0.00018619415350258351 0.0034451955696567895 -3.0644130015718767e-06 0.0027460771911549122 -0.0039262337088584896 -0.00027966769302592559 0.0038609326713614995 -0.0010394037834235601 0.0036977583666642508 0.0034055564333410823 0.00065974566437627957 -0.0025733205071393995 -0.0012022432049407679 -0.0041428132189644711 -0.0051066583530469381
leaf_count=48 368 297 52 35 242 21 427 1511 300 187 34 85 55 66 50 96 64 138 106 25 85 36 28 30 68 184 69 272 27 22
internal_value=0 -0.0176642 0.0258707 -0.0151634 -0.00140687 0.018283 0.0223667 -0.0256295 -0.0242742 0.0319908 0.0747542 0.052788 0.0991839 0.0203961 0.0318828 0.0145502 0.00134255 0.0217891 0.0228501 0.0157381 -0.0221687 0.0194687 0.0250787 -0.00762926 0.0341642 0.0236715 -0.0236889 -0.0371717 -0.0280678 -0.0565799
internal_count=5028 3346 1682 3298 1425 1456 856 1873 1838 614 226 119 107 1435 484 951 367 202 584 478 110 418 368 80 288 220 165 569 1538 50
shrinkage=0.05


Tree=35
num_leaves=4
num_cat=0
split_feature=0 0 0
split_gain=0.0415473 0.0736989 0.251497
threshold=0.17857142857142852 0.10714285714285722 1.0000000180025095e-35
decision_type=2 2 2
left_child=1 2 -1
right_child=-2 -3 -4
leaf_value=3.4838358056319302e-05 0.002054456392159829 -0.0011632951556659137 0.0028790817419184918
leaf_count=4801 26 122 79
internal_value=0 0.00101073 0.00161765
internal_count=5028 5002 4880
shrinkage=0.05


Tree=36
num_leaves=31
num_cat=0
split_feature=1 1 1 1 1 1 1 1 1 1 1 1 1 1 1 1 1 1 1 1 1 1 1 1 1 1 1 1 1 1
split_gain=1.78382 0.864536 0.861231 0.461589 0.569082 0.436008 0.181827 0.458348 0.112319 0.278459 0.221182 0.176515 0.104194 0.0774105 0.0762341 0.262157 0.0768481 0.41218 0.0761192 0.186094 0.055066 0.116879 0.0504801 0.129282 0.139354 0.0515874 0.426634 0.107445 0.0484177 0.126401
threshold=37.500000000000007 17.500000000000004 22.500000000000004 80.500000000000014 79.500000000000014 14.500000000000002 97.000000000000014 100.50000000000001 60.500000000000007 65.500000000000014 59.500000000000007 66.500000000000014 15.500000000000002 18.500000000000004 34.500000000000007 35.500000000000007 29.500000000000004 28.500000000000004 119.00000000000001 108.50000000000001 70.500000000000014 68.500000000000014 39.500000000000007 41.500000000000007 40.500000000000007 44.500000000000007 45.500000000000007 42.500000000000007 75.500000000000014 77.500000000000014
decision_type=2 2 2 2 2 2 2 2 2 2 2 2 2 2 2 2 2 2 2 2 2 2 2 2 2 2 2 2 2 2
left_child=1 5 13 4 8 -1 -5 -8 10 -10 22 -11 -7 -3 16 -16 17 -4 19 -9 21 -13 -2 24 -24 27 -27 -25 -22 -30
right_child=3 2 14 6 -6 12 7 18 9 11 -12 20 -14 -15 15 -17 -18 -19 -20 -21 28 -23 23 25 -26 26 -28 -29 29 -31
leaf_value=-0.0066871558720210823 0.00037873460629087317 0.00044022014266566233 -0.0010522693343329849 0.0040903910827100945 -0.0074529588222503667 -0.00048074822127819062 -0.0053441809862852102 0.0044270313147342566 0.0042480758401785002 -0.0027592622808047702 -0.0029321047036271349 0.0022014427185058595 -0.0022568070938818567 0.0015257881764246493 0.0032850782076517741 -0.00072249401377760662 -0.0013238611236328886 0.0046972560031073437 0.0055649818933528406 -0.0016852391511201861 0.0029151035745938621 -0.001785910304854898 0.0017414770441726577 0.0010724289076668877 0.0058449316283930904 0.0080575639293307359 0.00078127201458420424 -0.0010927171590401955 -0.0012954719364643098 0.003257231991137228
leaf_count=53 307 247 285 178 20 100 20 33 89 28 38 40 474 490 45 438 913 35 23 20 75 34 206 140 23 21 495 97 30 31
internal_value=0 -0.0138224 -0.00535207 0.0248413 0.0186135 -0.0469608 0.0628896 0.0278121 0.020641 0.0372415 0.0165503 0.0193967 -0.0389478 0.0232394 -0.0176317 -0.00698235 -0.0218034 -0.0084683 0.0632584 0.0424103 0.0293409 0.00738831 0.018767 0.022266 0.0430723 0.0159385 0.021548 0.00372544 0.0412857 0.0203639
internal_count=5028 3080 2453 1948 1674 627 274 96 1654 327 1327 238 574 737 1716 483 1233 320 76 53 210 74 1289 982 229 753 516 237 136 61
shrinkage=0.05


Tree=37
num_leaves=4
num_cat=0
split_feature=0 0 0
split_gain=0.0362182 0.0688075 0.229176
threshold=0.17857142857142852 0.10714285714285722 1.0000000180025095e-35
decision_type=2 2 2
left_child=1 2 -1
right_child=-2 -3 -4
leaf_value=3.0654386986396983e-05 0.0019162805034564094 -0.0011275737622722249 0.0027457488677169704
leaf_count=4801 26 122 79
internal_value=0 0.000905725 0.00149216
internal_count=5028 5002 4880
shrinkage=0.05


Tree=38
num_leaves=31
num_cat=0
split_feature=1 1 1 1 1 1 1 1 1 1 1 1 1 1 1 1 1 1 1 1 1 1 1 1 1 1 1 1 1 1
split_gain=1.61607 0.781855 0.773667 0.41621 0.513735 0.393673 0.164185 0.413854 0.101687 0.251805 0.199641 0.159067 0.0941192 0.0699018 0.0689552 0.235392 0.0691175 0.371131 0.0683983 0.0497029 0.105353 0.0478256 0.0453379 0.116745 0.125719 0.0463555 0.38571 0.0969316 0.0435493 0.114173
threshold=37.500000000000007 17.500000000000004 22.500000000000004 80.500000000000014 79.500000000000014 14.500000000000002 97.000000000000014 100.50000000000001 60.500000000000007 65.500000000000014 59.500000000000007 66.500000000000014 15.500000000000002 18.500000000000004 34.500000000000007 35.500000000000007 29.500000000000004 28.500000000000004 106.50000000000001 70.500000000000014 68.500000000000014 63.500000000000007 39.500000000000007 41.500000000000007 40.500000000000007 44.500000000000007 45.500000000000007 42.500000000000007 75.500000000000014 77.500000000000014
decision_type=2 2 2 2 2 2 2 2 2 2 2 2 2 2 2 2 2 2 2 2 2 2 2 2 2 2 2 2 2 2
left_child=1 5 13 4 8 -1 -5 -8 10 21 22 -11 -7 -3 16 -16 17 -4 -9 20 -13 -10 -2 24 -24 27 -27 -25 -21 -30
right_child=3 2 14 6 -6 12 7 18 9 11 -12 19 -14 -15 15 -17 -18 -19 -20 28 -22 -23 23 25 -26 26 -28 -29 29 -31
leaf_value=-0.0063594535836633652 0.00036033916162745572 0.00041118013231377856 -0.0010026181633012337 0.003884701681940743 -0.0070818442851305011 -0.00046173599362373359 -0.0050803226232528685 0.00086092746257781985 0.0028125838864417304 -0.0026186957955360414 -0.0027864660087384679 0.0020898382365703585 -0.0021497495346682986 0.0014427562574951017 0.0031102421879768373 -0.00068724487470165241 -0.0012598541960005954 0.0044531035849026271 0.0040535258896210622 0.0027676179210344952 -0.0016958102583885194 0.0051343673404226917 0.0016536176060009929 0.0010186693285192763 0.0055511522552241449 0.0076586686429523298 0.00074014723300933841 -0.0010378224640777431 -0.0012303009629249574 0.0030965749294527118
leaf_count=53 307 247 285 178 20 100 20 25 42 28 38 40 474 490 45 438 913 35 51 75 34 47 206 140 23 21 495 97 30 31
internal_value=0 -0.0132135 -0.00515838 0.0235874 0.0176737 -0.0447275 0.059717 0.0263847 0.0196 0.0353953 0.0157078 0.0184259 -0.0371134 0.0219406 -0.016797 -0.00666883 -0.0207645 -0.00811797 0.0600666 0.0278659 0.00700972 0.0807739 0.0178137 0.0211298 0.0409015 0.0151169 0.0204343 0.00353966 0.0392141 0.0193721
internal_count=5028 3080 2453 1948 1674 627 274 96 1654 327 1327 238 574 737 1716 483 1233 320 76 210 74 89 1289 982 229 753 516 237 136 61
shrinkage=0.05


Tree=39
num_leaves=4
num_cat=0
split_feature=0 0 0
split_gain=0.0313301 0.0640977 0.208845
threshold=0.17857142857142852 0.10714285714285722 1.0000000180025095e-35
decision_type=2 2 2
left_child=1 2 -1
right_child=-2 -3 -4
leaf_value=2.6946037951868491e-05 0.0017807679107555978 -0.0010914032332232741 0.0026188137599184543
leaf_count=4801 26 122 79
internal_value=0 0.000812087 0.00137809
internal_count=5028 5002 4880
shrinkage=0.05


Tree=40
num_leaves=31
num_cat=0
split_feature=1 1 1 1 1 1 1 1 1 1 1 1 1 1 1 1 1 1 1 1 1 1 1 1 1 1 1 1 1 1
split_gain=2.0186 0.513803 0.437562 0.487878 0.651142 0.67644 0.405915 0.261124 0.482509 0.29893 0.163726 0.482892 0.133932 0.235613 0.139342 0.127048 0.104959 0.103911 0.438425 0.0852836 0.184827 0.116102 0.0860053 0.127978 0.137445 0.0746308 0.113476 0.045029 0.150493 0.0348201
threshold=38.500000000000007 64.500000000000014 15.500000000000002 25.500000000000004 32.500000000000007 33.500000000000007 17.500000000000004 92.500000000000014 102.50000000000001 97.000000000000014 34.500000000000007 35.500000000000007 72.500000000000014 74.500000000000014 70.500000000000014 89.500000000000014 108.50000000000001 29.500000000000004 28.500000000000004 86.500000000000014 84.500000000000014 77.500000000000014 78.500000000000014 83.500000000000014 80.500000000000014 42.500000000000007 43.500000000000007 24.500000000000004 23.500000000000004 55.500000000000007
decision_type=2 2 2 2 2 2 2 2 2 2 2 2 2 2 2 2 2 2 2 2 2 2 2 2 2 2 2 2 2 2
left_child=2 25 -1 6 17 -6 -4 12 9 -9 -7 -12 14 -14 -3 19 -10 18 -5 20 21 -15 -23 24 -24 -2 -27 28 -8 -28
right_child=1 7 3 4 5 10 27 8 16 -11 11 -13 13 15 -16 -17 -18 -19 -20 -21 -22 22 23 -25 -26 26 29 -29 -30 -31
leaf_value=-0.0035263317649240618 0.0011771311949244322 0.0027463270333206772 -0.0012576779431622961 -0.00266301922681855 0.0058737604663922239 -0.0016676565232389261 0.00066021598942644965 0.00076679872614996781 0.0058712694793939596 -0.0059194550849497318 0.0046849395741115915 -0.00071034380479862824 0.0075029486739957661 0.004704946843353478 -0.0010772034525871278 0.0059121370315551765 0.0019376216586246048 -0.0029162574409236832 0.0034303774022393756 -0.00033401619820367723 0.0068323103917969606 -0.0013338351791555231 0.0011810380816459657 -0.00037094811598459884 0.0064783749481042222 -0.0030634356041749321 0.00066485279952555477 0.0022434209019709856 -0.0024479323770941761 -7.2364039877627771e-05
leaf_count=154 381 103 460 164 39 382 777 35 28 32 44 722 37 37 31 36 43 496 36 21 27 22 25 30 24 24 503 39 41 235
internal_value=0 0.0240563 -0.0184608 -0.0159551 -0.0262815 -0.0120421 -0.00119083 0.04976 0.0123375 -0.0485327 -0.0164421 -0.00800864 0.0629007 0.0761792 0.0372356 0.063866 0.0697784 -0.0505662 -0.0313242 0.0533414 0.0609806 0.0461764 0.0286206 0.0440199 0.075513 0.0121151 0.00640139 0.0116713 0.0100886 0.00860204
internal_count=5028 1674 3354 3200 1883 1187 1317 531 138 67 1148 766 393 259 134 222 71 696 200 186 165 138 101 79 49 1143 762 857 818 738
shrinkage=0.05


Tree=41
num_leaves=4
num_cat=0
split_feature=0 0 0
split_gain=0.218811 0.139254 0.00303306
threshold=0.10714285714285722 0.17857142857142852 1.0000000180025095e-35
decision_type=2 2 2
left_child=2 -2 -1
right_child=1 -3 -4
leaf_value=-0.0001418385206970218 -0.0028434035057822867 0.0010173936342370922 -0.00045615165279461791
leaf_count=4801 120 29 78
internal_value=0 -0.0418395 -0.00293727
internal_count=5028 149 4879
shrinkage=0.05


Tree=42
num_leaves=31
num_cat=0
split_feature=1 1 1 1 1 1 1 1 1 1 1 1 1 1 1 1 1 1 1 1 1 1 1 1 1 1 1 1 1 1
split_gain=1.82519 0.46349 0.395192 0.438866 0.587091 0.610893 0.366678 0.235271 0.436456 0.269766 0.147811 0.435457 0.121831 0.237856 0.114191 0.112474 0.0952096 0.0941242 0.394893 0.0771119 0.167582 0.104655 0.0777401 0.115652 0.124214 0.0672218 0.102676 0.0407722 0.135614 0.0320936
threshold=38.500000000000007 64.500000000000014 15.500000000000002 25.500000000000004 32.500000000000007 33.500000000000007 17.500000000000004 92.500000000000014 102.50000000000001 97.000000000000014 34.500000000000007 35.500000000000007 73.500000000000014 74.500000000000014 89.500000000000014 70.500000000000014 108.50000000000001 29.500000000000004 28.500000000000004 86.500000000000014 84.500000000000014 77.500000000000014 78.500000000000014 83.500000000000014 80.500000000000014 42.500000000000007 43.500000000000007 24.500000000000004 23.500000000000004 46.500000000000007
decision_type=2 2 2 2 2 2 2 2 2 2 2 2 2 2 2 2 2 2 2 2 2 2 2 2 2 2 2 2 2 2
left_child=2 25 -1 6 17 -6 -4 12 9 -9 -7 -12 15 -14 19 -3 -10 18 -5 20 21 -15 -23 24 -24 -2 -27 28 -8 -28
right_child=1 7 3 4 5 10 27 8 16 -11 11 -13 13 14 -16 -17 -18 -19 -20 -21 -22 22 23 -25 -26 26 29 -29 -30 -31
leaf_value=-0.0033413318941345467 0.0011293575793426493 0.0026181624063010356 -0.0011868308387372806 -0.0025161572891037641 0.005592238864837549 -0.0015743537528040523 0.00063574333295245275 0.0007377540213721139 0.0055992708142314643 -0.005613980768248439 0.0044588566503741527 -0.00066459132074649313 0.0075369037249509024 0.0044804421228331493 0.005623621866106987 -0.00069847965941709634 0.0018527668575907864 -0.0027601207245982464 0.003266824450757769 -0.00030655186800729664 0.0065127958854039507 -0.0012565473941239444 0.001134480893611908 -0.0003408065934975942 0.0061703891182939216 -0.0029025169089436534 0.00098863623795970791 0.0021426112223894168 -0.002314766369214872 0.00022921745759853422
leaf_count=154 381 103 460 164 39 382 777 35 28 32 44 722 34 37 36 34 43 496 36 21 27 22 25 30 24 24 186 39 41 552
internal_value=0 0.0230831 -0.0173458 -0.0149646 -0.0247585 -0.0112376 -0.000961476 0.047496 0.0119743 -0.0459182 -0.015419 -0.00740588 0.0599692 0.0728494 0.0609205 0.0359011 0.0666052 -0.0478179 -0.0295044 0.0509427 0.0582067 0.0441101 0.0274422 0.0420828 0.072021 0.0117417 0.006319 0.0112632 0.00975714 0.00841231
internal_count=5028 1674 3354 3200 1883 1187 1317 531 138 67 1148 766 393 256 222 137 71 696 200 186 165 138 101 79 49 1143 762 857 818 738
shrinkage=0.05


Tree=43
num_leaves=4
num_cat=0
split_feature=0 0 0
split_gain=0.201295 0.12476 0.00293204
threshold=0.10714285714285722 0.17857142857142852 1.0000000180025095e-35
decision_type=2 2 2
left_child=2 -2 -1
right_child=1 -3 -4
leaf_value=-0.00012433873883288893 -0.002706163289646308 0.0009482015309662655 -0.00043337360406533267
leaf_count=4801 120 29 78
internal_value=0 -0.0398982 -0.00258558
internal_count=5028 149 4879
shrinkage=0.05


Tree=44
num_leaves=31
num_cat=0
split_feature=1 1 1 1 1 1 1 1 1 1 1 1 1 1 1 1 1 1 1 1 1 1 1 1 1 1 1 1 1 1
split_gain=1.65034 0.418108 0.356924 0.394776 0.529329 0.551707 0.331239 0.211972 0.394798 0.243448 0.133444 0.392685 0.110506 0.19233 0.114804 0.102629 0.0863653 0.0852609 0.35568 0.069721 0.151946 0.0943331 0.0702671 0.104515 0.112261 0.0605459 0.0929048 0.0378731 0.0878249 0.0557151
threshold=38.500000000000007 64.500000000000014 15.500000000000002 25.500000000000004 32.500000000000007 33.500000000000007 17.500000000000004 92.500000000000014 102.50000000000001 97.000000000000014 34.500000000000007 35.500000000000007 72.500000000000014 74.500000000000014 70.500000000000014 89.500000000000014 108.50000000000001 29.500000000000004 28.500000000000004 86.500000000000014 84.500000000000014 77.500000000000014 78.500000000000014 83.500000000000014 80.500000000000014 42.500000000000007 43.500000000000007 21.500000000000004 24.500000000000004 23.500000000000004
decision_type=2 2 2 2 2 2 2 2 2 2 2 2 2 2 2 2 2 2 2 2 2 2 2 2 2 2 2 2 2 2
left_child=2 25 -1 6 17 -6 -4 12 9 -9 -7 -12 14 -14 -3 19 -10 18 -5 20 21 -15 -23 24 -24 -2 -27 -8 29 -29
right_child=1 7 3 4 5 10 27 8 16 -11 11 -13 13 15 -16 -17 -18 -19 -20 -21 -22 22 23 -25 -26 26 -28 28 -30 -31
leaf_value=-0.0031665076005768472 0.0010829312712188782 0.0024954576660128473 -0.0011204248893520107 -0.0023777856150778327 0.0053237391205934381 -0.00148671570560695 0.0007220508687826525 0.00070923877613885073 0.0053393552878073288 -0.0053247066214680673 0.0042431845583698969 -0.0006221368805688505 0.0067987598277427057 0.0042661254067678711 -0.00097511098269493352 0.0053486585617065433 0.0017711028456687929 -0.0026127915919548082 0.0031105590777264699 -0.00028141339619954431 0.0062077161890489087 -0.0011840719390999188 0.0010891382098197938 -0.00031324580311775213 0.0058766104280948642 -0.002750529907643795 0.00041053073435294921 -3.7564060329335984e-05 0.0020457999446453191 -0.0021892845630645751
leaf_count=154 381 103 460 164 39 382 664 35 28 32 44 722 37 37 31 36 43 496 36 21 27 22 25 30 24 24 738 113 39 41
internal_value=0 0.0221377 -0.016306 -0.014043 -0.023332 -0.0104934 -0.000761927 0.0453246 0.0116076 -0.0434529 -0.014467 -0.00685333 0.0571641 0.0692256 0.0338513 0.0581006 0.063566 -0.0452276 -0.0277977 0.0486414 0.0555485 0.0421256 0.026301 0.0402202 0.0686805 0.0113658 0.0062194 0.010857 -0.00147349 -0.0122085
internal_count=5028 1674 3354 3200 1883 1187 1317 531 138 67 1148 766 393 259 134 222 71 696 200 186 165 138 101 79 49 1143 762 857 193 154
shrinkage=0.05


Tree=45
num_leaves=4
num_cat=0
split_feature=0 0 0
split_gain=0.0955152 0.0159929 0.00583166
threshold=0.10714285714285722 0.17857142857142852 1.0000000180025095e-35
decision_type=2 2 2
left_child=2 -2 -1
right_child=1 -3 -4
leaf_value=0.00020225045955506263 -0.0013592759052575645 3.288799524307251e-05 -0.00022299055282662555
leaf_count=4803 118 25 82
internal_value=0 -0.0223178 0.00390225
internal_count=5028 143 4885
shrinkage=0.05


Tree=46
num_leaves=31
num_cat=0
split_feature=1 1 1 1 1 1 1 1 1 1 1 1 1 1 1 1 1 1 1 1 1 1 1 1 1 1 1 1 1 1
split_gain=1.05157 0.595781 0.942535 0.428578 0.398531 0.257268 0.201496 0.171872 0.541344 0.170447 0.150468 0.157291 0.139016 0.0971839 0.0715916 0.0695153 0.212613 0.122474 0.0642068 0.0569076 0.102176 0.0543914 0.0511685 0.356196 0.0585318 0.271165 0.0510784 0.0502783 0.0478813 0.0425463
threshold=16.500000000000004 37.500000000000007 29.500000000000004 18.500000000000004 34.500000000000007 70.500000000000014 36.500000000000007 52.500000000000007 48.500000000000007 46.500000000000007 75.500000000000014 80.500000000000014 35.500000000000007 64.500000000000014 79.500000000000014 21.500000000000004 19.500000000000004 25.500000000000004 15.500000000000002 90.500000000000014 108.50000000000001 119.00000000000001 31.500000000000004 30.500000000000004 32.500000000000007 33.500000000000007 51.500000000000007 76.500000000000014 67.500000000000014 83.500000000000014
decision_type=2 2 2 2 2 2 2 2 2 2 2 2 2 2 2 2 2 2 2 2 2 2 2 2 2 2 2 2 2 2
left_child=18 2 3 -2 22 7 12 8 9 -3 -7 14 -6 -9 27 16 -5 -17 -1 29 -21 -22 23 -4 -24 -26 -10 -12 -15 -13
right_child=1 5 4 15 6 10 -8 13 26 -11 11 19 -14 28 -16 17 -18 -19 -20 20 21 -23 24 -25 25 -27 -28 -29 -30 -31
leaf_value=-0.0032524911309379382 -0.00031707331281775045 0.00080640468742195252 -0.0018819118570536375 0.00082551709341782123 0.0032668903862175195 0.0041943674079245995 -0.0045270936055616896 -0.00058137658936313434 0.0032108155363484432 -0.0016919974942465087 -0.00088788687155164515 0.0031630147633881405 0.00010332442986462313 0.0025610286837969075 -0.002729468544324239 0.00016923099022193497 0.0030289413625592585 0.0019215037856174977 -0.0018917137682437899 0.0038620300438939313 -0.00087807767447971178 0.0026414794118508052 -0.0023992828077467037 0.0039739421779109588 0.0031038248538970952 -0.0018257131416294444 0.0051851728856563573 0.0019460637779796825 0.0003574103116989136 0.00096950000652702923
leaf_count=153 523 881 160 216 38 72 22 316 95 74 29 29 403 39 21 203 222 196 200 98 21 23 291 31 30 398 50 34 67 93
internal_value=0 0.00697261 -0.00254345 0.0161158 -0.0210261 0.0203647 0.00285899 0.0143184 0.0209004 0.0122562 0.0422751 0.0336657 0.00751844 -0.00283831 -0.00402414 0.0301483 0.0388464 0.0205999 -0.0496302 0.0456579 0.0592667 0.0192338 -0.0331786 -0.0186297 -0.0370434 -0.0296037 0.0778326 0.0128309 0.0233635 0.0298182
internal_count=5028 4675 2733 1360 1373 1942 463 1522 1100 955 420 348 441 422 84 837 438 399 353 264 142 44 910 191 719 428 145 63 106 122
shrinkage=0.05


Tree=47
num_leaves=4
num_cat=0
split_feature=0 0 0
split_gain=0.0886367 0.0144118 0.00575536
threshold=0.10714285714285722 0.17857142857142852 1.0000000180025095e-35
decision_type=2 2 2
left_child=2 -2 -1
right_child=1 -3 -4
leaf_value=0.00018544774700298227 -0.0013155996041782833 5.9569478034973146e-06 -0.00023700209652505273
leaf_count=4803 118 25 82
internal_value=0 -0.0216912 0.00356713
internal_count=5028 143 4885
shrinkage=0.05


Tree=48
num_leaves=31
num_cat=0
split_feature=1 1 1 1 1 1 1 1 1 1 1 1 1 1 1 1 1 1 1 1 1 1 1 1 1 1 1 1 1 1
split_gain=0.950129 0.538633 0.850391 0.387168 0.359671 0.23244 0.181901 0.154734 0.488564 0.153578 0.135796 0.141909 0.125379 0.0921263 0.101031 0.0648096 0.0625383 0.192108 0.110747 0.0579072 0.0513692 0.0921692 0.0490781 0.0463782 0.0461886 0.321464 0.0527127 0.245144 0.0455212 0.0404682
threshold=16.500000000000004 37.500000000000007 29.500000000000004 18.500000000000004 34.500000000000007 70.500000000000014 36.500000000000007 52.500000000000007 48.500000000000007 46.500000000000007 75.500000000000014 80.500000000000014 35.500000000000007 56.500000000000007 55.500000000000007 79.500000000000014 21.500000000000004 19.500000000000004 25.500000000000004 15.500000000000002 90.500000000000014 108.50000000000001 119.00000000000001 51.500000000000007 31.500000000000004 30.500000000000004 32.500000000000007 33.500000000000007 76.500000000000014 73.500000000000014
decision_type=2 2 2 2 2 2 2 2 2 2 2 2 2 2 2 2 2 2 2 2 2 2 2 2 2 2 2 2 2 2
left_child=19 2 3 -2 24 7 12 8 9 -3 29 15 -6 14 -9 28 17 -5 -18 -1 -13 -22 -23 -10 25 -4 -26 -28 -12 -7
right_child=1 5 4 16 6 10 -8 13 23 -11 11 20 -14 -15 -16 -17 18 -19 -20 -21 21 22 -24 -25 26 -27 27 -29 -30 -31
leaf_value=-0.003098172251305549 -0.0003092764867879237 0.00075893557707649084 -0.0017950241174548864 0.00077574882242414695 0.0030953863733693176 0.0028574874134440174 -0.0043086433952504938 -0.00014825361066086347 0.0030413188589246652 -0.0016126130883758133 -0.00085017686260157623 0.0014103142941584354 9.098703009319069e-05 0.00037453964772358751 -0.0029400599977144832 -0.0026022682587305709 0.00015348276040824178 0.0028702295242666125 0.0018197585201385072 -0.0018058735430240632 0.0036628109307921663 -0.00083944506588436304 0.0025037863980168881 0.0049226453006267551 -0.0022860629554466694 0.0037680167824991292 0.002944679508606593 -0.0017423801086655815 0.0018463746589772842 0.0052319329451112192
leaf_count=153 523 881 160 216 38 38 22 86 95 74 29 122 403 284 52 21 203 222 196 200 98 21 23 50 291 31 30 398 34 34
internal_value=0 0.00648371 -0.00256446 0.0151593 -0.0201204 0.0192173 0.00257029 0.0134702 0.0197154 0.0115034 0.0400437 0.0318647 0.00699739 -0.0028087 -0.0240048 -0.00393477 0.0284966 0.0367467 0.0194401 -0.0473198 0.0432555 0.0561851 0.0181631 0.073801 -0.0316652 -0.0178424 -0.0353372 -0.028277 0.0121021 0.0795751
internal_count=5028 4675 2733 1360 1373 1942 463 1522 1100 955 420 348 441 422 138 84 837 438 399 353 264 142 44 145 910 191 719 428 63 72
shrinkage=0.05


Tree=49
num_leaves=4
num_cat=0
split_feature=0 0 0
split_gain=0.0823058 0.0129131 0.00568786
threshold=0.10714285714285722 0.17857142857142852 1.0000000180025095e-35
decision_type=2 2 2
left_child=2 -2 -1
right_child=1 -3 -4
leaf_value=0.00017021195561643098 -0.0012725145003553166 -2.1555662155151368e-05 -0.00024975331091299291
leaf_count=4803 118 25 82
internal_value=0 -0.0210763 0.00326325
internal_count=5028 143 4885
shrinkage=0.05


Tree=50
num_leaves=31
num_cat=0
split_feature=1 1 1 1 1 1 1 1 1 1 1 1 1 1 1 1 1 1 1 1 1 1 1 1 1 1 1 1 1 1
split_gain=1.76784 0.545298 0.796427 0.221236 0.176046 0.170933 0.264369 0.244788 0.169244 0.143076 0.318435 0.112433 0.10924 0.0901634 0.0725529 0.0701283 0.0381266 0.184389 0.137127 0.23165 0.038561 0.0822956 0.0259738 0.0234944 0.387771 0.220681 0.232645 0.160835 0.0720665 0.0442691
threshold=36.500000000000007 17.500000000000004 25.500000000000004 24.500000000000004 34.500000000000007 107.50000000000001 95.500000000000014 91.500000000000014 116.50000000000001 20.500000000000004 19.500000000000004 26.500000000000004 102.50000000000001 22.500000000000004 23.500000000000004 18.500000000000004 29.500000000000004 28.500000000000004 30.500000000000004 31.500000000000004 33.500000000000007 32.500000000000007 14.500000000000002 56.500000000000007 59.500000000000007 61.500000000000007 62.500000000000007 55.500000000000007 64.500000000000014 75.500000000000014
decision_type=2 2 2 2 2 2 2 2 2 2 2 2 2 2 2 2 2 2 2 2 2 2 2 2 2 2 2 2 2 2
left_child=1 22 3 9 11 6 7 23 -7 10 15 -4 -8 -11 -15 -3 17 -13 -18 -20 21 -21 -1 27 -25 -26 -27 -2 -28 -30
right_child=5 2 4 -5 -6 8 12 -9 -10 13 -12 16 -14 14 -16 -17 18 -19 19 20 -22 -23 -24 24 25 26 28 -29 29 -31
leaf_value=-0.0029378970818860189 0.0012778516278494543 4.2095081880688667e-05 -0.0038529831543564798 0.0047510640846716396 -7.9752707268984662e-05 0.007795360386371613 -0.0035066159069538118 0.0053951576754853537 0.0017731785774230957 -0.00071250566305258332 0.0036479011577154907 -0.0013758534669876098 0.00087985870513049031 0.0026498197831890803 -0.0002555114172753834 0.0013123651322030343 -0.0025998413378809705 0.0026014153502489394 0.0037347439527511601 -0.0010322179396947224 -0.0014836727845959547 0.0014977556549840504 -0.0018089711560612233 0.005319699009910959 -0.0019528073241125864 0.0057895788858676779 -0.00068541406951052079 -0.0017040631872542362 0.0019959279912568277 0.00090814032260840547
leaf_count=56 1194 224 40 37 449 20 40 37 28 195 112 125 22 44 42 211 162 38 25 300 410 36 565 61 53 29 47 47 168 211
internal_value=0 -0.0117479 -0.00503918 0.0193668 -0.0183585 0.0267098 0.0252278 0.0273839 0.0856484 0.0159861 0.0254078 -0.0249842 -0.0390025 -0.00235431 0.0246187 0.013165 -0.0230837 -0.00897275 -0.0255489 -0.0199918 -0.0231649 -0.015223 -0.0382155 0.0257379 0.0310587 0.0220125 0.029126 0.0232984 0.0232262 0.0278065
internal_count=5028 3071 2450 865 1585 1957 1909 1847 48 828 547 1136 62 281 86 435 1096 163 933 771 746 336 621 1810 569 508 455 1241 426 379
shrinkage=0.05


Tree=51
num_leaves=4
num_cat=0
split_feature=0 0 0
split_gain=0.202239 0.111805 0.0022365
threshold=0.10714285714285722 0.17857142857142852 1.0000000180025095e-35
decision_type=2 2 2
left_child=2 -2 -1
right_child=1 -3 -4
leaf_value=0.00021100843700265728 -0.0024272403413695947 0.0011052216270140238 -5.5550504475831987e-05
leaf_count=4808 112 28 80
internal_value=0 -0.034415 0.00413292
internal_count=5028 140 4888
shrinkage=0.05


Tree=52
num_leaves=31
num_cat=0
split_feature=1 1 1 1 1 1 1 1 1 1 1 1 1 1 1 1 1 1 1 1 1 1 1 1 1 1 1 1 1 1
split_gain=1.59903 0.493021 0.71749 0.199555 0.158895 0.153908 0.238149 0.220855 0.152662 0.128828 0.287583 0.101805 0.0993917 0.0812805 0.0653444 0.0631841 0.0348075 0.165693 0.124058 0.208958 0.0349205 0.0743396 0.0234767 0.0214448 0.349332 0.199416 0.21026 0.144831 0.0642371 0.0399622
threshold=36.500000000000007 17.500000000000004 25.500000000000004 24.500000000000004 34.500000000000007 107.50000000000001 95.500000000000014 91.500000000000014 116.50000000000001 20.500000000000004 19.500000000000004 26.500000000000004 102.50000000000001 22.500000000000004 23.500000000000004 18.500000000000004 29.500000000000004 28.500000000000004 30.500000000000004 31.500000000000004 33.500000000000007 32.500000000000007 14.500000000000002 56.500000000000007 59.500000000000007 61.500000000000007 62.500000000000007 55.500000000000007 64.500000000000014 75.500000000000014
decision_type=2 2 2 2 2 2 2 2 2 2 2 2 2 2 2 2 2 2 2 2 2 2 2 2 2 2 2 2 2 2
left_child=1 22 3 9 11 6 7 23 -7 10 15 -4 -8 -11 -15 -3 17 -13 -18 -20 21 -21 -1 27 -25 -26 -27 -2 -28 -30
right_child=5 2 4 -5 -6 8 12 -9 -10 13 -12 16 -14 14 -16 -17 18 -19 19 20 -22 -23 -24 24 25 26 28 -29 29 -31
leaf_value=-0.0028013146615454131 0.0012067749472319382 3.0624088166015487e-05 -0.0036720027774572376 0.0045033208824492793 -8.3317881437611744e-05 0.0073950418084859845 -0.0033407733961939817 0.0051184145985422912 0.001675486351762499 -0.00068469854501577521 0.003456609656236002 -0.0013087419629096986 0.00084330337968739611 0.00250708054412495 -0.00025014515433992659 0.0012363634473904614 -0.0024795030462153168 0.002461496622938859 0.0035390549898147586 -0.00098784880340099346 -0.0014177876056694404 0.0014167229748434493 -0.0017280269170229417 0.0050455079459753201 -0.0018615835961305869 0.0054986473301361352 -0.00064485377453743151 -0.0016228931698393314 0.0018902789978753954 0.00085676029960126115
leaf_count=56 1194 224 40 37 449 20 40 37 28 195 112 125 22 44 42 211 162 38 25 300 410 36 565 61 53 29 47 47 168 211
internal_value=0 -0.0113293 -0.00495028 0.0182147 -0.0175924 0.0252462 0.02384 0.0258863 0.0811727 0.0150039 0.0239442 -0.0238871 -0.037122 -0.00239934 0.0232106 0.0123095 -0.0220785 -0.00859581 -0.0244341 -0.0191484 -0.0221621 -0.0146043 -0.0364963 0.0243229 0.0294063 0.0208202 0.0275822 0.0219922 0.0219735 0.0262978
internal_count=5028 3071 2450 865 1585 1957 1909 1847 48 828 547 1136 62 281 86 435 1096 163 933 771 746 336 621 1810 569 508 455 1241 426 379
shrinkage=0.05


Tree=53
num_leaves=4
num_cat=0
split_feature=0 0 0
split_gain=0.184915 0.100472 0.00193344
threshold=0.10714285714285722 0.17857142857142852 1.0000000180025095e-35
decision_type=2 2 2
left_child=2 -2 -1
right_child=1 -3 -4
leaf_value=0.00019343643977667846 -0.002323342247733048 0.0010252911597490311 -5.4405182600021358e-05
leaf_count=4808 112 28 80
internal_value=0 -0.0330723 0.0037876
internal_count=5028 140 4888
shrinkage=0.05


Tree=54
num_leaves=31
num_cat=0
split_feature=1 1 1 1 1 1 1 1 1 1 1 1 1 1 1 1 1 1 1 1 1 1 1 1 1 1 1 1 1 1
split_gain=1.44638 0.445761 0.646365 0.179998 0.143415 0.138581 0.214524 0.199262 0.1377 0.115998 0.25972 0.0921797 0.0904289 0.0732734 0.0588512 0.0569283 0.0317757 0.148887 0.112236 0.188485 0.0316241 0.0671516 0.0212197 0.0209596 0.071236 0.0541206 0.176973 0.0552068 0.214722 0.0708852
threshold=36.500000000000007 17.500000000000004 25.500000000000004 24.500000000000004 34.500000000000007 107.50000000000001 95.500000000000014 91.500000000000014 116.50000000000001 20.500000000000004 19.500000000000004 26.500000000000004 102.50000000000001 22.500000000000004 23.500000000000004 18.500000000000004 29.500000000000004 28.500000000000004 30.500000000000004 31.500000000000004 33.500000000000007 32.500000000000007 14.500000000000002 86.500000000000014 85.500000000000014 80.500000000000014 79.500000000000014 72.500000000000014 75.500000000000014 71.500000000000014
decision_type=2 2 2 2 2 2 2 2 2 2 2 2 2 2 2 2 2 2 2 2 2 2 2 2 2 2 2 2 2 2
left_child=1 22 3 9 11 6 7 23 -7 10 15 -4 -8 -11 -15 -3 17 -13 -18 -20 21 -21 -1 24 25 26 27 29 -29 -2
right_child=5 2 4 -5 -6 8 12 -9 -10 13 -12 16 -14 14 -16 -17 18 -19 19 20 -22 -23 -24 -25 -26 -27 -28 28 -30 -31
leaf_value=-0.0026706998635615624 0.0011407793045121808 2.0535070715206012e-05 -0.0034991142526268962 0.0042688174022210614 -8.5966534630492963e-05 0.0070156180858612057 -0.0031823402643203734 0.0048562228679656988 0.0015835643346820559 -0.00065754550389754472 0.0032756743819585873 -0.0012445267438888552 0.00080862634561278612 0.0023723367940295826 -0.00024431404613313223 0.0011650288768854187 -0.0023643459434862491 0.0023294012797506233 0.0033539170026779179 -0.00094496720532576258 -0.0013544212826868383 0.0013403989788558749 -0.001650307972346787 0.0022535487299873715 -0.0015266683101654054 0.002624433719720997 -0.0033467081460085788 0.0052038861008790824 0.00045369294334630499 -0.0013545243904508394
leaf_count=56 1531 224 40 37 449 20 40 37 28 195 112 125 22 44 42 211 162 38 25 300 410 36 565 42 25 61 22 39 61 29
internal_value=0 -0.0109162 -0.00485056 0.0171363 -0.0168497 0.0238697 0.0225354 0.0244776 0.0769384 0.0140869 0.0225703 -0.0228299 -0.0353238 -0.00242703 0.0218888 0.0115136 -0.021109 -0.00822682 -0.0233596 -0.0183321 -0.0211943 -0.0140021 -0.0348465 0.0229925 0.022468 0.0232282 0.0221671 0.0233479 0.0461254 0.0218878
internal_count=5028 3071 2450 865 1585 1957 1909 1847 48 828 547 1136 62 281 86 435 1096 163 933 771 746 336 621 1810 1768 1743 1682 1660 100 1560
shrinkage=0.05


Tree=55
num_leaves=4
num_cat=0
split_feature=0 0 0
split_gain=0.0261868 0.0613578 0.000896516
threshold=1.0000000180025095e-35 0.10714285714285722 0.17857142857142852
decision_type=2 2 2
left_child=-1 -2 -3
right_child=1 2 -4
leaf_value=-4.209120199548589e-05 0.0016998160579433182 -2.3256637881287432e-05 -0.00033929534256458286
leaf_count=4814 73 113 28
internal_value=0 0.0104634 -0.00172032
internal_count=5028 214 141
shrinkage=0.05


Tree=56
num_leaves=31
num_cat=0
split_feature=1 1 1 1 1 1 1 1 1 1 1 1 1 1 1 1 1 1 1 1 1 1 1 1 1 1 1 1 1 1
split_gain=1.67697 0.94362 0.732039 0.728241 0.299568 0.215857 0.167066 0.159401 0.114384 0.33436 0.113839 0.125362 0.111851 0.0957092 0.0602934 0.0572757 0.172344 0.123143 0.0462766 0.118497 0.0610359 0.0579676 0.0453421 0.0439732 0.0928157 0.0707833 0.317994 0.306122 0.327693 0.21818
threshold=16.500000000000004 56.500000000000007 29.500000000000004 32.500000000000007 113.00000000000001 24.500000000000004 59.500000000000007 33.500000000000007 60.500000000000007 62.500000000000007 27.500000000000004 28.500000000000004 34.500000000000007 15.500000000000002 26.500000000000004 42.500000000000007 43.500000000000007 40.500000000000007 19.500000000000004 18.500000000000004 21.500000000000004 17.500000000000004 22.500000000000004 97.000000000000014 93.500000000000014 82.500000000000014 84.500000000000014 80.500000000000014 79.500000000000014 76.500000000000014
decision_type=2 2 2 2 2 2 2 2 2 2 2 2 2 2 2 2 2 2 2 2 2 2 2 2 2 2 2 2 2 2
left_child=13 2 5 -4 6 18 -3 -5 -8 -10 14 -12 -9 -1 -7 17 -17 -14 19 21 -20 -2 -22 24 25 27 -27 28 29 -11
right_child=1 4 3 7 -6 10 8 12 9 23 11 -13 15 -15 -16 16 -18 -19 20 -21 22 -23 -24 -25 -26 26 -28 -29 -30 -31
leaf_value=-0.0043020346760749822 0.00025835923687384947 0.0041665303851327589 -0.0023266074526662062 0.0032868433630827698 0.0066445569507777693 0.0028304836604484294 -0.0012139450170491873 -0.00096695853439055185 0.006283730227086279 0.0011639205178594202 0.00026107106519782027 0.0037413386834992306 -4.9245478941401248e-05 -0.0026347995837136071 0.0057125562559003423 -0.0050137763470411304 -0.00028653604659571578 0.0014257160551620254 0.0015793999988738807 -0.00064593354151362475 -0.00061242083037221762 0.0013123543147581171 0.0010850176215171814 8.7061776564671439e-05 0.0039908011608264021 -0.0044211562722921375 0.0017050269862701154 0.00709111640850703 -0.0048006447298186167 0.0054935925837719078
leaf_count=150 274 62 474 33 32 86 38 401 36 246 92 36 994 202 23 20 536 165 219 210 74 249 84 65 34 28 87 24 21 33
internal_value=0 0.00466809 -0.00132249 -0.0110535 0.0383545 0.0176266 0.0338661 -0.00322802 0.028855 0.0323725 0.0450225 0.0247979 -0.00430355 -0.0669054 0.0687725 -0.000787938 -0.00913161 0.00321472 0.0117771 0.00714654 0.0207804 0.0152033 0.0058003 0.0261293 0.0294807 0.0255823 0.00426869 0.0331473 0.0244533 0.0335206
internal_count=5028 4676 3970 2623 706 1347 674 2149 612 574 237 128 2116 352 109 1715 556 1159 1110 733 377 523 158 538 473 439 115 324 300 279
shrinkage=0.05


Tree=57
num_leaves=4
num_cat=0
split_feature=0 0 0
split_gain=0.0217155 0.0558359 0.000971188
threshold=1.0000000180025095e-35 0.10714285714285722 0.17857142857142852
decision_type=2 2 2
left_child=-1 -2 -3
right_child=1 2 -4
leaf_value=-3.8183120817973698e-05 0.0015990152546804246 -3.9244120099903213e-05 -0.00036818124353885654
leaf_count=4814 73 113 28
internal_value=0 0.00953126 -0.0020913
internal_count=5028 214 141
shrinkage=0.05


Tree=58
num_leaves=31
num_cat=0
split_feature=1 1 1 1 1 1 1 1 1 1 1 1 1 1 1 1 1 1 1 1 1 1 1 1 1 1 1 1 1 1
split_gain=1.51442 0.852881 0.658551 0.657446 0.270402 0.194909 0.150623 0.143244 0.103218 0.301725 0.102511 0.112828 0.100853 0.0864982 0.054059 0.0516635 0.155813 0.111238 0.0416992 0.0712832 0.0415966 0.10676 0.0549759 0.05225 0.0410243 0.0396699 0.083783 0.0638924 0.287008 0.276321
threshold=16.500000000000004 56.500000000000007 29.500000000000004 32.500000000000007 113.00000000000001 24.500000000000004 59.500000000000007 33.500000000000007 60.500000000000007 62.500000000000007 27.500000000000004 28.500000000000004 34.500000000000007 15.500000000000002 26.500000000000004 42.500000000000007 43.500000000000007 40.500000000000007 30.500000000000004 31.500000000000004 19.500000000000004 18.500000000000004 21.500000000000004 17.500000000000004 22.500000000000004 97.000000000000014 93.500000000000014 82.500000000000014 84.500000000000014 80.500000000000014
decision_type=2 2 2 2 2 2 2 2 2 2 2 2 2 2 2 2 2 2 2 2 2 2 2 2 2 2 2 2 2 2
left_child=13 2 5 18 6 20 -3 -5 -8 -10 14 -12 -9 -1 -7 17 -17 -14 -4 -20 21 23 -22 -2 -24 26 27 29 -29 -11
right_child=1 4 3 7 -6 10 8 12 9 25 11 -13 15 -15 -16 16 -18 -19 19 -21 22 -23 24 -25 -26 -27 -28 28 -30 -31
leaf_value=-0.0040877516468365988 0.00024502147396985636 0.0039590592105542459 -0.0029017423623360246 0.0031169677774111433 0.0063147549517452717 0.0026891580674537393 -0.0011509022038233908 -0.00091669963779592164 0.0059714564432700483 0.0011636636902888616 0.0002499304711818695 0.0035516341113381918 -4.5415615171973621e-05 -0.0025027720497386293 0.0054181628901025522 -0.0047652718424797055 -0.00027045035984978749 0.0013564404664617596 0.00052010134926864084 -0.0021189519953647446 0.001498227842050056 -0.00061320688043321888 -0.00058386778912028752 0.0012456873334555263 0.0010307274049236662 8.5129485680506789e-05 0.0037936568698462322 -0.0041981866849320273 0.0016218756635983786 0.0067391600459814072
leaf_count=150 274 62 149 33 32 86 38 401 36 300 92 36 994 202 23 20 536 165 28 297 219 210 74 249 84 65 34 28 87 24
internal_value=0 0.00445247 -0.0012428 -0.0104724 0.0364783 0.01673 0.032214 -0.00303708 0.0274558 0.0307973 0.0427627 0.0235707 -0.00405665 -0.0635638 0.0653001 -0.000718336 -0.00864269 0.00308317 -0.0441825 -0.0378317 0.0111716 0.00678141 0.0197075 0.0144288 0.00549049 0.0248666 0.0280498 0.0243459 0.00409634 0.0315333
internal_count=5028 4676 3970 2623 706 1347 674 2149 612 574 237 128 2116 352 109 1715 556 1159 474 325 1110 733 377 523 158 538 473 439 115 324
shrinkage=0.05


Tree=59
num_leaves=4
num_cat=0
split_feature=0 0 0
split_gain=0.0180446 0.050153 0.00101385
threshold=1.0000000180025095e-35 0.10714285714285722 0.17857142857142852
decision_type=2 2 2
left_child=-1 -2 -3
right_child=1 2 -4
leaf_value=-3.4658722873540356e-05 0.0014983662799613118 -4.9455002345870026e-05 -0.00038553918046610697
leaf_count=4814 73 113 28
internal_value=0 0.00869133 -0.0023239
internal_count=5028 214 141
shrinkage=0.05


Tree=60
num_leaves=31
num_cat=0
split_feature=1 1 1 1 1 1 1 1 1 1 1 1 1 1 1 1 1 1 1 1 1 1 1 1 1 1 1 1 1 1
split_gain=1.88243 0.725242 0.703432 0.51126 0.493532 0.460801 0.326737 0.324009 0.304066 0.244583 0.213163 0.142793 0.207582 0.136219 0.231958 0.140778 0.151447 0.101737 0.153544 0.104089 0.0912482 0.0859748 0.0855377 0.077458 0.0719697 0.177041 0.174529 0.134293 0.069626 0.0974293
threshold=50.500000000000007 31.500000000000004 32.500000000000007 92.500000000000014 16.500000000000004 107.50000000000001 84.500000000000014 37.500000000000007 97.000000000000014 36.500000000000007 42.500000000000007 79.500000000000014 80.500000000000014 76.500000000000014 75.500000000000014 56.500000000000007 52.500000000000007 18.500000000000004 23.500000000000004 19.500000000000004 43.500000000000007 30.500000000000004 59.500000000000007 116.50000000000001 45.500000000000007 47.500000000000007 44.500000000000007 49.500000000000007 20.500000000000004 22.500000000000004
decision_type=2 2 2 2 2 2 2 2 2 2 2 2 2 2 2 2 2 2 2 2 2 2 2 2 2 2 2 2 2 2
left_child=1 4 -3 6 -1 8 11 9 -5 -4 -9 13 -13 14 15 16 -2 -6 19 -19 -12 -20 -17 -7 26 -26 -22 -27 -21 -30
right_child=3 2 7 5 17 23 -8 10 -10 -11 20 12 -14 -15 -16 22 -18 18 21 28 24 -23 -24 -25 25 27 -28 -29 29 -31
leaf_value=-0.001276659875074563 0.0034591018263973408 -0.0031459011260432379 -0.0011084632344169705 6.5108098917537261e-05 0.00025219035692541323 0.0049162259697914127 0.0056388504892946724 0.00057823941333970028 -0.0063072613798655008 -0.0061240699291229246 -0.003975225725899572 -0.003683476992275404 0.0019732663577253172 0.0054349764035298278 -0.0017562717199325563 0.0049216240147749585 0.00052500108722597361 0.00083119144042332965 0.00028675731364006922 0.0033118053849013349 -0.00069491166520763094 0.0031929256739439793 0.00285858642611303 0.00098028814792633064 -0.0028192934941272348 0.0013245547308197506 0.0044697215159734092 -0.0017185874394516449 0.0012452727130481175 0.0040384195352855482
leaf_count=346 67 303 876 36 526 25 83 670 39 25 23 23 55 39 32 60 128 210 443 106 74 27 309 25 98 79 21 67 175 38
internal_value=0 -0.00596316 -0.0181189 0.0440593 0.00856392 -0.0153962 0.0533959 -0.0110965 -0.0649705 -0.0249526 0.00100067 0.0464834 0.00610505 0.0514433 0.0476966 0.0523958 0.0306626 0.0163001 0.0222268 0.0339124 -0.0185517 0.00907415 0.0638808 0.0589651 -0.0144163 -0.0235079 0.00893488 -0.00143911 0.0452937 0.0348716
internal_count=5028 4107 2236 921 1871 125 796 1933 75 901 1032 713 78 635 596 564 195 1525 999 529 362 470 369 50 339 244 95 146 319 213
shrinkage=0.05


Tree=61
num_leaves=4
num_cat=0
split_feature=0 0 0
split_gain=0.0354694 0.0321326 0.00048653
threshold=1.0000000180025095e-35 0.10714285714285722 0.17857142857142852
decision_type=2 2 2
left_child=-1 -2 -3
right_child=1 2 -4
leaf_value=0.00012419045509726818 0.0016173898776372275 0.00028014489346080357 0.00051403045654296875
leaf_count=4817 75 108 28
internal_value=0 0.0157301 0.00656596
internal_count=5028 211 136
shrinkage=0.05


Tree=62
num_leaves=31
num_cat=0
split_feature=1 1 1 1 1 1 1 1 1 1 1 1 1 1 1 1 1 1 1 1 1 1 1 1 1 1 1 1 1 1
split_gain=1.7058 0.599948 0.707429 0.507444 0.445138 0.415767 0.294957 0.274519 0.260906 0.220683 0.155192 0.168372 0.197136 0.13027 0.129113 0.111631 0.220118 0.0917578 0.13832 0.0936818 0.0777309 0.077236 0.0699467 0.068283 0.0631734 0.0883709 0.0498361 0.233792 0.187298 0.0970743
threshold=53.500000000000007 31.500000000000004 37.500000000000007 92.500000000000014 16.500000000000004 107.50000000000001 32.500000000000007 97.000000000000014 84.500000000000014 36.500000000000007 71.500000000000014 66.500000000000014 65.500000000000014 42.500000000000007 47.500000000000007 45.500000000000007 44.500000000000007 18.500000000000004 23.500000000000004 19.500000000000004 56.500000000000007 30.500000000000004 116.50000000000001 43.500000000000007 20.500000000000004 22.500000000000004 79.500000000000014 76.500000000000014 80.500000000000014 75.500000000000014
decision_type=2 2 2 2 2 2 2 2 2 2 2 2 2 2 2 2 2 2 2 2 2 2 2 2 2 2 2 2 2 2
left_child=1 4 6 8 -1 7 -3 -5 10 -8 11 12 20 -4 15 16 23 -6 19 -19 -2 -20 -7 -15 -21 -26 27 29 -28 -12
right_child=3 2 13 5 17 22 9 -9 -10 -11 26 -13 -14 14 -16 -17 -18 18 21 24 -22 -23 -24 -25 25 -27 28 -29 -30 -31
leaf_value=-0.0012212169394327727 0.0018443368375301362 -0.0029953576157195341 0.00054270343326810581 5.564321246412066e-05 0.00023075035089775635 0.0046634252071380616 -0.0010598183256578229 -0.0059992077640998063 0.0053501817296786481 -0.0058240756988525398 0.0016348563962512545 0.0051206135790641998 -0.0011380144340150497 -0.0037859198191891549 0.00027026723791324095 -0.0026847382133104365 0.0042396539733523418 0.00078116037306331454 0.00026426063703360463 0.0031385237737646642 0.003495820533288153 0.0030187748648502211 0.0009231931567192077 -0.00066679744301615534 0.0011701550909451078 0.0038302890564266001 -0.0035055124241372814 0.0051559183460015527 0.0018677556243809788 -0.0016749113798141481
leaf_count=346 114 303 670 36 526 25 876 39 83 25 72 73 34 23 227 98 21 210 443 106 190 27 25 74 175 38 23 39 55 32
internal_value=0 -0.00536133 -0.0161167 0.044015 0.00795792 -0.0147681 -0.0329169 -0.0618576 0.0542918 -0.0238402 0.0473692 0.05886 0.0494537 0.00205698 -0.0112479 -0.0287491 -0.0080316 0.015305 0.0209335 0.0320248 0.0575303 0.00844997 0.0558662 -0.0281277 0.042822 0.0328947 0.0259994 0.03709 0.00566661 0.0123293
internal_count=5028 4188 2317 840 1871 125 1204 75 715 901 632 411 338 1113 443 216 118 1525 999 529 304 470 50 97 319 213 221 143 78 104
shrinkage=0.05


Tree=63
num_leaves=4
num_cat=0
split_feature=0 0 0
split_gain=0.0298276 0.0297879 0.000276517
threshold=1.0000000180025095e-35 0.10714285714285722 0.17857142857142852
decision_type=2 2 2
left_child=-1 -2 -3
right_child=1 2 -4
leaf_value=0.00011167800665297695 0.001519034226735433 0.00024156385549792541 0.00041788694049630851
leaf_count=4817 75 108 28
internal_value=0 0.0143808 0.00555731
internal_count=5028 211 136
shrinkage=0.05


Tree=64
num_leaves=31
num_cat=0
split_feature=1 1 1 1 1 1 1 1 1 1 1 1 1 1 1 1 1 1 1 1 1 1 1 1 1 1 1 1 1 1
split_gain=1.54033 0.539522 0.6385 0.457954 0.401497 0.375151 0.26619 0.249935 0.235529 0.199121 0.139992 0.152035 0.177847 0.117616 0.116519 0.100681 0.198708 0.0827616 0.124604 0.084317 0.070163 0.0693854 0.0636356 0.0631579 0.0617381 0.0573141 0.0801484 0.047993 0.0465711 0.0939735
threshold=53.500000000000007 31.500000000000004 37.500000000000007 92.500000000000014 16.500000000000004 107.50000000000001 32.500000000000007 98.500000000000014 84.500000000000014 36.500000000000007 71.500000000000014 66.500000000000014 65.500000000000014 42.500000000000007 47.500000000000007 45.500000000000007 44.500000000000007 18.500000000000004 23.500000000000004 19.500000000000004 56.500000000000007 30.500000000000004 95.500000000000014 116.50000000000001 43.500000000000007 20.500000000000004 22.500000000000004 59.500000000000007 49.500000000000007 50.500000000000007
decision_type=2 2 2 2 2 2 2 2 2 2 2 2 2 2 2 2 2 2 2 2 2 2 2 2 2 2 2 2 2 2
left_child=1 4 6 8 -1 7 -3 22 10 -8 11 12 20 -4 15 16 24 -6 19 -19 -2 -20 -5 -7 -15 -21 -27 -22 -16 -30
right_child=3 2 13 5 17 23 9 -9 -10 -11 -12 -13 -14 14 28 -17 -18 18 21 25 27 -23 -24 -25 -26 26 -28 -29 29 -31
leaf_value=-0.0011677925426491424 0.0017453457310534362 -0.0028516496368760718 0.00050963053952402144 -0.002257351701458295 0.00021116706921573826 0.0044240574836730958 -0.0010129314613396719 -0.006383017859151287 0.005076669731053962 -0.005538456201553345 0.0012288446542364441 0.004858610789253287 -0.0010870798107455758 -0.0036052669519963474 0.0012308222772199897 -0.0025562408019085322 0.0040217787027359009 0.00073440298438072211 0.00024365934776667816 0.0029746248052929932 0.004484086136023204 0.0028544337661178028 0.001561439484357834 0.0008699652552604676 -0.00063939265705443725 0.0010998327050890243 0.0036331904954031895 0.0027745108306407931 -0.0016579643559100023 0.00087321928621810158
leaf_count=346 114 303 670 24 526 25 876 31 83 25 221 73 34 23 79 98 21 210 443 106 60 27 20 25 74 175 38 130 67 81
internal_value=0 -0.00523257 -0.015432 0.0416878 0.00739813 -0.0141553 -0.0313927 -0.0588857 0.0514505 -0.02277 0.0448732 0.0557868 0.0468485 0.00183368 -0.0108085 -0.0274343 -0.00775913 0.0143758 0.0197213 0.0302483 0.0545198 0.0078728 -0.0104308 0.0529402 -0.0268528 0.0404917 0.0310359 0.0662875 0.00501164 -0.00545309
internal_count=5028 4188 2317 840 1871 125 1204 75 715 901 632 411 338 1113 443 216 118 1525 999 529 304 470 44 50 97 319 213 190 227 148
shrinkage=0.05


Tree=65
num_leaves=4
num_cat=0
split_feature=0 0 0
split_gain=0.130639 0.0551087 0.0736871
threshold=1.0000000180025095e-35 0.17857142857142852 0.10714285714285722
decision_type=2 2 2
left_child=-1 2 -2
right_child=1 -3 -4
leaf_value=-0.00038483229869123509 -0.0025900174346235065 -0.0037112102444682806 -0.00055368213817991066
leaf_count=4812 72 28 116
internal_value=0 -0.0328354 -0.0266711
internal_count=5028 216 188
shrinkage=0.05


Tree=66
num_leaves=31
num_cat=0
split_feature=1 1 1 1 1 1 1 1 1 1 1 1 1 1 1 1 1 1 1 1 1 1 1 1 1 1 1 1 1 1
split_gain=0.867195 0.479589 0.382121 0.228834 0.645378 0.469339 0.160403 0.347157 0.11307 0.0954455 0.0854491 0.0766737 0.0740534 0.287224 0.233737 0.294214 0.1748 0.110081 0.0612458 0.0458834 0.0452689 0.0722133 0.0429084 0.0487586 0.0428416 0.122326 0.0602587 0.0407086 0.0296634 0.0381358
