tree
version=v2
num_class=1
num_tree_per_iteration=1
label_index=0
max_feature_idx=903
objective=binary sigmoid:1
feature_names=Column_0 Column_1 Column_2 Column_3 Column_4 Column_5 Column_6 Column_7 Column_8 Column_9 Column_10 Column_11 Column_12 Column_13 Column_14 Column_15 Column_16 Column_17 Column_18 Column_19 Column_20 Column_21 Column_22 Column_23 Column_24 Column_25 Column_26 Column_27 Column_28 Column_29 Column_30 Column_31 Column_32 Column_33 Column_34 Column_35 Column_36 Column_37 Column_38 Column_39 Column_40 Column_41 Column_42 Column_43 Column_44 Column_45 Column_46 Column_47 Column_48 Column_49 Column_50 Column_51 Column_52 Column_53 Column_54 Column_55 Column_56 Column_57 Column_58 Column_59 Column_60 Column_61 Column_62 Column_63 Column_64 Column_65 Column_66 Column_67 Column_68 Column_69 Column_70 Column_71 Column_72 Column_73 Column_74 Column_75 Column_76 Column_77 Column_78 Column_79 Column_80 Column_81 Column_82 Column_83 Column_84 Column_85 Column_86 Column_87 Column_88 Column_89 Column_90 Column_91 Column_92 Column_93 Column_94 Column_95 Column_96 Column_97 Column_98 Column_99 Column_100 Column_101 Column_102 Column_103 Column_104 Column_105 Column_106 Column_107 Column_108 Column_109 Column_110 Column_111 Column_112 Column_113 Column_114 Column_115 Column_116 Column_117 Column_118 Column_119 Column_120 Column_121 Column_122 Column_123 Column_124 Column_125 Column_126 Column_127 Column_128 Column_129 Column_130 Column_131 Column_132 Column_133 Column_134 Column_135 Column_136 Column_137 Column_138 Column_139 Column_140 Column_141 Column_142 Column_143 Column_144 Column_145 Column_146 Column_147 Column_148 Column_149 Column_150 Column_151 Column_152 Column_153 Column_154 Column_155 Column_156 Column_157 Column_158 Column_159 Column_160 Column_161 Column_162 Column_163 Column_164 Column_165 Column_166 Column_167 Column_168 Column_169 Column_170 Column_171 Column_172 Column_173 Column_174 Column_175 Column_176 Column_177 Column_178 Column_179 Column_180 Column_181 Column_182 Column_183 Column_184 Column_185 Column_186 Column_187 Column_188 Column_189 Column_190 Column_191 Column_192 Column_193 Column_194 Column_195 Column_196 Column_197 Column_198 Column_199 Column_200 Column_201 Column_202 Column_203 Column_204 Column_205 Column_206 Column_207 Column_208 Column_209 Column_210 Column_211 Column_212 Column_213 Column_214 Column_215 Column_216 Column_217 Column_218 Column_219 Column_220 Column_221 Column_222 Column_223 Column_224 Column_225 Column_226 Column_227 Column_228 Column_229 Column_230 Column_231 Column_232 Column_233 Column_234 Column_235 Column_236 Column_237 Column_238 Column_239 Column_240 Column_241 Column_242 Column_243 Column_244 Column_245 Column_246 Column_247 Column_248 Column_249 Column_250 Column_251 Column_252 Column_253 Column_254 Column_255 Column_256 Column_257 Column_258 Column_259 Column_260 Column_261 Column_262 Column_263 Column_264 Column_265 Column_266 Column_267 Column_268 Column_269 Column_270 Column_271 Column_272 Column_273 Column_274 Column_275 Column_276 Column_277 Column_278 Column_279 Column_280 Column_281 Column_282 Column_283 Column_284 Column_285 Column_286 Column_287 Column_288 Column_289 Column_290 Column_291 Column_292 Column_293 Column_294 Column_295 Column_296 Column_297 Column_298 Column_299 Column_300 Column_301 Column_302 Column_303 Column_304 Column_305 Column_306 Column_307 Column_308 Column_309 Column_310 Column_311 Column_312 Column_313 Column_314 Column_315 Column_316 Column_317 Column_318 Column_319 Column_320 Column_321 Column_322 Column_323 Column_324 Column_325 Column_326 Column_327 Column_328 Column_329 Column_330 Column_331 Column_332 Column_333 Column_334 Column_335 Column_336 Column_337 Column_338 Column_339 Column_340 Column_341 Column_342 Column_343 Column_344 Column_345 Column_346 Column_347 Column_348 Column_349 Column_350 Column_351 Column_352 Column_353 Column_354 Column_355 Column_356 Column_357 Column_358 Column_359 Column_360 Column_361 Column_362 Column_363 Column_364 Column_365 Column_366 Column_367 Column_368 Column_369 Column_370 Column_371 Column_372 Column_373 Column_374 Column_375 Column_376 Column_377 Column_378 Column_379 Column_380 Column_381 Column_382 Column_383 Column_384 Column_385 Column_386 Column_387 Column_388 Column_389 Column_390 Column_391 Column_392 Column_393 Column_394 Column_395 Column_396 Column_397 Column_398 Column_399 Column_400 Column_401 Column_402 Column_403 Column_404 Column_405 Column_406 Column_407 Column_408 Column_409 Column_410 Column_411 Column_412 Column_413 Column_414 Column_415 Column_416 Column_417 Column_418 Column_419 Column_420 Column_421 Column_422 Column_423 Column_424 Column_425 Column_426 Column_427 Column_428 Column_429 Column_430 Column_431 Column_432 Column_433 Column_434 Column_435 Column_436 Column_437 Column_438 Column_439 Column_440 Column_441 Column_442 Column_443 Column_444 Column_445 Column_446 Column_447 Column_448 Column_449 Column_450 Column_451 Column_452 Column_453 Column_454 Column_455 Column_456 Column_457 Column_458 Column_459 Column_460 Column_461 Column_462 Column_463 Column_464 Column_465 Column_466 Column_467 Column_468 Column_469 Column_470 Column_471 Column_472 Column_473 Column_474 Column_475 Column_476 Column_477 Column_478 Column_479 Column_480 Column_481 Column_482 Column_483 Column_484 Column_485 Column_486 Column_487 Column_488 Column_489 Column_490 Column_491 Column_492 Column_493 Column_494 Column_495 Column_496 Column_497 Column_498 Column_499 Column_500 Column_501 Column_502 Column_503 Column_504 Column_505 Column_506 Column_507 Column_508 Column_509 Column_510 Column_511 Column_512 Column_513 Column_514 Column_515 Column_516 Column_517 Column_518 Column_519 Column_520 Column_521 Column_522 Column_523 Column_524 Column_525 Column_526 Column_527 Column_528 Column_529 Column_530 Column_531 Column_532 Column_533 Column_534 Column_535 Column_536 Column_537 Column_538 Column_539 Column_540 Column_541 Column_542 Column_543 Column_544 Column_545 Column_546 Column_547 Column_548 Column_549 Column_550 Column_551 Column_552 Column_553 Column_554 Column_555 Column_556 Column_557 Column_558 Column_559 Column_560 Column_561 Column_562 Column_563 Column_564 Column_565 Column_566 Column_567 Column_568 Column_569 Column_570 Column_571 Column_572 Column_573 Column_574 Column_575 Column_576 Column_577 Column_578 Column_579 Column_580 Column_581 Column_582 Column_583 Column_584 Column_585 Column_586 Column_587 Column_588 Column_589 Column_590 Column_591 Column_592 Column_593 Column_594 Column_595 Column_596 Column_597 Column_598 Column_599 Column_600 Column_601 Column_602 Column_603 Column_604 Column_605 Column_606 Column_607 Column_608 Column_609 Column_610 Column_611 Column_612 Column_613 Column_614 Column_615 Column_616 Column_617 Column_618 Column_619 Column_620 Column_621 Column_622 Column_623 Column_624 Column_625 Column_626 Column_627 Column_628 Column_629 Column_630 Column_631 Column_632 Column_633 Column_634 Column_635 Column_636 Column_637 Column_638 Column_639 Column_640 Column_641 Column_642 Column_643 Column_644 Column_645 Column_646 Column_647 Column_648 Column_649 Column_650 Column_651 Column_652 Column_653 Column_654 Column_655 Column_656 Column_657 Column_658 Column_659 Column_660 Column_661 Column_662 Column_663 Column_664 Column_665 Column_666 Column_667 Column_668 Column_669 Column_670 Column_671 Column_672 Column_673 Column_674 Column_675 Column_676 Column_677 Column_678 Column_679 Column_680 Column_681 Column_682 Column_683 Column_684 Column_685 Column_686 Column_687 Column_688 Column_689 Column_690 Column_691 Column_692 Column_693 Column_694 Column_695 Column_696 Column_697 Column_698 Column_699 Column_700 Column_701 Column_702 Column_703 Column_704 Column_705 Column_706 Column_707 Column_708 Column_709 Column_710 Column_711 Column_712 Column_713 Column_714 Column_715 Column_716 Column_717 Column_718 Column_719 Column_720 Column_721 Column_722 Column_723 Column_724 Column_725 Column_726 Column_727 Column_728 Column_729 Column_730 Column_731 Column_732 Column_733 Column_734 Column_735 Column_736 Column_737 Column_738 Column_739 Column_740 Column_741 Column_742 Column_743 Column_744 Column_745 Column_746 Column_747 Column_748 Column_749 Column_750 Column_751 Column_752 Column_753 Column_754 Column_755 Column_756 Column_757 Column_758 Column_759 Column_760 Column_761 Column_762 Column_763 Column_764 Column_765 Column_766 Column_767 Column_768 Column_769 Column_770 Column_771 Column_772 Column_773 Column_774 Column_775 Column_776 Column_777 Column_778 Column_779 Column_780 Column_781 Column_782 Column_783 Column_784 Column_785 Column_786 Column_787 Column_788 Column_789 Column_790 Column_791 Column_792 Column_793 Column_794 Column_795 Column_796 Column_797 Column_798 Column_799 Column_800 Column_801 Column_802 Column_803 Column_804 Column_805 Column_806 Column_807 Column_808 Column_809 Column_810 Column_811 Column_812 Column_813 Column_814 Column_815 Column_816 Column_817 Column_818 Column_819 Column_820 Column_821 Column_822 Column_823 Column_824 Column_825 Column_826 Column_827 Column_828 Column_829 Column_830 Column_831 Column_832 Column_833 Column_834 Column_835 Column_836 Column_837 Column_838 Column_839 Column_840 Column_841 Column_842 Column_843 Column_844 Column_845 Column_846 Column_847 Column_848 Column_849 Column_850 Column_851 Column_852 Column_853 Column_854 Column_855 Column_856 Column_857 Column_858 Column_859 Column_860 Column_861 Column_862 Column_863 Column_864 Column_865 Column_866 Column_867 Column_868 Column_869 Column_870 Column_871 Column_872 Column_873 Column_874 Column_875 Column_876 Column_877 Column_878 Column_879 Column_880 Column_881 Column_882 Column_883 Column_884 Column_885 Column_886 Column_887 Column_888 Column_889 Column_890 Column_891 Column_892 Column_893 Column_894 Column_895 Column_896 Column_897 Column_898 Column_899 Column_900 Column_901 Column_902 Column_903
feature_infos=[0:0.017752423848195562] [0:1.2381051653124002e-05] [0.0024392351264507228:0.023461706695319252] [0:8.7839341892122357e-05] [0.00031126562979488733:0.003662324467926283] [2.4562697643562406e-06:3.302930008866751e-05] [0:3.2539152127064358e-05] [0:6.6667201209129264e-06] [4.3231206674609848e-06:0.00017728405221836095] [2.4783053116557936e-07:2.0837586382970491e-05] [4.3231206674609848e-06:0.00017728405221836095] [8.6224005959469921e-07:9.9781351242734332e-05] [0.044810486938463498:0.33358116249041048] [0:6.200268544371969e-07] [0:4.5633324062718121e-06] [0:7.6805213101288244e-06] [0:8.0309814054214883e-08] [0:0.0014195773527222834] [0:5.2014560896656629e-05] none [1.5973566329010297e-05:0.00012755752030804314] [2.4562697643562406e-06:3.302930008866751e-05] [2.1615603337304873e-06:0.00010904966799244764] [0.0067466488738506707:0.49772199386974986] [0:1.9696398506300627e-05] [8.9067424564337645e-05:0.00094491969320350036] [0:4.7788937730729436e-07] [0:0.0013353167251462124] [0:1.5361042620257649e-05] [0:9.969589207987878e-08] [0:1.6805816113497212e-07] [0:7.0730582446392361e-06] [0:4.0106310167270329e-07] [2.4525424961250566e-06:3.302930008866751e-05] [0:5.2204719653631714e-06] [0:3.2539152127064358e-05] [0:1.4862603102917947e-06] [0:8.202276139296283e-06] [0:2.3894709138426961e-07] [0:0.00010139838233730593] [0:5.672141708971763e-05] [0:0.00024650066592724269] [2.1615603337304873e-06:0.00010904966799244764] [4.5545184704394301e-07:3.4811869077595827e-05] [0:7.8548042655659584e-05] [0:0.00087648524866292649] [0:1.9630567096766447e-07] [0.0029027173811481568:0.024100412049799479] [0:0.00016427996662578539] [0:4.1310918983166701e-05] [0.07621434731215905:0.56586226761610314] [0:4.1310918983166701e-05] [0:8.7839341892122357e-05] [0:0.0002187998414701] [0:7.4313015514589734e-07] [0:5.6345696753248376e-05] none [0:2.3638159214851846e-05] [0:4.1310918983166701e-05] [0:2.0433721161257781e-07] [1.0347406907518277e-05:5.3202672883201954e-05] [0:4.1310918983166701e-05] [4.3231206674609848e-06:0.00017728405221836095] [0:2.2816662031359103e-06] [8.8956959909232647e-05:0.00097847575847039817] [0.0060425497370727912:0.12653942341629965] [0.0667111384263918:0.35228462654443171] [0:4.1310918983166701e-05] [0:2.9064180568852576e-05] [6.0267996802090521e-06:5.315096960537594e-05] [0.0019291498129702079:0.019615476442996795] [0:0.0014195773527222834] [0:2.3387931700227455e-05] [0:1.492418577113778e-05] [7.0412842126770596e-05:0.00078206960735170759] [0.0021777837523445668:0.024713279261520203] [2.1615603337304873e-06:0.00010904966799244764] [2.3436905136078294e-08:3.5406517411560751e-06] [0:1.4959439753274311e-05] [1.7244801191893963e-06:0.00018047930988533461] [0.00010660867753655774:0.00095481286766581819] [0:9.6506046128647826e-08] [0.0067466488738506707:0.3034910126533284] [0:0.00076089900208903163] [0:2.2816662031359103e-06] [0:1.4117289274391674e-05] [0.00241947653317775:0.023792690886194474] [7.5499236975137638e-07:7.1471161552706902e-05] [0.00029181152793270683:0.0035724231097512197] [2.26391619805667e-06:3.232834489517353e-05] [0:3.259845763777944e-05] [0:8.9837295382492473e-06] [4.3233247278394649e-06:0.00017691479373551231] [3.0925982925773351e-07:1.9621387640551827e-05] [4.3233247278394649e-06:0.00017691479373551231] [8.6228075913709839e-07:0.00010091988122579093] [0.051861319429922392:0.32890668839671688] [0:5.8991725426681747e-07] [0:4.2876599960818494e-06] [0:7.1856167250367958e-06] [0:7.8984076468191187e-08] [0:0.0013060374815831062] [0:5.1861917046508823e-05] none [1.6727369805178116e-05:0.00010181880910221244] [2.26391619805667e-06:3.232834489517353e-05] [2.1616623639197274e-06:0.00010756882502138713] [0.0068966976166558221:0.4388860966724048] [0:1.8374833299205104e-05] [8.8942605577104917e-05:0.00095982132504885927] [0:4.8038806593580592e-07] [0:0.0012285161421330024] [0:1.4371233450073592e-05] [0:9.5466832212007374e-08] [0:1.6005787917521125e-07] [0:7.0976543867911577e-06] [0:3.8197079532251695e-07] [2.260480816876016e-06:3.232834489517353e-05] [0:6.1126954985984969e-06] [0:3.259845763777944e-05] [0:1.4581980921361817e-06] [0:9.3675040905337552e-06] [0:2.4610132507719938e-07] [0:9.3288391541650426e-05] [0:5.4246256732218155e-05] [0:0.00024638612772502719] [2.1616623639197274e-06:0.00010756882502138713] [4.7406233094117905e-07:3.4645476641206109e-05] [0:7.3803440551060975e-05] [0:0.00081961836346416657] [0:1.9666345558440993e-07] [0.0028766367092764849:0.023838980837813769] [0:0.00015435575985894674] [3.7749618487568703e-07:4.0514700518842497e-05] [0.074035593711119799:0.47347131420332556] [3.7749618487568703e-07:4.0514700518842497e-05] [7.5499236975137638e-07:7.1471161552706902e-05] [0:0.00021694050743271999] [0:7.2909904606809083e-07] [0:5.7826168207068186e-05] none [0:2.0757680061416328e-05] [3.7749618487568703e-07:4.0514700518842497e-05] [0:2.0642685413978751e-07] [1.0329375204171213e-05:5.3228846483918529e-05] [3.7749618487568703e-07:4.0514700518842497e-05] [4.3233247278394649e-06:0.00017691479373551231] [0:2.1438299980409289e-06] [8.9348648136580443e-05:0.00096444715433593954] [0.0060425497370727912:0.12653942341629965] [0.0667111384263918:0.35228462654443171] [3.7749618487568703e-07:4.0514700518842497e-05] [0:3.0389651991613381e-05] [6.0183537300087654e-06:5.315096960537594e-05] [0.0022114682830303828:0.019037775465266957] [0:0.0013060374815831062] [0:2.0724547291964732e-05] [0:1.476050985642022e-05] [8.0646632812271835e-05:0.00075903665283067801] [0.0021873727969608965:0.024358959996456177] [2.1616623639197274e-06:0.00010756882502138713] [2.2145478518815642e-08:3.6379223933856369e-06] [0:1.4795377202537735e-05] [1.7245615182741944e-06:0.0001582429096512757] [0.00010565080752290725:0.00094445545615361528] [0:1.1981286592096826e-07] [0.0068966976166558221:0.32404975456136026] [0:0.00074211420773058262] [0:2.1438299980409289e-06] [0:1.3910478713471479e-05] [0.0021668155084312709:0.023860710610152453] [7.4304419371099949e-07:6.8086078292443382e-05] [0.00028772237188630752:0.0035645683842498084] [2.5924979520391773e-06:3.2303565688516889e-05] [0:3.2546680097583586e-05] [0:8.8521228176636685e-06] [4.2549056987240436e-06:0.00017856554539328123] [2.8012113110424559e-07:1.8201884078911858e-05] [4.2549056987240436e-06:0.00017856554539328123] [8.4863468439624693e-07:9.9438670397319261e-05] [0.049860532649107676:0.32224817181464976] [0:5.5147902514655213e-07] [0:4.2489735316636047e-06] [0:6.2970512365930933e-06] [0:7.8593730065453977e-08] [0:0.0010309002940314378] [0:5.1498724130020961e-05] none [1.5024656063191892e-05:9.4183479094651784e-05] [2.5924979520391773e-06:3.2303565688516889e-05] [2.1274528493620167e-06:0.00010971298441057382] [0.0073333139933159461:0.41548831303432482] [0:1.8061014493885471e-05] [8.047181957345211e-05:0.00096256530982515411] [0:5.2099938004910519e-07] [0:0.0011157081441420186] [0:7.5673741933534648e-06] [0:9.2766865237658982e-08] [0:1.3406550034991364e-07] [0:8.0296776208871739e-06] [0:1.3406550034991364e-07] [2.5801527236961345e-06:3.2303565688516889e-05] [0:6.0938698771141962e-06] [0:3.2546680097583586e-05] [0:1.4722861995362423e-06] [0:8.8232211170181163e-06] [0:2.1569523823910185e-07] [0:7.3635735287959922e-05] [0:5.110188935610851e-05] [0:0.0002475239281436613] [2.1274528493620167e-06:0.00011766171376421385] [4.4577050462050079e-07:3.385754051459328e-05] [0:7.2409950975219379e-05] [0:0.0011341412218840369] [0:1.9635108651193038e-07] [0.0028496709716646024:0.023640923980288317] [0:0.00014458510212414963] [3.7152209685549863e-07:4.0309019183035548e-05] [0.070997918702433258:0.48480480592000613] [3.7152209685549863e-07:4.0309019183035548e-05] [7.4304419371099949e-07:6.8086078292443382e-05] [0:0.00021046335264783295] [0:7.3614309976812113e-07] [0:5.969164325705474e-05] none [0:1.9104404165361144e-05] [3.7152209685549863e-07:4.0309019183035548e-05] [0:2.1101788748449737e-07] [1.0340377719560441e-05:5.3204603278035221e-05] [3.7152209685549863e-07:4.0309019183035548e-05] [4.2549056987240436e-06:0.00017856554539328123] [0:2.1244867658318023e-06] [8.8042144554864981e-05:0.0010050661764903349] [0.0060425497370727912:0.12653942341629965] [0.0667111384263918:0.35228462654443171] [3.7152209685549863e-07:4.0309019183035548e-05] [0:2.9815862166266845e-05] [6.0144920126398741e-06:5.315096960537594e-05] [0.002212591396607377:0.022860659813793035] [0:0.0010309002940314378] [0:1.9073910303963907e-05] [0:1.3077752999277125e-05] [8.0687589912559172e-05:0.00091504964303080886] [0.0021553878654216093:0.024977416044302023] [2.1274528493620167e-06:0.00010971298441057382] [2.4624455708560152e-08:3.8186887234917554e-06] [0:1.3215079969382637e-05] [1.6972693687924917e-06:0.00014757691650327278] [0.00010466043152410317:0.0009366088170296036] [0:1.1530675231396425e-07] [0.0072616558318560351:0.29094241408561455] [0:0.00073401548814174119] [0:2.1244867658318023e-06] [0:1.3851839348353458e-05] [0.0023871477939624067:0.023764650150589445] [7.0421600918603323e-07:6.8422175519132638e-05] [0.00028189760683341238:0.0035623193225987537] [2.6826819410525599e-06:3.2124053674879075e-05] [0:3.2397067403914557e-05] [0:8.8148068580431106e-06] [4.0325632526021314e-06:0.00017726177431823446] [2.8389052078161296e-07:1.7295630779499932e-05] [4.0325632526021314e-06:0.00017726177431823446] [8.04288810491417e-07:9.8518433176657448e-05] [0.04572338037324411:0.34048455703737401] [0:5.3723738639068972e-07] [0:5.3753834274409581e-06] [0:6.4840965753949158e-06] [0:7.8707378612096116e-08] [0:0.0010235333659175943] [0:5.315096960537594e-05] none [1.3824339935003976e-05:9.419926315349121e-05] [2.6826819410525599e-06:3.2124053674879075e-05] [2.0162816263010606e-06:0.00010354455711364132] [0.007496410452886763:0.4096323538834955] [0:1.788150586525728e-05] [8.7165482227228387e-05:0.00095481286766581819] [0:5.1363081845818789e-07] [0:0.0011076617356213629] [0:1.2968193150789832e-05] [0:8.6883663206947282e-08] [0:8.2251854727502888e-08] [0:6.5313341384331121e-06] [0:8.5605136409697986e-08] [2.6826819410525599e-06:3.2124053674879075e-05] [0:4.4894216323669036e-06] [0:3.2397067403914557e-05] [0:1.35797916984861e-06] [0:8.4152684704253409e-06] [0:2.3297039957642034e-07] [0:7.3109526136970967e-05] [0:4.936059242476328e-05] [0:0.00017452741500678071] [2.0162816263010606e-06:0.00010354455711364132] [4.8956149896403237e-07:2.5397617409594222e-05] [0:7.3109526136970967e-05] [0:0.00081455483758413529] [0:1.954484870802891e-07] [0.0028236267556430521:0.02113093887718356] [0:0.00013616376499892626] [3.5210800459301556e-07:3.9724256446817579e-05] [0.061937628067689474:0.4676670031669482] [3.5210800459301556e-07:3.9681496213828533e-05] [7.0421600918603323e-07:6.8422175519132638e-05] [0:0.00020777759022530171] [0:6.78989584924305e-07] [0:5.8022228614553138e-05] none [0:1.8166448539524545e-05] [3.5210800459301556e-07:3.9724256446817579e-05] [0:2.3297039957642034e-07] [1.0409249090666741e-05:5.3193729838364769e-05] [3.5210800459301556e-07:3.9724256446817579e-05] [4.0325632526021314e-06:0.00017726177431823446] [0:2.687691713720479e-06] [8.9080133911087508e-05:0.00099416363805643706] [0.0060425497370727912:0.12653942341629965] [0.0667111384263918:0.35228462654443171] [3.5210800459301556e-07:3.9724256446817579e-05] [0:3.0103922526988082e-05] [5.8981036330836956e-06:5.315096960537594e-05] [0.0022204659655388967:0.021725658934899774] [0:0.0010235333659175943] [0:1.8013995553032284e-05] [0:1.4223995156801466e-05] [8.097475544599607e-05:0.00086961866433069707] [0.0021807992144312264:0.024706471458987866] [2.0162816263010606e-06:0.00010354455711364132] [2.1828293286770326e-08:3.4269304927482348e-06] [0:1.4257595145360825e-05] [1.6085776209828319e-06:0.00014279859707287578] [0.00010325424919928528:0.00085327014542861267] [0:1.0450233408263901e-07] [0.0074167464742295993:0.3242246681246499] [0:0.00073452954339348899] [0:2.687691713720479e-06] [0:1.2472069288386255e-05] [0.0022550540255539221:0.023506861143561382] [3.6111051236703712e-06:6.8355913626004256e-05] [0.00026579794114826464:0.0035128695874288734] [2.7033174170229546e-06:3.001239277019749e-05] [0:3.2481073142322063e-05] [0:7.9367713653367085e-06] [1.1156543748998802e-05:0.00015850648825967742] [2.8954669451074919e-07:1.8056546384424587e-05] [1.11370449833437e-05:0.00015850648825967742] [6.2000167756365676e-06:0.00010158234713812583] [0.046037390679287353:0.33098751638174684] [0:5.2682463784985991e-07] [0:4.2410088102891187e-06] [0:9.4374769141872593e-06] [0:7.8446405739451928e-08] [0:0.0010093149093683134] [0:5.315096960537594e-05] none [1.2665376029387654e-05:9.4148583831250577e-05] [2.7033174170229546e-06:3.001239277019749e-05] [5.7599524934541734e-06:0.00010322566495887459] [0.0082762734449523274:0.41730054238091085] [0:2.0110540191503225e-05] [8.2342145753609654e-05:0.00094445545615361528] [0:5.3344141019626963e-07] [0:0.0011083104831264576] [0:1.147870111101863e-05] [0:9.2614080646212762e-08] [0:1.2415358845610962e-07] [0:7.6436406383301161e-06] [0:1.2415358845610962e-07] [2.7033174170229546e-06:3.001239277019749e-05] [0:5.4755969436972963e-06] [0:3.2481073142322063e-05] [0:1.2244709713083686e-06] [0:7.9873595917811139e-06] [0:2.1335555253576055e-07] [0:7.209392209773667e-05] [0:5.1712817635294101e-05] [0:0.00019501327785199319] [5.7648420965895304e-06:0.00011200497695751115] [5.4049132701729349e-07:3.6113092768849119e-05] [0:7.209392209773667e-05] [0:0.0011612257440815359] [0:1.9595528586775665e-07] [0.0026609713857130781:0.022698380773896222] [0:0.0001357122819292518] [1.8055525618351926e-06:3.9173586774239243e-05] [0.05846795957331296:0.461709015640346] [1.8055525618351926e-06:3.9173586774239243e-05] [3.6111051236703712e-06:6.8355913626004256e-05] [0:0.00019823848470851215] [0:6.1223548565418654e-07] [0:6.1117144425344152e-05] none [0:1.9625689142651693e-05] [1.8055525618351926e-06:3.9173586774239243e-05] [0:1.0667777626788044e-07] [9.9974092014401065e-06:5.3211922552171317e-05] [1.8055525618351926e-06:3.9173586774239243e-05] [1.11370449833437e-05:0.00015850648825967742] [0:2.1205044051445594e-06] [9.21675803568821e-05:0.00098590401792589852] [0.0060425497370727912:0.12653942341629965] [0.0667111384263918:0.35228462654443171] [1.8055525618351926e-06:3.9173586774239243e-05] [0:2.7766679967022143e-05] [5.5717297330979845e-06:5.315096960537594e-05] [0.0025608401814553646:0.02112193591118848] [0:0.0010093149093683134] [0:1.9545863562176076e-05] [0:1.3557842738573842e-05] [9.3465652116705728e-05:0.00084545328407324759] [0.0022563839771383388:0.024501207394596838] [5.7550628903187987e-06:0.00010322566495887459] [2.2021370434818909e-08:3.7834392891210636e-06] [0:1.3631593469699343e-05] [1.2400033551273135e-05:0.00013979195423828217] [9.7306275350834262e-05:0.00089926703299974685] [0:9.8816188813161737e-08] [0.0069752557934279098:0.30055583380285922] [0:0.00082740508216470313] [0:2.1205044051445594e-06] [0:1.1615274749570498e-05] [0.0025408172143190841:0.023311563572744259] [0:6.805872413489215e-05] [2.3317117302983283e-05:0.0035685965674343068] [2.6714969760691931e-06:3.2439969811489063e-05] [0:3.8389129251102721e-05] [0:1.9662041919003312e-05] [1.0306319775440252e-05:0.00018347018041610616] [0:1.8281753301577543e-05] [1.0288306982357637e-05:0.00018347018041610616] [6.1892050767432784e-06:0.00010017749341843228] [0.039061685972871053:0.32494746129602076] [0:5.0452199907039412e-07] [0:5.1286112269236972e-06] [0:1.0477763158224969e-05] [0:7.8832143158425208e-08] [0:0.0010111349072124166] [0:5.2014560896656629e-05] none [1.1588976149003549e-05:9.3931651610441324e-05] [2.6714969760691931e-06:3.2439969811489063e-05] [5.7499081864381681e-06:0.00011376335480209394] [0.00026375057982404066:0.38427646694916179] [0:3.8389129251102721e-05] [9.4105309432696759e-05:0.0009366088170296036] [0:3.1478333491355578e-06] [0:0.0010833588291561606] [0:1.2590807328261616e-05] [0:1.6385034932502774e-07] [0:5.7239572638035292e-07] [0:7.6261886859580437e-06] [0:5.7239572638035292e-07] [2.6714969760691931e-06:3.2439969811489063e-05] [0:5.1626409395875629e-06] [0:3.193402612327515e-05] [0:7.0026880061120087e-07] [0:7.7015691188364079e-06] [0:2.0398988095457165e-07] [0:7.2223921943744048e-05] [0:4.9429076786162976e-05] [0:0.00024798518877354052] [5.7547892629971108e-06:0.00011376335480209394] [0:3.6563506603155031e-05] [0:7.2223921943744048e-05] [0:0.0011608742635417957] [0:1.9265500220623048e-07] [0.0025311205631779179:0.022028643734891582] [0:0.00013637960766407558] [0:4.1185914261261268e-05] [0.039061685972871053:0.47952775273251075] [0:4.1185914261261268e-05] [0:6.805872413489215e-05] [0:0.00017422912124355732] [0:3.1478333491355578e-06] [0:6.1098645449568349e-05] none [0:1.958786984535586e-05] [0:4.1185914261261268e-05] [0:2.0398988095457165e-07] [9.7301517249712167e-06:5.315096960537594e-05] [0:4.1185914261261268e-05] [1.0288306982357637e-05:0.00018347018041610616] [0:2.5643056134618486e-06] [9.2214388471496204e-05:0.00087296402484873055] [0.0060425497370727912:0.12653942341629965] [0.0667111384263918:0.35228462654443171] [0:4.1185914261261268e-05] [0:2.6001770380265769e-05] [6.2746211037056928e-06:5.315096960537594e-05] [0.0027414133125396038:0.020522415633981647] [0:0.0010111349072124166] [0:1.9508198091191149e-05] [0:1.3432183526542895e-05] [0.00010158346851746062:0.00082665565978912951] [0.0022575299015447983:0.022048378352339131] [5.7450271098792075e-06:0.00011376335480209394] [2.0807942989385954e-08:5.2750115964808128e-06] [0:1.3555982453054838e-05] [7.7668173547699055e-06:0.00014753628444007027] [9.2557896634708892e-05:0.00087273331475988156] [0:1.6906965322693681e-07] [0.00026375057982404066:0.28004172387840087] [0:0.00068680245348262539] [0:2.5643056134618486e-06] [-5.315096960537594e-05:0.00014444560261977991] [-2.6690947287589896e-05:5.8969061582319733e-05] [-2.3985523397674571e-05:0.00017596330012697564] [-2.9082380854423113e-05:8.7064973793053184e-05] [-2.5077453227422302e-05:7.2963430958008387e-05] [-5.315096960537594e-05:0.0007232016354503149] [-5.315096960537594e-05:0.00011777872213612832] [-2.5853020713677177e-05:9.1563071289997279e-05] [-3.2710779005724101e-05:0.00039778387357798471] [-2.5877591001168665e-05:9.2148991892812649e-05] [-2.3523033068092581e-05:0.00014674301757007903] [-2.7629535817948414e-05:7.5410139676503922e-05] [-5.315096960537594e-05:0.00039797212327593565] [-5.315096960537594e-05:4.2586328726190828e-06] [-5.315096960537594e-05:0.0014066973013490617] [-5.315096960537594e-05:6.0515352242225108e-06] [-5.315096960537594e-05:0.0011511924312637041] [-5.315096960537594e-05:0] [-4.7859781538988437e-06:4.6697581843090937e-05] [-2.5077453227422302e-05:7.3036570414687527e-05] [-2.5877591001168665e-05:9.2148991892812649e-05] [-3.1077169959301733e-05:8.8204138830955126e-05] [-5.315096960537594e-05:0.00045230746745603649] [-2.750064843730843e-05:6.5283750979245673e-05] [-5.315096960537594e-05:0.00066436424864051971] [-5.315096960537594e-05:0.001148408087281495] [-5.315096960537594e-05:0.0014753236490517819] [-5.315096960537594e-05:0.00010653442520492007] [-5.315096960537594e-05:5.3663183213503109e-05] [-5.315096960537594e-05:0.0036567798898420015] [-5.315096960537594e-05:5.3663183213503109e-05] [-2.5234843116655917e-05:7.3043064941435298e-05] [-5.1023961054959534e-05:0.0010385096402633733] [-5.315096960537594e-05:0.00040834908338850689] [-5.315096960537594e-05:0.00062845949688724776] [-5.1023961054959534e-05:0.0010688531087175192] [-5.315096960537594e-05:0.00027042963027822472] [-5.315096960537594e-05:0.0011511924312637041] [-5.315096960537594e-05:0.00040809696311822839] [-5.315096960537594e-05:4.6163337273987833e-06] [-2.5853020713677177e-05:9.1563071289997279e-05] [-3.2710779005724101e-05:0.00048983930440420101] [-5.315096960537594e-05:0.00057910639056087717] [-5.315096960537594e-05:0.00094821935910737224] [-5.315096960537594e-05:0.00014508496615543329] [-2.1456024801796917e-05:3.8757827064142597e-05] [-5.315096960537594e-05:0] [-2.3985523397674571e-05:0.00017596330012697564] [-2.7629535817948414e-05:0.00010972851772884622] [-2.3966493794745823e-05:0.00017596330012697564] [-2.3966493794745823e-05:0.00017596330012697564] [-5.315096960537594e-05:0.00020222384366769185] [-5.315096960537594e-05:0.0012917368517508276] [-5.315096960537594e-05:0.00045202925768614706] [-5.315096960537594e-05:0.0005459418383417093] [-2.3966493794745823e-05:0.00017596330012697564] [-5.315096960537594e-05:0.00027042963027822472] [-6.2739314669899229e-06:7.286688874036016e-06] [-2.3966493794745823e-05:0.00017596330012697564] [-2.5877591001168665e-05:9.2148991892812649e-05] [-5.315096960537594e-05:4.2586328726190828e-06] [-2.3036072036070564e-05:5.5686666422693731e-05] [-2.3966493794745823e-05:0.00017596330012697564] [-5.315096960537594e-05:0.00030661394165609112] [-8.786012334932526e-06:6.586591011613242e-06] [-1.735446605468453e-05:4.2521260661826476e-05] [-5.315096960537594e-05:0.0011511924312637041] [-5.315096960537594e-05:0.00054222648875742758] [-5.315096960537594e-05:0.00054260953694321211] [-1.8160322618779147e-05:4.840166230526439e-05] [-2.1489859280208996e-05:5.1346708549127769e-05] [-2.5877591001168665e-05:9.2148991892812649e-05] [-2.3402840959677133e-05:0.00011918174806033367] [-5.315096960537594e-05:0.00054632737587394697] [-2.3523033068092581e-05:0.00014674301757007903] [-2.3340390883222105e-05:4.5565605800798267e-05] [-5.315096960537594e-05:0.00017902281602764355] [-3.1077169959301733e-05:6.2374949170348814e-05] [-5.315096960537594e-05:0.00040809696311822839] [-5.315096960537594e-05:4.2586328726190828e-06] [-5.315096960537594e-05:6.2914679467930882e-05] [-2.2622962783223021e-05:5.8229243779849579e-05] [-3.0881699601264674e-05:0.0011776324498234273] [-2.7198501932679122e-05:0.00010827931517539965] [-2.7259874829697671e-05:0.00010599591532799529] [-5.315096960537594e-05:0.00071623132880047644] [-5.315096960537594e-05:6.4444961168824851e-05] [-2.9687640598070238e-05:0.00028034852212062878] [-3.4121745254681542e-05:0.00045238922041764007] [-2.972474572692809e-05:0.0002801965059365004] [-3.0840532087265547e-05:0.00078422662539455175] [-2.3791983507581673e-05:6.2741546154227164e-05] [-5.315096960537594e-05:0.00062255130416599377] [-5.315096960537594e-05:-1.37063477970059e-06] [-5.315096960537594e-05:0.0034907092869178508] [-5.315096960537594e-05:-3.637525954335377e-06] [-5.315096960537594e-05:0.00072812349885988537] [-5.315096960537594e-05:0] [-7.804435247513173e-06:4.8725750329940939e-05] [-2.7259874829697671e-05:0.00010528369439866827] [-2.972474572692809e-05:0.00023560504606060304] [-3.1432019270364398e-05:0.00010819777956829865] [-5.315096960537594e-05:0.00057020214569019235] [-2.3660929298983303e-05:6.181050811241539e-05] [-5.315096960537594e-05:0.00054616387963368393] [-5.315096960537594e-05:0.0010255174484869022] [-5.315096960537594e-05:0.0036587215389768499] [-5.315096960537594e-05:5.9344114369383009e-05] [-5.315096960537594e-05:7.3339190431292978e-05] [-5.315096960537594e-05:0.00051210009449970725] [-5.315096960537594e-05:7.3339190431292978e-05] [-2.7310358231274971e-05:0.00010599591532799529] [-5.1023961054959534e-05:0.0024290586887116728] [-5.315096960537594e-05:0.00033306567414142363] [-5.315096960537594e-05:0.00062602877083822077] [-5.1023961054959534e-05:0.0024290586887116728] [-5.315096960537594e-05:0.00055930272070537528] [-5.315096960537594e-05:0.00072812349885988537] [-5.315096960537594e-05:0.00046601667073109857] [-5.315096960537594e-05:1.3706347797005928e-05] [-2.9687640598070238e-05:0.00023573469662222174] [-3.4121745254681542e-05:0.00057768512327488334] [-5.315096960537594e-05:0.00064025669744818044] [-5.315096960537594e-05:0.0006629870081683464] [-5.315096960537594e-05:0.00024648400095348002] [-2.1456024801796917e-05:3.0417179559051642e-05] [-5.315096960537594e-05:0] [-3.0881699601264674e-05:0.0010010043014749301] [-2.3791983507581673e-05:7.1239566932409479e-05] [-3.0854368037121544e-05:0.001000818696460402] [-3.0858934097386952e-05:0.0011774148266545722] [-5.315096960537594e-05:8.6766586772673855e-05] [-5.315096960537594e-05:0.00051134175674905883] [-5.315096960537594e-05:0.00055407329728932703] [-5.315096960537594e-05:0.000962733236720956] [-3.0845222907871984e-05:0.001000818696460402] [-5.315096960537594e-05:0.00055930272070537528] [-6.1449376895716694e-06:9.9570730877567852e-06] [-3.0858934097386952e-05:0.001000818696460402] [-2.972474572692809e-05:0.0002801965059365004] [-5.315096960537594e-05:-1.37063477970059e-06] [-2.4061409360885076e-05:4.4065990607168349e-05] [-3.0845222907871984e-05:0.001000818696460402] [-5.315096960537594e-05:0.00027696386434761635] [-1.0847530818035155e-05:1.0117883421974999e-05] [-1.8273164347716794e-05:4.3290487434377407e-05] [-5.315096960537594e-05:0.00072812349885988537] [-5.315096960537594e-05:0.00098126176343995338] [-5.315096960537594e-05:0.00066550851329459258] [-1.9018091588266393e-05:4.578998481271642e-05] [-2.310968674653392e-05:4.3939554421239862e-05] [-2.972474572692809e-05:0.00023560504606060304] [-2.614473909136402e-05:0.0001109105990984637] [-5.315096960537594e-05:0.00066983795645516545] [-3.0840532087265547e-05:0.00092345911875388298] [-2.3340390883222105e-05:3.8209054742420076e-05] [-5.315096960537594e-05:0.00014956148322804055] [-3.1432019270364398e-05:0.00010819777956829865] [-5.315096960537594e-05:0.00089932478909387212] [-5.315096960537594e-05:-1.37063477970059e-06] [-5.315096960537594e-05:6.2914679467930882e-05] [-2.708684059409936e-05:7.0516757267191201e-05] [-3.0375584590808144e-05:0.0013612724505829728] [-2.3489615305495593e-05:0.00010209346197749738] [-2.5105277717677625e-05:8.5331910328043442e-05] [-5.315096960537594e-05:0.00047290234424666864] [-5.315096960537594e-05:5.2980782709836544e-05] [-2.9920302925594177e-05:0.00033337380282071077] [-3.7545934340712534e-05:0.00044672123000810351] [-2.9976693777255933e-05:0.00033316778424201323] [-3.0318335426004545e-05:0.000724343801437291] [-2.4940362488687685e-05:5.6290134828861717e-05] [-5.315096960537594e-05:0.00043887167751296806] [-5.315096960537594e-05:2.7412695594011825e-06] [-5.315096960537594e-05:0.0024609917071290719] [-5.315096960537594e-05:1.6968871075636531e-06] [-5.315096960537594e-05:0.00097957657805404757] [-5.315096960537594e-05:0] [-8.210082346041196e-06:4.8852501991188417e-05] [-2.5105277717677625e-05:8.5331910328043442e-05] [-2.9976693777255933e-05:0.00022459518567997393] [-2.7877545302154174e-05:0.00011794406575805037] [-5.315096960537594e-05:0.00040809696311822839] [-2.8372857137239381e-05:8.1129551699907847e-05] [-5.315096960537594e-05:0.00076596291637460697] [-5.315096960537594e-05:0.00073770627336832578] [-5.315096960537594e-05:0.004951084909264384] [-5.315096960537594e-05:7.1245998031209244e-05] [-5.315096960537594e-05:8.2772523349498097e-05] [-5.315096960537594e-05:0.0047762296205455818] [-5.315096960537594e-05:8.2772523349498097e-05] [-2.5167250990492575e-05:8.5331910328043442e-05] [-5.1023961054959534e-05:0.0034789870987692009] [-5.315096960537594e-05:0.00047290234424666864] [-5.315096960537594e-05:0.00053502419648485003] [-5.1023961054959534e-05:0.0034789870987692009] [-5.315096960537594e-05:0.00054316252357107086] [-5.315096960537594e-05:0.00097957657805404757] [-5.315096960537594e-05:0.00040809696311822839] [-5.315096960537594e-05:3.884994858604086e-05] [-2.9920302925594177e-05:0.00022473817060774138] [-3.7545934340712534e-05:0.00087850721338741608] [-5.315096960537594e-05:0.00053131593427004531] [-5.315096960537594e-05:0.0015885304171745899] [-5.315096960537594e-05:0.00012980181137404309] [-2.1456024801796917e-05:5.2291445541106841e-05] [-5.315096960537594e-05:2.589996572402724e-05] [-3.0375584590808144e-05:0.00093813991733878582] [-2.4799869463429972e-05:0.00010944831131402225] [-3.0375584590808144e-05:0.00093776774604354578] [-3.0375584590808144e-05:0.0013612724505829728] [-5.315096960537594e-05:0.00010648194603818761] [-5.315096960537594e-05:0.0011035854539061943] [-5.315096960537594e-05:0.00066813725700905473] [-5.315096960537594e-05:0.0012537356919838998] [-3.0375584590808144e-05:0.00093813991733878582] [-5.315096960537594e-05:0.00054316252357107086] [-7.6625334947374028e-06:1.0915961077410394e-05] [-3.0375584590808144e-05:0.00093813991733878582] [-2.9976693777255933e-05:0.00033316778424201323] [-5.315096960537594e-05:2.7412695594011854e-06] [-2.3036072036070564e-05:5.8394555003635366e-05] [-3.0375584590808144e-05:0.00093813991733878582] [-5.315096960537594e-05:0.00028306526026138692] [-8.2382575524926908e-06:9.656006905665725e-06] [-2.1373134574787834e-05:5.4029539413905165e-05] [-5.315096960537594e-05:0.00097957657805404757] [-5.315096960537594e-05:0.00124658612167424] [-5.315096960537594e-05:0.00060874231333400426] [-2.2737167477310668e-05:5.4173054608209018e-05] [-2.2100405199630178e-05:5.6824427874826997e-05] [-2.9976693777255933e-05:0.00022459518567997393] [-2.4346260271572666e-05:0.00011383567619126492] [-5.315096960537594e-05:0.00061231709848883116] [-3.0318335426004545e-05:0.001053226192722013] [-2.3340390883222105e-05:5.9544450036424018e-05] [-5.315096960537594e-05:0.00018741318181814083] [-2.7877545302154174e-05:0.00011794406575805037] [-5.315096960537594e-05:0.00066599157175544106] [-5.315096960537594e-05:2.7412695594011854e-06] [-5.315096960537594e-05:8.0890769059740742e-05] [-2.4025182387433706e-05:6.2354551933299364e-05] [-3.0586621761824984e-05:0.00026651876058951605] [-2.5774612838500244e-05:0.00010519904776141874] [-2.5989312490278206e-05:9.2226351937932391e-05] [-5.315096960537594e-05:0.00056172588356967479] [-5.315096960537594e-05:4.4439557391958008e-05] [-2.9582584136241617e-05:0.0002455089760754966] [-3.6330590521588727e-05:0.00041025036188219877] [-2.961650327463653e-05:0.00024702096293231562] [-3.1052927888542328e-05:0.00011481078029974106] [-2.6965690396073037e-05:7.3875841530737042e-05] [-5.315096960537594e-05:0.00038973211433278765] [-5.315096960537594e-05:0] [-5.315096960537594e-05:0.0061837908731415172] [-5.315096960537594e-05:7.7028187792752067e-06] [-5.315096960537594e-05:0.0010104975247723987] [-5.315096960537594e-05:0] [-8.1966057157269017e-06:4.8790424023047284e-05] [-2.5989312490278206e-05:9.2385477286942815e-05] [-2.961650327463653e-05:0.00010539819401027124] [-3.0789066457931978e-05:0.00012157922737084265] [-5.315096960537594e-05:0.00040691903096456723] [-2.449276501447782e-05:6.5064044236541594e-05] [-5.315096960537594e-05:0.00062313919322830693] [-5.315096960537594e-05:0.001135862299908824] [-5.315096960537594e-05:0.0061837908731415172] [-5.315096960537594e-05:7.2108296535099083e-05] [-5.315096960537594e-05:3.1202631155539484e-05] [-5.315096960537594e-05:0.0010715041557697947] [-5.315096960537594e-05:7.3503884298780134e-05] [-2.5989312490278206e-05:9.3348300956680815e-05] [-5.1023961054959534e-05:0.0031562490985712266] [-5.315096960537594e-05:0.0002892412433333413] [-5.315096960537594e-05:0.00097530040992121363] [-5.1023961054959534e-05:0.0034282065329645415] [-5.315096960537594e-05:0.00027445879681184301] [-5.315096960537594e-05:0.0010104975247723987] [-5.315096960537594e-05:0.00040761944882692004] [-5.315096960537594e-05:0.00019029806134516299] [-2.9582584136241617e-05:0.00010464220058186174] [-3.6330590521588727e-05:0.00052693987968252022] [-5.315096960537594e-05:0.00097957657805404757] [-5.315096960537594e-05:0.00065079279750001814] [-5.315096960537594e-05:0.00025690415993034899] [-2.1456024801796917e-05:5.0635238924649649e-05] [-5.315096960537594e-05:3.171634355752716e-05] [-3.0586621761824984e-05:0.00011514709283887164] [-2.6965690396073037e-05:8.091708881159466e-05] [-3.0555188439474665e-05:0.0001150834912977999] [-3.0559128519116461e-05:0.00026651876058951605] [-5.315096960537594e-05:0.00015107234901050144] [-5.315096960537594e-05:0.00045220004915368659] [-5.315096960537594e-05:0.00058286269036084549] [-5.315096960537594e-05:0.0012356637213285476] [-3.0563065472951386e-05:0.00011514709283887164] [-5.315096960537594e-05:0.00027445879681184301] [-8.1143793841401623e-06:1.1702347201173335e-05] [-3.0559128519116461e-05:0.00011514709283887164] [-2.961650327463653e-05:0.00024702096293231562] [-5.315096960537594e-05:0] [-2.0093491403421341e-05:5.3658283391436125e-05] [-3.0563065472951386e-05:0.00011514709283887164] [-5.315096960537594e-05:0.00029085983767706484] [-1.1648994842011075e-05:9.9500198807886365e-06] [-2.1116843115911416e-05:5.2456424787740906e-05] [-5.315096960537594e-05:0.0010104975247723987] [-5.315096960537594e-05:0.001234655122263789] [-5.315096960537594e-05:0.00073685596806982744] [-2.2471296737824937e-05:5.6188276360600404e-05] [-2.0065397381019212e-05:5.306157413790648e-05] [-2.961650327463653e-05:0.00010539819401027124] [-3.0202915623734069e-05:8.9725743317332801e-05] [-5.315096960537594e-05:0.00074117043359308373] [-3.1052927888542328e-05:0.00026584613551125519] [-2.3340390883222105e-05:5.4386045643780731e-05] [-5.315096960537594e-05:0.00018227313791044882] [-3.0789066457931978e-05:0.00012157922737084265] [-5.315096960537594e-05:0.00054268861530211237] [-5.315096960537594e-05:0] [-5.315096960537594e-05:0.00012527287769198542] [-2.3051528343473325e-05:6.4568419886518928e-05] [-3.2375364973567177e-05:0.00013922154936539977] [-2.5094752539775467e-05:0.001072587395937231] [-3.1119624880661306e-05:9.0386622535185482e-05] [-5.315096960537594e-05:0.00037705752296558271] [-5.315096960537594e-05:5.7947731088883544e-05] [-2.9042423564280788e-05:0.00014112401503243668] [-4.7217500237033347e-05:0.0004663427741605845] [-2.9082148468621102e-05:0.00014102739132467723] [-3.0197875882850954e-05:0.00015999856685177554] [-3.0818057390609845e-05:0.0002103519092384529] [-5.315096960537594e-05:0.00047085199080818473] [-5.315096960537594e-05:-3.1276951828128524e-06] [-5.315096960537594e-05:0.0019975385154616405] [-5.315096960537594e-05:3.0292286560104718e-06] [-5.315096960537594e-05:0.00083089177776125855] [-5.315096960537594e-05:0] [-8.2217885084233191e-06:4.8860146057671908e-05] [-3.1119624880661306e-05:9.0386622535185482e-05] [-2.9082148468621102e-05:0.00014102739132467723] [-2.478098542773418e-05:0.0040142838249218977] [-5.315096960537594e-05:0.00033218599323859503] [-2.3672965256475982e-05:7.4452528892791946e-05] [-5.315096960537594e-05:0.00063377520197645091] [-5.315096960537594e-05:0.0010521378060580511] [-5.315096960537594e-05:0.0040201887866915384] [-5.315096960537594e-05:9.3299975023880348e-05] [-5.315096960537594e-05:4.7838854357799911e-05] [-5.315096960537594e-05:0.0035084196086602928] [-5.315096960537594e-05:4.7838854357799911e-05] [-3.1144485639110813e-05:9.1633011217776865e-05] [-5.1055710931401834e-05:0.0027647459547918592] [-5.315096960537594e-05:0.00030647943190180866] [-5.315096960537594e-05:0.0011540976899752809] [-5.1055710931401834e-05:0.0031754655751177535] [-5.315096960537594e-05:0.00059517898856743822] [-5.315096960537594e-05:0.00083089177776125855] [-5.315096960537594e-05:0.00049894071494402544] [-5.315096960537594e-05:-1.0058977446681514e-05] [-2.9042423564280788e-05:0.00014112401503243668] [-4.7217500237033347e-05:0.00079763649930703995] [-5.315096960537594e-05:0.00097957657805404757] [-5.315096960537594e-05:0.001005136888913955] [-5.315096960537594e-05:0.00014884990882936972] [-2.1456024801796917e-05:4.0365178021309009e-05] [-5.315096960537594e-05:0] [-3.2375364973567177e-05:9.5646770617573645e-05] [-2.2830564876076117e-05:0.0002103519092384529] [-3.2375364973567177e-05:9.5570421587817656e-05] [-3.2375364973567177e-05:0.00014125887837983768] [-5.315096960537594e-05:0.00018540385898413843] [-5.315096960537594e-05:0.00071597426872540323] [-5.315096960537594e-05:0.000614652054371843] [-5.315096960537594e-05:0.00099984309865551349] [-3.2375364973567177e-05:9.5570421587817656e-05] [-5.315096960537594e-05:0.00059517898856743822] [-8.1068928034100034e-06:1.2695856524159708e-05] [-3.2375364973567177e-05:9.5570421587817656e-05] [-2.9082148468621102e-05:0.00014102739132467723] [-2.0155914044333911e-05:6.3167583187548289e-05] [-3.2375364973567177e-05:9.5570421587817656e-05] [-5.315096960537594e-05:0.00035973151171476341] [-1.032460024512611e-05:1.0467165844609054e-05] [-1.7343689808646737e-05:5.6721379011471846e-05] [-5.315096960537594e-05:0.00083089177776125855] [-5.315096960537594e-05:0.00099313308324193612] [-5.315096960537594e-05:0.00065217300442832861] [-1.8067187008853083e-05:5.8792580653282762e-05] [-1.9991913388527047e-05:6.1802986278932238e-05] [-2.9082148468621102e-05:0.00014102739132467723] [-3.9548360388039156e-05:8.7902230328796034e-05] [-5.315096960537594e-05:0.00065503504080132802] [-3.0197875882850954e-05:0.00015999856685177554] [-2.3340390883222105e-05:4.2098533850912182e-05] [-5.315096960537594e-05:0.00015659246777676591] [-2.478098542773418e-05:0.0040142838249218977] [-5.315096960537594e-05:0.0010537439455549898] [-5.315096960537594e-05:-3.1276951828128524e-06]
tree_sizes=2614 2624 2616 2630 2616 2615 2639 2635 2628 2629 2619 2639 2629 2627 2628 2629 2622 2621 2628 2649 2621 2636 2625 2620 2631 2631 2625 2627 2621 2634 2623 2646 2628 2633 2628 2632 2635 2642 2627 2642 2638 2638 2630 2653 2633 2642 2660 2673 2641 2656 2652 2624 2645 2657 2649 2634 2657 2635

Tree=0
num_leaves=31
num_cat=0
split_feature=548 250 8 638 45 110 55 666 443 634 367 298 59 262 508 302 797 694 713 508 662 342 463 342 342 65 400 138 526 59
split_gain=142.377 55.7039 28.3036 22.6039 21.908 20.8886 20.7544 18.9443 18.8443 18.3201 16.6365 15.6171 14.4467 13.0103 12.8298 21.9729 13.0253 14.8842 12.3314 11.6265 12.1645 11.528 11.0891 10.7678 10.7066 10.6769 12.7246 12.5321 10.7993 10.6553
threshold=-1.5634476586444449e-05 0.088886168556943604 7.4094525093678702e-05 -2.0408773850827427e-05 6.26001823039284e-05 3.9217648682460077e-09 3.9196876474351248e-06 4.6213138175533333e-06 0.042504786964921361 2.5711443443496364e-07 1.9125454909779797e-09 1.9912193400914668e-09 2.6692338421156497e-09 5.2586999849745649e-05 -2.9472652457541132e-06 0.20732625987643757 -1.3180174090005169e-05 -1.7671062922981649e-05 3.1592329025962249e-07 1.7325420572368589e-05 -9.0368091788049355e-07 5.1440903648339986e-06 2.3214452134919939e-06 2.7704654903324367e-06 2.6288264601339803e-06 0.044978137163130379 0.00037957630927183081 1.5201566415763664e-08 2.5152774152108928e-06 4.100155527165691e-09
decision_type=2 2 2 2 2 2 2 2 2 2 2 2 2 2 2 2 2 2 2 2 2 2 2 2 2 2 2 2 2 2
left_child=1 4 6 5 8 12 10 -6 -1 11 29 -7 14 -8 15 -3 -16 -18 21 20 -5 -10 23 -14 -15 26 28 -27 -11 -2
right_child=2 3 -4 19 7 9 13 -9 18 25 -12 -13 22 24 16 -17 17 -19 -20 -21 -22 -23 -24 -25 -26 27 -28 -29 -30 -31
leaf_value=-0.08480941563225769 -0.028372831671216132 0.048863574088098105 -0.02767433365217381 0.0041118741003010788 0.057913278270165541 -0.02795682946887379 0.067385132371447748 -0.040924532594194173 -0.026021322826531908 0.048863574088098105 0.044877966376209243 0.043512429401163982 -0.042451129796042014 -0.013673885880289125 -0.05026193886420597 -0.057639504912180943 -0.031793109660426727 0.064650384435025313 -0.049047435187357658 -0.04209037359894742 0.042208370091860514 0.045378814871304421 0.033093719741826254 0.01808954555426158 0.061230718093894909 -0.065907658504054542 0.077049565126184563 0.033583719180060367 -0.044076906896904307 0.048863574088098119
leaf_count=91 71 42 55 143 38 135 292 34 182 28 114 35 66 38 253 32 52 20 282 27 165 23 65 47 32 20 61 30 20 21
internal_value=0 -0.267935 0.784221 -0.0303722 -0.733598 -0.190466 0.906715 0.261955 -0.862964 0.194188 0.419462 -0.251878 -0.414905 1.17589 -0.622852 0.0980965 -0.792581 -0.0708714 -0.712734 0.39307 0.495992 -0.35227 0.0397592 -0.331953 0.432964 0.654843 0.982159 -0.088861 0.23454 -0.1985
internal_count=2514 1891 623 1241 650 906 568 72 578 329 206 170 577 362 399 74 325 72 487 335 308 205 178 113 70 159 109 50 48 92
shrinkage=0.05


Tree=1
num_leaves=31
num_cat=0
split_feature=548 250 262 756 23 334 275 822 655 121 382 633 832 642 180 442 72 642 386 26 786 657 886 668 749 823 86 886 102 590
split_gain=128.588 50.3106 23.72 23.0227 19.9824 15.9784 15.7223 17.4647 16.1825 14.3116 14.0489 14.0363 13.5331 12.8509 12.8471 18.7809 12.8184 12.5683 12.1491 11.8286 11.6658 19.8334 12.8762 11.5709 11.0615 10.9703 10.7127 10.7031 14.0243 12.5704
threshold=-1.5634476586444449e-05 0.088886168556943604 5.2586999849745649e-05 1.1767515922930652e-06 0.041848067402440813 0.089077447852409855 0.12689014685913225 -4.1057553041680846e-06 -1.7231400450132964e-08 1.1789721736970724e-06 4.1177281641953518e-09 -1.566231123387214e-06 2.292093671791809e-05 1.1799336861904111e-08 0.12092148632114104 3.5808993786839503e-05 1.0453542327007075e-05 -1.3518528116964195e-07 0.21326722977764517 2.4742306221210277e-08 1.166228185363161e-05 -1.9872686532073813e-06 -8.1034425910324287e-07 6.693536723094987e-06 5.0423886233829192e-06 -1.1589705602182543e-05 0.004832808490532115 1.6848090557065149e-06 2.0863618757282272e-05 -1.9985568808667233e-05
decision_type=2 2 2 2 2 2 2 2 2 2 2 2 2 2 2 2 2 2 2 2 2 2 2 2 2 2 2 2 2 2
left_child=1 4 5 6 -1 25 7 -3 13 19 11 -4 23 -8 24 16 -16 -9 -17 20 21 22 -6 27 -5 -2 -27 29 -29 -10
right_child=2 3 10 14 9 -7 8 17 12 -11 -12 -13 -14 -15 15 18 -18 -19 -20 -21 -22 -23 -24 -25 -26 26 -28 28 -30 -31
leaf_value=-0.086134863447828336 0.040114579687487419 -0.083815948640879601 0.048499479691392622 -0.060421662303472415 0.055527999701746059 0.055935119593333277 -0.054015044830738317 -0.076167842989463219 0.011454826111206105 -0.083113630507559266 0.073315165307041838 -0.028249481753623969 -0.02437525002701527 0.027922198295176705 0.043414097381870131 -0.012500909779521417 -0.043753022166095834 0.0071653610445688619 -0.066324028045293096 0.011620372288584969 -0.0580478492086553 -0.040744862257244469 -0.011205660319937812 0.063898958969621861 0.0085006797561725782 0.025683201009519888 -0.071480186740789792 -0.040104687302913992 0.054706316613177514 0.053875465192218058
leaf_count=68 56 30 28 98 35 380 49 20 135 45 21 95 47 28 80 241 20 153 49 71 114 214 103 75 28 20 23 49 20 119
internal_value=0 -0.254674 0.74558 -0.0288664 -0.697377 0.94528 0.190598 -0.268773 0.364893 -0.582734 0.0574109 -0.199447 0.502594 -0.460648 -0.343627 -0.171837 0.537871 -0.0390487 -0.425905 -0.496029 -0.610762 -0.437356 0.127687 0.614626 -0.889833 0.256558 -0.490453 0.455478 -0.223362 0.633845
internal_count=2514 1891 623 1241 650 479 725 203 522 582 144 123 445 77 516 390 100 173 290 537 466 352 138 398 126 99 43 323 69 254
shrinkage=0.05


Tree=2
num_leaves=31
num_cat=0
split_feature=558 82 134 398 55 638 10 546 669 553 333 443 555 685 546 510 865 586 166 836 31 349 440 553 82 575 264 477 844 139
split_gain=117.734 51.3276 22.9396 20.1425 19.972 17.2126 15.9417 15.9048 15.5385 13.5256 17.5179 13.3589 13.482 13.0183 14.5478 17.2712 13.7275 13.1892 13.1415 12.1887 12.1419 12.558 15.1505 12.1133 12.982 11.9407 11.9489 11.7776 11.5299 11.1824
threshold=-1.7322287478006513e-05 0.09248216813786965 0.30649096944271031 5.4169185139483913e-05 4.3097233026397983e-06 -2.0534465511488389e-05 8.7287688263111007e-05 -3.2187957579777676e-06 -2.3961928658219526e-06 7.6490589576845018e-07 5.5832759598618505e-09 0.042504786964921361 -1.23033946325109e-06 1.2774651141775336e-06 2.1679324710801507e-06 6.9957716740782959e-06 1.5531205898704206e-06 -4.5655325975455004e-06 0.13521474237396972 3.599912101231579e-06 1.5691818628000607e-08 1.4117344561967234e-08 3.0193231133691271e-05 -2.5187584327436745e-06 0.1070478994153531 1.5354711297125567e-08 0.21840857887728143 7.1004447671802258e-06 1.6362203620663539e-06 5.160645301667418e-06
decision_type=2 2 2 2 2 2 2 2 2 2 2 2 2 2 2 2 2 2 2 2 2 2 2 2 2 2 2 2 2 2
left_child=1 4 3 29 11 6 13 -6 -5 -7 -11 -1 -13 14 17 16 -16 18 -3 -15 21 22 -4 24 -19 26 -14 -23 -8 -2
right_child=2 5 20 8 7 9 28 -9 -10 10 -12 12 25 19 15 -17 -18 23 -20 -21 -22 27 -24 -25 -26 -27 -28 -29 -30 -31
leaf_value=-0.076078778692331317 0.036790364378637211 -0.021756444746480308 0.066683319956719667 -0.070305758680409197 -0.06775964920135745 0.043900284109174438 -0.071466485487747491 0.027724850710383081 0.02133520884338792 0.015351595301144536 -0.079763500999788114 0.0034183921552452309 -0.042855181489865758 0.038047486328128127 0.028468740716451297 -0.069885685257318295 -0.044138821988710775 -0.056647309951518468 0.063319254534078037 -0.023673230498408346 -0.069363534666717894 -0.088465750346358452 -0.011656621981410509 -0.03907488306179599 0.034131189525970954 -0.091480536342609289 0.012260081587321952 0.013959826854209068 0.0048212125821758605 0.066428508772784306
leaf_count=95 283 37 46 23 22 120 61 71 80 105 23 71 333 111 175 24 29 22 30 41 22 21 44 255 47 44 41 22 27 189
internal_value=0 -0.271501 0.64133 0.813699 -0.698467 -0.0177698 -0.148621 0.127398 0.0390428 0.424865 -0.0153305 -0.8354 -0.706884 -0.0610553 -0.186969 0.197222 0.372699 -0.416381 0.355055 0.439423 -0.0196793 0.193524 0.591874 -0.581816 0.131055 -0.843183 -0.731629 -0.681536 -0.942315 0.976524
internal_count=2514 1784 730 575 677 1107 859 93 103 248 128 584 489 771 619 228 204 391 67 152 155 133 90 324 69 418 374 43 88 472
shrinkage=0.05


Tree=3
num_leaves=31
num_cat=0
split_feature=522 82 344 45 628 43 774 742 596 70 214 342 51 502 173 425 278 344 555 657 806 596 843 834 766 523 474 287 191 886
split_gain=107.388 44.0412 21.6718 22.8485 19.4172 18.3371 17.4769 15.9992 15.64 14.8256 18.255 14.6645 12.8674 12.7965 12.0565 11.8312 11.7844 13.2188 12.2527 12.0504 11.777 15.3142 12.8342 16.0406 15.0213 10.6857 10.6649 12.1109 10.7378 12.8942
threshold=-1.6857092145243778e-05 0.095313736184809414 5.3769295446494987e-05 3.8228317720735382e-05 -1.4797447253356482e-05 4.416098957684214e-06 -1.0847798583963397e-05 3.8362085425655212e-06 -1.2492977479156818e-06 0.0074857524346648467 1.1693100708048934e-08 1.3464719258462436e-06 1.127259201020112e-05 0.020963560446551791 1.6697378654345993e-05 8.7245435068217576e-06 1.7871499824304835e-08 6.1731365762489085e-05 -1.1980394549321311e-06 5.1535634433278667e-06 1.5549995078233162e-06 -1.6365178682287215e-06 9.2769717011380336e-09 2.3323349005501545e-05 3.5405963627155213e-05 6.53515798490026e-08 9.0692145459672378e-09 2.9576648875052792e-06 0.12202258470400766 6.4047205197929872e-07
decision_type=2 2 2 2 2 2 2 2 2 2 2 2 2 2 2 2 2 2 2 2 2 2 2 2 2 2 2 2 2 2
left_child=1 4 3 6 13 9 7 15 -4 25 12 -10 -11 -1 16 -2 18 -18 19 -15 22 -22 26 -24 -25 -3 27 -14 -28 -30
right_child=2 5 8 -5 -6 -7 -8 -9 11 10 -12 -13 20 14 -16 -17 17 -19 -20 -21 21 -23 23 24 -26 -27 28 -29 29 -31
leaf_value=-0.076945556098175216 -0.0082557690933962279 0.011650822044008378 0.039920984809231973 0.050330187010567698 0.028894972499070005 -0.051617701870724113 0.059778131141164106 -0.080950478979569626 -0.068350259986753106 -0.063123573875628933 0.059177350813071551 0.008401359929613661 -0.043425280326390703 0.014883861270683195 0.040520508234099133 0.055333209368628816 0.022094975502959177 -0.041883318205661636 -0.049623648553046122 -0.073929150448448833 0.030446690871330086 -0.057953153596311383 0.027375621418924884 -0.048635270185636056 0.038601314165682077 0.064893973664890636 -0.043986901606300442 0.018190853086321908 0.050050930578411992 -0.012758135821594291
leaf_count=71 107 104 47 406 44 65 51 23 46 37 40 49 134 57 20 35 63 59 374 20 24 74 236 61 26 50 33 38 59 61
internal_value=0 -0.26795 0.593792 0.74476 -0.647239 -0.0176455 0.237684 -0.0736664 -0.0894361 0.0470178 -0.0571191 -0.552705 -0.123887 -0.733175 -0.641021 0.160433 -0.694733 -0.161174 -0.842831 -0.141393 -0.0698452 -0.70313 0.0233035 0.292891 -0.425816 0.588902 -0.250229 -0.586079 0.117348 0.378438
internal_count=2514 1750 764 622 708 1042 216 165 142 977 823 95 783 664 593 142 573 122 451 77 746 98 648 323 87 154 325 172 153 120
shrinkage=0.05


Tree=4
num_leaves=31
num_cat=0
split_feature=548 82 62 756 718 55 656 23 666 593 575 681 866 334 553 628 453 722 279 50 23 146 611 628 826 673 724 586 513 843
split_gain=96.3007 44.4735 23.2982 18.3612 18.3415 17.8827 16.2992 13.9289 13.9146 14.5168 13.1042 13.0399 12.5029 11.7217 12.1138 11.4409 10.7385 11.5907 11.0954 11.956 11.7695 16.2521 12.5288 13.0789 12.5163 11.9397 10.4237 10.1947 13.1878 12.2392
threshold=-1.5634476586444449e-05 0.09248216813786965 7.0062300030773563e-05 1.0183661663111744e-06 -1.7101569999248757e-05 3.45394529513045e-06 4.061863559192277e-06 0.041848067402440813 -1.3930539923279949e-06 6.381361731739954e-07 1.5354711297125567e-08 3.4916978587641729e-05 4.1969965744505034e-05 0.085627724020905807 6.6305962286161125e-07 -2.5602280522886407e-05 1.4745925500934713e-05 6.1758798136690719e-07 2.8584192994625563e-05 0.19715228892875261 0.25252364094812818 4.9195208227818661e-05 -4.3647557871962887e-07 -2.181699089932927e-05 -8.5390747091142649e-07 -1.0746317499392875e-06 2.1550982099190587e-07 -4.6957331258250757e-06 -7.0567767501805018e-08 1.7764452374944984e-06
decision_type=2 2 2 2 2 2 2 2 2 2 2 2 2 2 2 2 2 2 2 2 2 2 2 2 2 2 2 2 2 2
left_child=1 4 5 6 7 13 12 -1 9 -5 27 -10 16 14 -2 -7 17 18 19 -3 22 -22 23 24 -21 -25 -11 28 -9 -29
right_child=2 3 -4 8 -6 15 -8 10 11 26 -12 -13 -14 -15 -16 -17 -18 -19 -20 20 21 -23 -24 25 -26 -27 -28 29 -30 -31
leaf_value=-0.080058761563882905 0.018358853168045804 0.034209983621112119 -0.022408443972455123 -0.019829535323563213 0.012884529598574113 0.012252823409773048 0.074881347569358478 -0.032228632597937804 -0.032692683749017619 -0.0049817396298226305 -0.076345004492718749 0.031640807367705158 -0.06616352154717535 0.028234416537327545 -0.078833268816128829 0.057269566826707898 -0.032392287497739203 0.080007425016300066 -0.028209170692576377 0.035137004093463674 -0.036326305917202671 0.06511836122117208 -0.05892392359641168 -0.016328849131401674 -0.032542419153921372 0.078454423499145817 0.061466463223520021 -0.019270733878503345 0.047231906777458213 -0.053039744029922231
leaf_count=66 25 188 66 92 80 62 33 42 289 37 58 32 22 129 24 317 53 22 62 34 21 50 39 20 96 31 52 265 36 171
internal_value=0 -0.220597 0.647837 0.0088079 -0.607384 0.771903 0.215636 -0.721008 -0.273361 0.151401 -0.62506 -0.519534 0.145604 0.267775 -0.549776 1.00237 0.195051 0.271551 0.214411 0.311763 0.0650407 0.735647 -0.1592 0.0503659 -0.282188 0.858751 0.693966 -0.527359 0.113819 -0.645851
internal_count=2514 1891 623 1173 718 557 671 638 502 181 572 321 638 178 49 379 616 563 541 479 291 71 220 181 130 51 89 514 78 436
shrinkage=0.05


Tree=5
num_leaves=31
num_cat=0
split_feature=558 82 516 134 79 55 617 286 102 762 793 213 415 722 171 50 895 23 858 55 901 2 561 437 466 373 746 901 95 118
split_gain=87.8913 38.1614 21.5885 19.4091 18.7041 15.7334 15.352 15.205 15.1542 12.3155 15.9155 14.451 13.1349 12.1051 12.239 12.9997 12.0477 11.6236 10.7768 10.6702 12.2449 10.5836 10.4087 10.0624 9.72217 12.1336 9.6251 9.60526 9.54066 11.2081
threshold=-1.7322287478006513e-05 0.09248216813786965 7.8812878489621678e-06 0.30649096944271031 6.9143548274504151e-05 4.3097233026397983e-06 0.00012168241242248134 5.4683976449642582e-07 3.5096231862630411e-05 -2.0483950039492331e-05 -2.7302813207186345e-06 8.3693587821241701e-05 6.8310757303941116e-05 1.1846423348591599e-07 4.124530319844699e-05 0.17465922692688937 4.3630388896396672e-07 0.041848067402440813 -2.3005053440042921e-06 3.8725786598054773e-06 1.1403239486460333e-05 0.01527004163463266 -1.8517411500833336e-05 0.00022029451699266605 3.33826011878204e-09 9.8246905600766885e-08 2.477694878989497e-06 -7.7550813579263448e-07 7.4264890516072821e-05 5.33989968895241e-07
decision_type=2 2 2 2 2 2 2 2 2 2 2 2 2 2 2 2 2 2 2 2 2 2 2 2 2 2 2 2 2 2
left_child=1 5 6 4 19 17 7 8 9 10 -3 13 -13 14 15 -12 27 -1 -6 20 -2 -21 -17 -11 25 -5 -27 -7 29 -19
right_child=3 2 -4 24 18 16 -8 -9 -10 23 11 12 -14 -15 -16 22 -18 28 -20 21 -22 -23 -24 -25 -26 26 -28 -29 -30 -31
leaf_value=-0.07700551276051823 0.034466671467905767 0.033084231418813878 -0.063861354223300359 0.022068035340778419 0.01876192460843442 0.019756795689306147 -0.076753237410155314 -0.041164449123667249 0.044102068646107578 0.027101552641903805 -0.040998972236807596 0.033681085055068602 -0.053622699732820217 -0.063210901259178082 -0.062747813422174087 -0.0032468955349156548 0.066743976294615259 -0.03012042025688888 -0.048416308096958689 0.060566846346561502 -0.046690956429451952 -0.012587826903898886 0.057036840806959949 -0.045495461427110757 0.058621744349567517 -0.059170775166692752 0.015074764604089713 -0.051870219219816799 0.020983865227457169 -0.080608134339389223
leaf_count=65 163 89 51 55 79 37 24 68 89 220 81 96 20 53 43 224 22 440 32 261 20 20 29 20 20 57 23 34 30 49
internal_value=0 -0.234949 -0.0161798 0.556791 0.716315 -0.605105 0.0416183 0.0759984 0.137 0.0586371 -0.0836992 -0.209738 0.388769 -0.376364 -0.25608 -0.133337 0.128687 -0.727587 0.00178193 0.881784 0.521418 1.11229 0.0796219 0.427041 -0.0527863 -0.244457 -0.738665 -0.270202 -0.632227 -0.699782
internal_count=2514 1784 1107 730 575 677 1056 1032 964 875 635 546 116 430 377 334 93 584 111 464 183 281 253 240 155 135 80 71 519 489
shrinkage=0.05


Tree=6
num_leaves=31
num_cat=0
split_feature=522 23 756 398 45 50 415 256 894 667 288 822 286 162 375 836 492 213 52 872 524 739 256 106 637 88 45 545 298 626
split_gain=79.9195 24.3119 22.1354 18.4121 18.3894 16.4187 14.5336 16.1879 16.8354 14.3222 14.155 13.5779 13.528 13.0811 13.0418 12.0552 12.0279 11.7722 11.6972 12.6713 11.897 12.5729 11.3945 11.3824 11.3784 11.0613 10.7823 11.8271 12.6132 10.7015
threshold=-1.6857092145243778e-05 0.041848067402440813 4.1107183214578651e-07 5.3680358108117603e-05 3.8228317720735382e-05 0.19715228892875261 0.00010675186885902341 0.0011248935209541948 -2.8358024082476659e-07 -4.1508686954760571e-06 4.5255077520741576e-09 -4.1912973654013349e-06 6.0268632666028168e-07 4.4026727374076548e-06 5.465937688490128e-06 2.2818041731210157e-06 4.1999136823324737e-06 8.2874042772837863e-05 3.5106101310936405e-05 -3.8196113302886282e-06 2.2604334949432603e-06 2.0304910135273539e-07 0.00072875585863310297 6.3233652499082064e-05 2.3917362527640819e-06 0.00097178319610213024 0.00010074471236652445 -3.9981284394903493e-08 1.866671480611067e-09 4.2091153765875333e-06
decision_type=2 2 2 2 2 2 2 2 2 2 2 2 2 2 2 2 2 2 2 2 2 2 2 2 2 2 2 2 2 2
left_child=1 -1 5 4 -2 10 7 8 -7 -4 23 -10 17 16 15 25 26 18 19 -11 21 -21 -22 -3 -23 -5 27 28 -13 -19
right_child=3 2 9 14 -6 6 -8 -9 11 12 -12 13 -14 -15 -16 -17 -18 29 -20 20 22 24 -24 -25 -26 -27 -28 -29 -30 -31
leaf_value=-0.071579823045375898 0.01000198591706551 0.040468638878060237 0.050225141414930487 0.031467254861578912 0.044641633239438205 -0.0585387614961193 -0.091644493454764206 0.041602027402434572 -0.056046593658480276 -0.084326577199357211 -0.036130992647799384 -0.033162377184805157 -0.068041268748889744 -0.03197456021925852 0.030820231716511989 -0.081154141202098282 0.081584385197767118 0.028736541279068953 -0.042689677227284048 -0.039274033244826076 -0.010347646541865568 -0.011370346272230525 0.062928620511209898 -0.017325331539986492 0.060615543530787186 -0.054248780787266943 0.06618780242801188 0.023301483020438222 0.043245066355417139 -0.031478027610520459
leaf_count=68 216 182 25 33 406 63 20 61 44 25 35 114 61 85 54 30 20 79 227 159 45 140 34 39 23 25 24 110 24 43
internal_value=0 -0.231591 -0.187641 0.515145 0.655513 0.0386209 -0.148325 -0.0906054 -0.212007 -0.407644 0.439247 -0.0745191 -0.452628 0.0416478 -0.115506 -0.586084 0.232669 -0.384457 -0.490088 -0.301364 -0.219829 -0.388818 0.444589 0.613914 -0.0135918 -0.0816885 0.123172 -0.000160609 -0.384346 0.163883
internal_count=2514 1750 1682 764 622 821 565 545 484 861 256 421 836 377 142 88 292 775 653 426 401 322 79 221 163 58 272 248 138 122
shrinkage=0.05


Tree=7
num_leaves=31
num_cat=0
split_feature=602 82 10 674 417 570 119 107 655 509 342 165 361 605 586 675 596 519 666 10 139 415 424 895 666 895 586 596 506 827
split_gain=73.0667 38.6362 16.4544 17.7216 16.062 13.1505 12.9989 14.2813 20.9694 12.0992 15.9105 11.619 16.432 13.7814 11.7304 11.4541 13.3149 12.9398 11.8611 11.1438 17.7546 12.3368 11.8204 14.3207 10.7435 10.6028 10.3326 9.97183 9.81844 11.0638
threshold=-1.6420259544228783e-05 0.094935969700024617 8.7287688263111007e-05 1.277420225699411e-06 1.9618100602912804e-08 4.0005313991247545e-06 1.9532608736556995e-06 0.14415009509572335 -1.4551131328294522e-06 -2.4882318888990325e-06 1.7392223069062027e-06 7.5659737515967039e-09 0.00059052140706018373 -3.4778885683863959e-07 -4.5655325975455004e-06 -4.0447536871115814e-06 -4.2317571594754122e-07 -2.5937638963202e-06 -1.0646663677805834e-06 6.4779559352899025e-05 2.9543248828977385e-06 8.206461548545826e-05 0.00097872839297845934 1.4648405782030321e-06 -4.1734117720087529e-06 2.6573267206007826e-06 7.0704422901204142e-06 -1.6666488558992762e-06 -1.8562588147081155e-06 5.0164027785478709e-07
decision_type=2 2 2 2 2 2 2 2 2 2 2 2 2 2 2 2 2 2 2 2 2 2 2 2 2 2 2 2 2 2
left_child=1 19 3 5 6 11 7 27 -9 10 -8 13 -13 -3 -15 -5 25 18 -18 20 21 22 23 26 -21 -17 -1 -2 -29 -30
right_child=4 2 -4 15 -6 -7 9 8 -10 -11 -12 12 -14 14 -16 16 17 -19 -20 24 -22 -23 -24 -25 -26 -27 -28 28 29 -31
leaf_value=-0.060589248712507163 0.041717318750967507 0.020042514114646966 -0.038653121427071307 -0.030645328812068242 -0.054883038397510166 -0.054865599777591915 -0.038599177274930084 -0.041037400625841582 0.035943930612855571 0.06013776237275429 0.047618088928005495 -0.052085704206529339 0.04485786470346817 0.032890248828006764 -0.024748559937345014 0.063306315964195614 0.031297603641763531 0.053267050638094116 -0.028239451757935893 0.00075142526100571434 0.025890961229341133 0.028022641715275822 0.03114512218774473 0.025950234605719182 -0.048842986400339621 -0.013570054085514319 0.0042853162487055708 -0.062505365452256642 -0.037394289557200436 0.039674567984303022
leaf_count=177 28 251 95 36 24 49 33 38 317 161 52 81 20 40 172 104 50 47 82 48 71 32 22 25 303 20 27 39 38 32
internal_value=0 -0.221438 0.01169 0.0867676 0.49415 -0.11151 0.542929 0.361611 0.562248 0.90012 0.308521 -0.0295815 -0.633405 0.0984194 -0.268965 0.437414 0.555859 0.216507 -0.0995813 -0.581728 -0.337676 -0.563445 -0.714369 -0.852223 -0.834407 1.03007 -1.03189 -0.173058 -0.445551 -0.0187338
internal_count=2514 1752 1047 952 762 613 738 492 355 246 85 564 101 463 212 339 303 179 132 705 354 283 251 229 351 124 204 137 109 70
shrinkage=0.05


Tree=8
num_leaves=31
num_cat=0
split_feature=602 334 391 10 107 617 110 516 165 371 705 688 432 827 329 595 776 295 491 748 606 115 502 38 865 516 586 854 127 688
split_gain=66.2209 28.8728 16.4881 14.7943 13.9909 13.711 13.3871 15.3524 13.8322 12.6508 14.4414 12.3193 14.9395 11.4291 10.4244 11.8397 10.8697 14.0425 11.143 10.797 10.9646 10.393 11.1684 10.3425 11.4191 11.723 12.2812 12.7764 11.244 9.82031
threshold=-1.6420259544228783e-05 0.09585076760771731 8.8674793086208253e-06 8.7287688263111007e-05 0.14415009509572335 0.00012168241242248134 8.0159986857873166e-09 4.487879074612802e-06 5.5558632942478329e-09 2.979154991548498e-06 -3.6377446173578874e-07 -8.9388925226497741e-06 0.16919920796399898 2.3324559967374402e-06 2.0039553186404728e-07 -5.3195734604532055e-06 7.851273136330542e-07 2.5823118213738869e-06 0.00020322900954330387 -1.8961498832340635e-06 -1.0771474877840442e-06 4.5138747781665749e-09 0.028237102277716229 6.8191711537869773e-09 1.1707385767949218e-06 -2.0191019505544127e-06 -4.8479865296103158e-06 -1.9775036322544862e-05 2.3306007423780449e-06 5.350310272422081e-06
decision_type=2 2 2 2 2 2 2 2 2 2 2 2 2 2 2 2 2 2 2 2 2 2 2 2 2 2 2 2 2 2
left_child=1 9 4 5 11 6 8 -8 23 13 -11 -2 -13 21 15 -6 17 19 -18 -17 -21 22 -1 24 25 -3 -27 -28 -29 -14
right_child=2 3 -4 -5 14 -7 7 -9 -10 10 -12 12 29 -15 -16 16 18 -19 -20 20 -22 -23 -24 -25 -26 26 27 28 -30 -31
leaf_value=-0.08205829735031632 -0.06129782673993224 0.044340128059550149 0.063704019278593246 -0.039119274006461979 -0.046791544410936046 -0.074558292946117474 0.028052289599658709 -0.043758907903141873 -0.031272492271150899 -0.033863056416282518 0.047028811071889803 -0.028770288831017083 0.045306342578236319 -0.045869795010834498 0.080212901973767223 0.075719549877197548 0.053710100823114719 -0.046433560187203286 -0.013698445263927359 -0.034949853093250403 0.025918045856756985 0.0037178782772436659 -0.02247484388745024 0.02937644465121559 -0.039593064956554055 0.046753585133323734 -0.035174918628823118 0.048810336238402377 -0.03520955129967332 -0.019616441373532315
leaf_count=39 30 54 82 87 22 22 284 32 134 40 44 70 82 274 31 29 160 33 27 36 130 124 218 114 70 34 118 40 24 30
internal_value=0 -0.211039 0.471493 -0.000740225 0.371767 0.0695207 0.105065 0.422872 -0.0692426 -0.510403 0.19844 -0.0437164 0.141723 -0.604714 0.555542 0.477299 0.548169 0.263538 0.887396 0.455955 0.262416 -0.385862 -0.615713 0.0901064 -0.0812897 0.096828 -0.10888 -0.31442 0.372268 0.570606
internal_count=2514 1752 762 1013 680 926 904 316 588 739 84 212 182 655 468 437 415 228 187 195 166 381 257 454 340 270 216 182 64 112
shrinkage=0.05


Tree=9
num_leaves=31
num_cat=0
split_feature=602 82 179 154 854 755 417 254 102 715 554 683 508 443 357 264 617 213 181 258 666 764 118 720 115 254 109 553 495 123
split_gain=60.0387 32.8436 15.2777 15.2629 14.5329 17.0168 14.2223 14.3629 13.2593 12.0371 16.3083 13.1681 11.7492 11.2921 11.2032 11.7857 11.1742 10.6862 10.6163 10.2739 10.1577 11.9934 16.2205 10.096 9.49547 9.23158 9.84676 9.66445 10.3506 12.8352
threshold=-1.6420259544228783e-05 0.094935969700024617 7.4174479561862821e-05 0.015341340301552016 -2.027299156982054e-05 2.4333624725701422e-06 1.9618100602912804e-08 0.0041121487974824537 3.704839541553191e-05 3.2441539041280505e-06 1.5888426324334384e-06 1.9627835843811208e-05 2.7350350037125689e-05 0.042504786964921361 4.8119284714130574e-06 0.23277325623414566 6.6903240079880163e-05 0.00012348568570949011 4.8773474628610985e-08 2.0137217178536324e-06 -4.3640939766070173e-06 4.095923126731204e-06 9.9750951370859584e-08 1.549434720831649e-06 3.4802596986989969e-08 0.0070157191829495506 0.00031174908420005594 -2.6140724928535105e-06 0.013690341373610188 1.8319741406333994e-06
decision_type=2 2 2 2 2 2 2 2 2 2 2 2 2 2 2 2 2 2 2 2 2 2 2 2 2 2 2 2 2 2
left_child=1 13 3 4 5 8 7 -2 16 10 23 -11 18 24 -15 20 17 25 -9 -7 -16 -22 -23 -6 -1 -3 -27 -28 29 -29
right_child=6 2 -4 -5 9 19 -8 12 -10 11 -12 -13 -14 14 15 -17 -18 -19 -20 -21 21 22 -24 -25 -26 26 27 28 -30 -31
leaf_value=-0.076165087927224567 -0.038631264063559406 -0.060313909916098023 -0.074927839115851644 0.074860204095483468 0.025812550600695441 -0.018007431582422347 -0.052449695931480723 0.031970487857204147 0.03687184076699318 0.071155350045683088 -0.055574462657383063 -0.0066543943759544005 -0.041722177744742642 0.048176684300935864 0.0050183109688277461 0.026648066232900752 -0.076126013783183816 0.033573243054647248 -0.039162713649876182 0.062153099675777305 -0.041272996733812566 0.039916408664308206 -0.046001943768569101 -0.04854172494940355 -0.0014649604699816167 0.025640565382439608 0.011190411951613478 -0.056549897898143499 0.030882932802363081 -0.015194804458542719
leaf_count=79 33 45 26 25 149 22 24 661 46 62 36 30 23 20 74 39 30 41 21 47 387 43 41 20 22 53 82 121 27 185
internal_value=0 -0.201098 0.013933 0.0502407 0.0114156 -0.143047 0.450104 0.496369 -0.245661 0.367017 0.103555 0.937231 0.553267 -0.535078 -0.436703 -0.488228 -0.327124 -0.265986 0.597738 0.755961 -0.565285 -0.67486 -0.00888163 0.348468 -1.1759 -0.344355 -0.264566 -0.367664 -0.518296 -0.623689
internal_count=2514 1752 1047 1021 996 699 762 738 630 297 205 92 705 705 604 584 584 554 682 69 545 471 84 169 101 513 468 415 333 306
shrinkage=0.05


Tree=10
num_leaves=31
num_cat=0
split_feature=548 82 516 10 443 139 118 801 617 845 94 875 254 567 295 603 735 96 96 515 501 338 379 826 193 540 119 785 842 338
split_gain=58.9184 25.7324 16.893 16.6664 13.897 13.446 12.4195 12.3323 11.9808 11.003 12.0095 10.8109 13.7111 12.272 14.8417 11.9312 13.4571 12.665 11.8034 10.6042 13.573 10.5225 11.6488 10.2403 10.1778 9.94795 9.79538 13.518 12.2793 13.056
threshold=-1.5634476586444449e-05 0.096809551481085734 7.8812878489621678e-06 7.0062300030773563e-05 0.042504786964921361 4.3161809404271767e-06 5.5189059007773817e-07 5.2805571057924351e-07 0.00012168241242248134 1.0989330573452849e-06 4.8945171710677273e-05 2.2177227689593015e-05 0.0081104513398799916 1.658491218249259e-07 1.6714477426095552e-06 4.5085359720050426e-09 -9.9180398765370015e-07 0.16248907724852493 0.11967832749166102 -1.13457942602803e-06 4.2510677964570146e-09 0.004558712845390272 1.8147971430126154e-06 3.9536990984984669e-06 0.00024184515538773453 2.1343234008714877e-05 1.410091312365326e-06 8.5916668336263198e-07 -3.5572172302123399e-05 0.011107609703834072
decision_type=2 2 2 2 2 2 2 2 2 2 2 2 2 2 2 2 2 2 2 2 2 2 2 2 2 2 2 2 2 2
left_child=1 4 8 5 25 21 9 23 11 19 -11 15 -13 14 -14 16 17 -3 -15 20 -6 -2 -23 -7 -21 -1 27 28 -17 -30
right_child=3 2 -4 -5 6 7 -8 -9 -10 10 -12 12 13 18 -16 26 -18 -19 -20 24 -22 22 -24 -25 -26 -27 -28 -29 29 -31
leaf_value=-0.074704885636794338 -0.040088796809895244 -0.088179163574753888 -0.056669398607306812 -0.020856137495421322 0.023578854639735174 0.066493646552370153 -0.061056883705975055 -0.024276570707826031 -0.068766275303234647 0.077450814740539664 -0.0033479426057429831 -0.074448874008201604 0.028171195809448629 -0.037906564462667193 -0.066812954196187144 -0.052994605082756163 0.0043404764729566177 0.0046062207023761853 0.043904822779575817 0.021518906002786675 -0.04994597493852368 0.045179459169325059 0.0038877823754507042 0.025623494992209207 -0.032288831037433477 0.0028760816907863664 0.045767140867088073 0.045192536543893547 -0.0017991582705791126 0.061703242800735893
leaf_count=84 29 33 49 66 94 161 62 22 23 22 67 34 23 24 49 36 362 25 57 36 33 114 143 88 361 21 104 83 174 35
internal_value=0 -0.173463 0.0138343 0.513762 -0.452158 0.620958 -0.352917 0.926934 0.0637792 -0.270586 0.356663 0.0932459 -0.334789 -0.0905586 -0.692793 0.184473 -0.0496457 -0.934822 0.417031 -0.381123 0.105803 0.327551 0.449416 1.04602 -0.542537 -1.15889 0.407776 0.242559 0.0105892 0.186418
internal_count=2514 1891 1111 623 780 557 675 271 1062 613 89 1039 187 153 72 852 420 58 81 524 127 286 257 249 397 105 432 328 245 209
shrinkage=0.05


Tree=11
num_leaves=31
num_cat=0
split_feature=558 82 134 553 223 546 616 165 260 523 755 801 443 621 256 329 121 170 11 444 777 755 376 561 873 603 816 161 616 763
split_gain=52.3558 22.906 15.769 15.4536 14.7765 15.026 14.6014 13.7954 12.8264 12.198 12.0279 11.4654 11.4025 11.3352 11.0725 14.7815 11.2122 9.67498 11.1079 9.50034 11.2058 9.34458 10.7666 10.0301 13.7426 11.3182 13.2411 9.77857 10.3577 8.96976
threshold=-1.7322287478006513e-05 0.10376438486726143 0.30649096944271031 -2.4616820808168797e-06 1.1559210725995522e-05 -2.6504288181875625e-06 -7.5676944460982261e-06 8.6703113618528762e-09 5.1882263280855771e-05 2.0925292686593076e-08 -6.6562342100102975e-06 -5.5053891900180693e-07 0.19730814149239859 -1.4332634328413119e-05 0.0011099235350213181 2.0515277452427579e-07 3.4637389973046756e-07 0.0062567491559466877 6.9680185120777469e-05 6.1150945833297553e-07 -4.1692042461941723e-06 2.4333624725701422e-06 1.1461021399835572e-05 -2.2016483732652998e-05 -2.3766154237641063e-06 1.1161188007123778e-07 -1.2870450481325431e-06 2.8120902081346541e-07 9.5704701967228604e-06 2.9854128447971034e-10
decision_type=2 2 2 2 2 2 2 2 2 2 2 2 2 2 2 2 2 2 2 2 2 2 2 2 2 2 2 2 2 2
left_child=1 4 6 7 5 -1 -2 -3 -8 12 -5 13 -10 19 16 -16 17 -7 -19 20 -4 22 23 24 -12 26 -25 28 29 -26
right_child=2 3 11 10 -6 14 8 -9 9 -11 21 -13 -14 -15 15 -17 -18 18 -20 -21 -22 -23 -24 25 27 -27 -28 -29 -30 -31
leaf_value=-0.046057191543316674 -0.052745479955540478 0.043682582524865884 -0.027828637493648341 -0.052082448862739716 0.048248089413904106 0.046229210110615926 0.040137582325008504 -0.028386641090877979 0.050958944876629976 -0.032511597269081614 0.039760432966856767 -0.070936967247523394 -0.030214498619997684 0.045017984580358328 0.061066346825389951 -0.021396402182093842 -0.045979346339577593 -0.022021051688235746 0.039533899092966562 -0.061170421964581459 0.058357100344486525 0.028792305952802161 -0.072580875181791918 0.049837626864393775 -0.042142056680938983 0.047839672716722056 -0.029036854242899902 0.048864277779045243 0.040038609535130436 -0.011129917512100941
leaf_count=221 21 120 36 49 27 24 423 32 57 51 45 23 23 43 37 46 136 331 30 30 23 84 23 28 152 66 65 20 25 223
internal_value=0 -0.182594 0.435625 0.025398 -0.42058 -0.469996 0.582227 0.583559 0.640217 0.108947 -0.0867213 -0.117137 0.570681 0.0988108 -0.310165 0.349976 -0.419172 -0.249512 -0.333064 -0.305392 0.139565 -0.0254681 -0.105889 -0.0589484 -0.205192 0.357479 -0.0836956 -0.317892 -0.386811 -0.470661
internal_count=2514 1784 730 932 852 825 575 152 554 131 780 155 80 132 604 83 521 385 361 89 59 731 647 624 465 159 93 420 400 375
shrinkage=0.05


Tree=12
num_leaves=31
num_cat=0
split_feature=548 166 516 8 666 214 827 107 2 391 139 506 470 893 390 755 815 626 139 166 155 696 440 896 582 122 606 868 258 606
split_gain=49.0666 20.762 18.4427 15.5665 15.4704 19.2815 17.0663 12.8367 20.2371 12.6542 11.9552 11.7601 12.0602 11.0504 11.001 10.9818 10.7583 10.6105 10.4723 11.3175 10.3667 9.84095 9.47486 8.83288 13.2861 8.7744 8.5545 11.5472 8.50995 8.49766
threshold=-1.5634476586444449e-05 0.056736026814160914 7.8812878489621678e-06 7.4094525093678702e-05 -1.8873693685835155e-06 1.1372875115760972e-08 2.037094446954903e-05 0.13580786704903053 0.01027132898171553 8.9885904251642085e-06 1.1710002312822968e-05 4.1310560919054985e-08 0.2571217869729972 -1.8459313053929116e-06 5.5292581450762428e-09 -2.4983999233346389e-06 4.967608096557966e-07 -1.0000000180025095e-35 4.3161809404271767e-06 0.072476763271602282 0.0001458550001131225 2.8535897666538552e-06 3.4428033085879627e-05 7.1665606104818886e-08 -2.9501380288637431e-07 6.7172617437531806e-09 -4.4989669624871598e-07 -1.3206570293329772e-05 2.7896125237804381e-06 -2.2809919764652387e-06
decision_type=2 2 2 2 2 2 2 2 2 2 2 2 2 2 2 2 2 2 2 2 2 2 2 2 2 2 2 2 2 2
left_child=1 23 4 9 7 6 10 8 -3 18 11 13 15 20 28 25 -16 -10 19 -2 -6 -8 -5 -1 -25 -13 27 -21 -9 -15
right_child=3 2 -4 22 5 -7 21 14 17 -11 -12 12 -14 29 16 -17 -18 -19 -20 26 -22 -23 -24 24 -26 -27 -28 -29 -30 -31
leaf_value=-0.056612549793859469 -0.038039084765630171 -0.054998298506914726 -0.052719068278655357 -0.079656735574873239 0.054300488737267852 0.058165333082186271 -0.047127262172351955 -0.020191105491169706 -0.0078608454081018665 0.070203774442988837 0.05856286004514593 0.0070556216792134474 -0.030612981579599907 -0.045101855680907812 0.04554114224502194 0.029770596243794287 -0.018896180599783471 0.080575134101303472 0.038482573425985857 -0.040120525754527979 -0.031439816964612288 0.0087553966882588409 0.0048513043710369207 -0.049514503060644657 0.022537630508847484 -0.07293758117990852 0.030896314307034801 0.038375083809951464 0.029806975113773074 -0.01359894641008925
leaf_count=119 40 61 76 21 37 38 169 78 32 60 26 41 62 107 171 180 29 20 232 46 21 37 34 58 47 20 161 29 54 408
internal_value=0 -0.158542 -0.0861898 0.471874 -0.0424863 -0.16412 -0.212841 0.262497 -0.309202 0.566201 -0.0987602 -0.138672 0.168653 -0.306015 0.451339 0.360225 0.732729 0.557632 0.466084 0.21007 0.491166 -0.733042 -0.527778 -0.744558 -0.321184 -0.361074 0.369541 -0.17899 0.0139256 -0.399642
internal_count=2514 1891 1667 623 1591 1146 1108 445 113 568 902 876 303 573 332 241 200 52 508 276 58 206 55 224 105 61 236 75 132 515
shrinkage=0.05


Tree=13
num_leaves=31
num_cat=0
split_feature=45 94 756 287 474 263 102 638 640 211 546 188 102 75 803 854 345 49 375 369 643 138 387 682 546 706 211 26 344 154
split_gain=48.1127 21.1635 17.4172 13.0088 14.0596 17.3161 16.7378 12.7627 11.7506 11.5713 10.8553 10.7931 10.2365 10.077 9.82219 9.99515 10.5173 11.2362 9.80707 9.39032 10.4114 15.7998 9.37924 8.86262 8.8326 9.41889 8.6016 8.57029 8.25338 8.11607
threshold=3.5288762258632731e-05 6.1424430077156492e-05 3.8594642822057831e-06 2.6737024804465643e-06 8.1744723686420769e-09 2.4205564948689541e-05 2.5516345446757246e-05 -2.0534465511488389e-05 3.3756741968738959e-06 1.7598415095797347e-06 1.6140044234998807e-05 2.6732130138313629e-05 1.9823017665732649e-05 0.011969438565527561 1.3172817777022214e-06 -8.4801687950515658e-07 1.6387870298186564e-06 1.4330596044498078e-05 5.0423080780479267e-06 4.8049102379777607e-06 9.1291973487731616e-07 1.5201566415763664e-08 1.6481239280744426e-05 -3.0845963333490506e-05 -3.8682753940939361e-08 2.3558979897712307e-06 3.6467152462509828e-06 5.5069478151041699e-09 7.0050676868473117e-05 0.0049690312547560145
decision_type=2 2 2 2 2 2 2 2 2 2 2 2 2 2 2 2 2 2 2 2 2 2 2 2 2 2 2 2 2 2
left_child=1 3 7 4 5 -1 9 14 -3 -6 28 -5 -12 23 15 16 17 -2 -4 -7 -21 24 -20 -11 -22 -26 -10 -13 29 -9
right_child=2 8 18 11 6 19 -8 10 26 13 12 27 -14 -15 -16 -17 -18 -19 22 20 21 -23 -24 -25 25 -27 -28 -29 -30 -31
leaf_value=0.031156144720046765 0.0074166711407783461 -0.031197728669144664 -0.034561430106564435 -0.045903128541379255 -0.030891161257473328 0.019810586503496708 0.042498127761035363 -0.0080369394160912291 0.055665927569609433 0.073830234568080161 -0.065397210129612457 0.037485444335882377 0.024795320972266933 -0.0430444804453224 0.041125110895917444 0.045596909354649273 0.0098487117416602744 -0.064865946457969226 -0.0383203721791456 -0.044415270862334787 -0.066628863976954486 0.056660631712708735 0.044742796798028707 0.0086119118284331241 0.04664652868877605 -0.048334597756587452 -0.02922981206896276 -0.0310365903098502 -0.011783933998385027 0.043899221946595776
leaf_count=53 33 502 89 21 114 35 86 31 26 21 21 140 30 33 58 32 94 56 20 241 37 26 38 165 20 20 21 20 31 400
internal_value=0 -0.211129 0.349277 -0.0485448 -0.151712 -0.403607 0.101183 0.462968 -0.531829 -0.101782 0.643202 0.419614 -0.220776 0.157004 0.122652 -0.0721546 -0.252376 -0.743744 -0.273287 -0.556135 -0.658558 -0.13721 0.344242 0.328555 -0.604966 0.0197051 0.402272 0.585509 0.735564 0.804711
internal_count=2514 1581 933 1032 851 432 419 786 549 333 513 181 51 219 273 215 183 89 147 379 344 103 58 186 77 40 47 160 462 431
shrinkage=0.05


Tree=14
num_leaves=31
num_cat=0
split_feature=45 666 666 788 92 756 872 525 391 882 395 320 443 749 594 896 573 186 869 826 82 334 639 171 395 314 0 4 582 606
split_gain=43.638 20.7202 17.8915 18.9556 15.0426 14.5597 12.1346 10.4905 9.89345 10.0218 13.0377 9.54017 14.4121 11.9509 11.9105 11.0398 14.5129 9.96147 9.43575 9.42275 10.0571 10.5367 9.29434 9.09632 13.4374 9.07034 10.6326 12.746 10.2109 8.90217
threshold=3.5288762258632731e-05 -2.3153536050638566e-06 4.101995308879483e-06 -2.0850725353429964e-05 6.4208656375945694e-05 3.4505125552772569e-06 2.686914809904565e-06 1.7940010045511298e-06 8.7993639920363562e-06 -1.4065612945946744e-07 6.3207020913703648e-09 7.3722256595126196e-07 0.10585989798681396 1.662831731697254e-06 3.5644195759832532e-07 1.2482499822242196e-06 -2.5181674288908274e-06 1.3206570293329776e-05 -3.1727440476735255e-05 -1.8395745210422396e-06 0.12616586287213105 0.084055265141017396 3.3137143243811614e-06 3.8114985438835331e-05 1.0184551074033481e-08 3.1876372042938271e-05 0.0030530296737229022 0.00061144674669301902 -1.1618166451068676e-06 2.6013785452152644e-07
decision_type=2 2 2 2 2 2 2 2 2 2 2 2 2 2 2 2 2 2 2 2 2 2 2 2 2 2 2 2 2 2
left_child=1 8 3 6 7 23 19 11 9 -1 25 12 -3 15 -15 22 -17 -16 -7 20 21 -2 29 24 -4 -11 28 -28 -27 -14
right_child=2 4 5 -5 -6 18 -8 -9 -10 10 -12 -13 13 14 17 16 -18 -19 -20 -21 -22 -23 -24 -25 -26 26 27 -29 -30 -31
leaf_value=-0.038722701019264012 0.013849590477369 -0.030511552765842401 0.022500726802547947 0.041502439706117257 -0.032716630924560466 -0.0023089791300313993 -0.066559473357282226 0.015255264469420283 0.058316385188479841 0.061935323178152896 0.056567744531406394 -0.043519840291959364 -0.012418298750305798 0.061696841250697715 -0.055766398878890039 -0.054136729832955692 0.026192885217017972 0.038976656446418879 -0.075633693728345483 0.032953667934129537 0.028986907518692213 -0.075439023412327888 -0.053420742136715549 -0.037600618915861583 -0.049015184682693995 -0.029585737182551419 -0.067476626024224037 -0.0028285367675581034 0.046488846094649455 0.041938979988593666
leaf_count=47 21 206 243 349 405 32 22 139 34 21 47 95 49 52 22 82 29 21 38 96 35 32 20 36 29 24 40 123 57 68
internal_value=0 -0.201322 0.333575 0.555083 -0.334411 0.00369424 0.0844733 -0.177965 0.183597 0.0867192 0.209746 -0.285554 -0.186738 0.0542471 0.633763 -0.174882 -0.643015 -0.144411 -0.820328 0.243138 -0.223202 -0.770114 0.190737 0.183325 0.303749 0.0388268 -0.0694428 -0.361487 0.499056 0.394557
internal_count=2514 1581 933 555 1188 378 206 783 393 359 312 644 549 343 95 248 111 43 70 184 88 53 137 308 272 265 244 163 81 117
shrinkage=0.05


Tree=15
num_leaves=31
num_cat=0
split_feature=558 166 466 260 296 213 866 166 223 851 11 17 170 361 11 858 502 617 668 668 286 87 333 429 828 697 123 873 471 901
split_gain=36.7381 16.4732 14.3549 13.4991 12.5782 11.8887 12.8247 10.6948 9.63621 10.7886 14.3074 11.6805 9.68192 9.34479 9.85645 9.11978 9.05207 8.81393 8.74335 9.95396 12.2955 9.81104 8.9798 11.4705 10.2153 9.54889 8.442 13.8713 9.06072 9.01235
threshold=-1.7322287478006513e-05 0.092966478162083616 4.8766854412842463e-09 5.2321804276006643e-05 2.1615901278789145e-06 9.9700114900678027e-05 1.4958005367854941e-06 0.071802723726004977 6.610310986963449e-06 6.8259892657619704e-06 2.273443460284001e-05 0.00014499018886006694 0.0068453950889918605 0.00024151435482152827 6.9680185120777469e-05 -1.0000000180025095e-35 0.020963560446551791 0.00012168241242248134 -4.3791375632216204e-06 -2.3397608459208114e-06 5.6451968964923563e-07 3.3074431721232916e-05 5.2824699450402365e-09 1.2608219918938376e-06 5.5542501542851518e-05 1.1134624570184722e-05 9.9597707559741089e-06 1.4931288545342574e-06 1.1979555191064827e-05 -2.3383981812082549e-06
decision_type=2 2 2 2 2 2 2 2 2 2 2 2 2 2 2 2 2 2 2 2 2 2 2 2 2 2 2 2 2 2
left_child=1 5 3 7 17 13 -7 -2 9 11 -11 12 -9 -1 16 -5 -15 18 -3 21 22 -20 24 -24 26 -25 27 29 -28 -21
right_child=2 4 -4 15 -6 6 -8 8 -10 10 -12 -13 -14 14 -16 -17 -18 -19 19 20 -22 -23 23 25 -26 -27 28 -29 -30 -31
leaf_value=0.034697503493236165 -0.018973066182939119 0.031022922165601638 0.05754935139761639 -0.0018163659476619993 -0.025748316121436039 0.079239607498953091 -0.014614405897073671 0.037700515926107625 0.055974340437892747 -0.080318504869656415 0.024033238372613546 0.049525989694503891 -0.0063593046518310454 -0.07167396808838887 0.014242672404039159 -0.067473874501875697 -0.026942290616764137 -0.061717739016978947 -0.042960502729277802 -0.015459362969372784 -0.044581822468341428 0.032921498873620079 -0.069123146082205614 -0.012460841333691032 -0.043836420245273261 0.046786682180286226 -0.0034699246761524154 -0.0032006399125316248 0.064480262757190904 0.045947172419185008
leaf_count=24 58 107 79 110 165 21 37 78 83 24 28 122 122 60 51 26 483 21 81 28 46 20 28 120 27 32 26 222 63 122
internal_value=0 -0.153604 0.369449 0.272932 -0.00944357 -0.404095 0.434822 0.417735 0.517775 0.383367 -0.45415 0.51563 0.223205 -0.489139 -0.541344 -0.277438 -0.623673 0.0764891 0.103659 0.0338791 0.114247 -0.54594 0.179402 -0.196676 0.31492 0.0105825 0.381105 0.2507 0.90868 0.698685
internal_count=2514 1784 730 651 1108 676 58 515 457 374 52 322 200 618 594 136 543 943 922 815 714 101 668 180 488 152 461 372 89 150
shrinkage=0.05


Tree=16
num_leaves=31
num_cat=0
split_feature=45 666 516 92 666 331 798 596 545 185 662 616 861 657 755 451 65 829 545 227 203 22 484 205 455 432 50 432 265 88
split_gain=37.0101 17.9516 16.0801 13.2869 13.2049 12.7571 12.1893 10.7618 11.6147 10.2779 10.0489 11.103 10.073 9.50097 9.31845 12.7569 11.1387 9.35563 10.2863 8.88366 9.23419 12.4268 11.0923 10.6239 8.86672 10.9938 13.6368 10.9593 8.83041 8.55181
threshold=3.5288762258632731e-05 -2.3153536050638566e-06 7.2587294100514795e-06 6.4208656375945694e-05 3.993952177558137e-06 7.3035453794260125e-05 -2.1027312340032917e-05 -2.0160174259772637e-07 1.3526418067141517e-06 0.00018192554677742584 4.1144931679008703e-07 -9.5740327096142465e-08 -2.6155060835845679e-05 7.639424921465272e-06 -6.9130448736740713e-07 2.6033174195388585e-09 0.027674581314885309 1.670341893694208e-06 -9.5368390711433411e-08 1.9092966023750723e-09 1.0628478242844661e-06 5.3047263011027537e-05 0.00026715235113053865 4.2950384503639048e-08 1.8829823329026975e-06 0.12017861659625149 0.22203370308050538 0.1535973427218959 6.7768624598271067e-09 0.00089882047587055405
decision_type=2 2 2 2 2 2 2 2 2 2 2 2 2 2 2 2 2 2 2 2 2 2 2 2 2 2 2 2 2 2
left_child=1 14 4 7 6 24 -2 8 10 19 -3 12 -12 -5 15 -1 -16 18 -18 20 21 22 -9 -22 25 -6 -27 -28 -17 -11
right_child=2 3 -4 13 5 -7 -8 9 -10 29 11 -13 -14 -15 16 28 17 -19 -20 -21 23 -23 -24 -25 -26 26 27 -29 -30 -31
leaf_value=-0.038170452489359595 0.0081058897850091096 -0.023635661171904021 -0.037461482757377089 -0.025022302966665327 -0.041276845163518289 -0.034433094991585374 0.039485122866715738 0.0097235461445321063 0.035865174571537296 -0.021346005987410495 -0.054723105013184108 0.053066635565402948 0.022122291096499512 -0.073810472979980196 0.041342397204645123 0.038688163005363929 0.023235877922538818 0.050246870529946266 -0.04455869252035255 -0.047129985867191082 0.050877872765135515 0.02834322802205673 -0.056400246066564255 -0.027065268014980111 0.038897026343133231 0.051528400391364443 0.02353374921531514 -0.04184064888166434 -0.03175360933461302 0.042538236619307113
leaf_count=80 182 142 54 356 46 69 339 32 84 38 29 44 40 49 119 55 36 25 53 126 36 31 108 31 87 56 50 50 25 42
internal_value=0 -0.186006 0.308884 -0.310549 0.371578 0.0807781 0.570008 -0.163326 0.0993271 -0.36768 -0.114892 0.316157 -0.188036 -0.613445 0.173211 -0.194855 0.418288 -0.0213552 -0.326542 -0.512453 -0.287192 -0.539913 -0.804169 0.320052 0.259405 0.0324088 0.276982 -0.166859 0.348542 0.261884
internal_count=2514 1581 933 1188 879 358 521 783 339 444 255 113 69 405 393 160 233 114 89 364 238 171 140 67 289 202 156 100 80 80
shrinkage=0.05


Tree=17
num_leaves=31
num_cat=0
split_feature=548 23 756 8 446 633 655 877 633 102 65 675 250 23 423 806 423 686 697 418 426 901 516 829 843 720 675 207 344 470
split_gain=32.2393 15.0875 14.7653 12.6874 12.5992 11.7482 11.5629 10.636 10.4176 10.0412 10.5036 9.6602 9.02344 15.8564 10.9682 10.5335 10.0953 14.2782 11.7094 9.01477 9.53323 8.3237 11.2558 8.2269 10.2522 8.16955 9.69608 9.83172 10.8893 10.5742
threshold=-1.5634476586444449e-05 0.041848067402440813 4.1107183214578651e-07 7.4094525093678702e-05 9.775122024861986e-09 -1.0944276449907752e-06 -1.7231400450132964e-08 -1.5624028068508091e-05 1.0000000180025095e-35 3.4127570116230992e-05 0.073906956399637139 -6.2891934618711045e-06 0.09919635295250169 0.10489679682728131 1.6132400868452945e-05 1.7535187528766724e-06 3.5485889486908347e-05 6.7492426601159798e-06 -2.0644157088376111e-05 0.076091494262636616 4.9778788133087735e-06 -8.6072644257232975e-07 4.7359538158457633e-07 1.7952316528625576e-06 1.2567101265596252e-07 -4.7522300198619371e-06 -5.5098312270052991e-06 6.5898972494154263e-06 2.9427619139712241e-05 0.1148155280146423
decision_type=2 2 2 2 2 2 2 2 2 2 2 2 2 2 2 2 2 2 2 2 2 2 2 2 2 2 2 2 2 2
left_child=1 -1 6 4 5 -2 8 -5 -3 10 11 -8 14 -14 -13 16 18 -18 -16 -7 21 22 -21 24 -20 -4 -27 28 -28 -30
right_child=3 2 25 7 -6 19 9 -9 -10 -11 -12 12 13 -15 15 -17 17 -19 23 20 -22 -23 -24 -25 -26 26 27 -29 29 -31
leaf_value=-0.057944423427286208 0.04702355169426739 0.0040702229221851972 0.032701044597701241 0.013550246606526824 0.044682370737272319 -0.043242851957953903 -0.046745402241586444 -0.073628744534534066 -0.055172585328847328 0.044015783530124912 -0.039802195937791496 -0.058758980709667452 -0.066852245377922448 0.025098277383419909 0.069677418511372102 -0.056148838301201855 -0.057750473810894667 0.040543595240134678 -0.075162805998225043 -0.04505552922087392 -0.051141860512570386 0.028271086914346141 0.033208308090825589 0.046508609731695752 0.012879258774523401 -0.073340944189736232 0.033745108093231869 0.0014243314571117634 -0.078040048929142541 -0.020867345848698569
leaf_count=68 79 58 34 29 188 35 31 26 59 67 50 33 20 345 40 27 41 22 20 43 23 169 31 32 41 30 32 279 36 526
internal_value=0 -0.129066 -0.0985922 0.389105 0.47672 0.269617 0.0822621 -0.515714 -0.500013 0.168781 0.0981613 0.162776 0.214684 0.408152 -0.0734271 0.0796488 0.233039 -0.428292 0.534472 0.0899808 0.212758 0.325995 -0.230998 0.142645 -0.29463 -0.273438 -0.31054 -0.273806 -0.420805 -0.487566
internal_count=2514 1891 1823 623 568 380 886 55 117 769 702 652 621 365 256 223 196 63 133 301 266 243 74 93 61 937 903 873 594 562
shrinkage=0.05


Tree=18
num_leaves=31
num_cat=0
split_feature=45 82 118 666 788 658 110 606 455 3 604 331 165 626 873 455 829 666 104 411 286 765 367 172 31 15 793 752 159 57
split_gain=31.5764 16.0583 15.422 14.4551 13.9253 13.1939 12.5569 14.8937 13.5466 13.1143 13.0472 11.9013 11.7715 11.5527 10.8552 10.8906 10.5316 10.5085 12.0087 10.3437 9.89708 8.4694 12.2038 10.8952 9.23957 9.00606 8.08298 7.90086 7.86743 11.095
threshold=3.5288762258632731e-05 0.049026885591345895 8.7179753518133611e-07 3.993952177558137e-06 -2.0850725353429964e-05 1.6728539405141614e-06 8.0159986857873166e-09 9.0883128088745874e-08 1.580918414865355e-06 3.9213910135007112e-05 -1.225230028877375e-06 7.3035453794260125e-05 1.7102625958833098e-08 4.8100461854906115e-06 1.3976292666984164e-06 1.8829823329026975e-06 7.6703231124016235e-07 1.0000000180025095e-35 4.2272389947348437e-05 0.011610097523722572 1.1621937044454157e-07 -5.1755659744503315e-06 2.4053801594020647e-09 0.0011335363109598851 8.134901778074289e-09 2.5617028516955739e-07 5.3616728917673234e-07 -5.6346876918648231e-06 0.012232460406603677 8.8412996796360774e-06
decision_type=2 2 2 2 2 2 2 2 2 2 2 2 2 2 2 2 2 2 2 2 2 2 2 2 2 2 2 2 2 2
left_child=1 -1 6 4 5 17 7 9 10 -3 19 14 13 21 -5 28 -15 -2 -19 -8 -18 -9 23 24 -23 -24 -10 -6 29 -16
right_child=3 2 -4 11 27 -7 8 12 26 -11 -12 -13 -14 16 15 -17 20 18 -20 -21 -22 22 25 -25 -26 -27 -28 -29 -30 -31
leaf_value=-0.04308050252622643 -0.020390041207217144 -0.018183283853444667 -0.069314213847155054 0.029550724512110205 -0.023802847309951886 0.072620533450349911 0.0054915770478294428 0.06029069486266031 0.063395527583524194 -0.070660843583884039 -0.019184705736585012 -0.035564266831943983 -0.074001418926281856 -0.039858450739862994 -0.061762953164193113 0.029988319417999079 0.035552775521962864 -0.023774081343561959 0.070289167929784235 0.070539545922267244 -0.032274583183689962 -0.041404264881489593 0.039645084707946469 0.033029126400506863 0.020119440319704411 -0.017798467962841659 0.015802255583415189 0.040316261251990206 0.018293504796445922 0.012831789492331444
leaf_count=143 128 329 40 131 20 23 91 31 53 60 184 77 22 103 65 51 49 23 30 30 38 95 120 40 31 34 88 326 31 28
internal_value=0 -0.172433 -0.113884 0.286877 0.491035 0.0848649 -0.0808413 -0.211036 0.188924 -0.5141 -0.0472772 -0.00825627 -0.00724054 0.0481926 0.164317 -0.158681 -0.353486 -0.0974681 0.627809 0.445689 0.148847 0.255173 0.15802 -0.2174 -0.509865 0.548731 0.681721 0.732802 -0.478993 -0.774449
internal_count=2514 1581 1438 933 550 204 1398 952 446 389 305 383 563 541 306 175 190 181 53 121 87 351 320 166 126 154 141 346 124 93
shrinkage=0.05


Tree=19
num_leaves=31
num_cat=0
split_feature=638 873 139 166 107 497 582 223 247 345 802 70 806 637 94 826 211 423 516 882 843 747 897 540 6 582 822 766 360 872
split_gain=27.0725 18.4883 15.9995 12.2601 11.1261 10.2665 13.3392 11.3706 10.8295 10.2636 10.2359 9.54438 9.5269 10.6297 9.49627 10.0734 10.9058 8.96658 10.9049 8.93004 10.3681 8.78371 8.70364 8.68085 8.46201 8.42622 8.27273 8.26414 11.507 9.00639
threshold=-2.2265863700852626e-05 -2.0128262486360925e-07 3.1575511914497594e-06 0.12039402927653339 0.14415009509572335 1.1584992339627716e-07 -2.7070269600461693e-06 1.1559210725995522e-05 9.1142980584858283e-05 1.6289695157489163e-06 5.3794658592203864e-07 0.014704781506946858 1.8835602132013845e-06 -2.6870270314109362e-05 8.5926918103765285e-05 1.1209984548345983e-05 1.8634433431699104e-06 2.5712592154690385e-05 3.6369365724349188e-06 -1.6679788788147604e-09 2.3202378044133522e-09 -3.7579538762927582e-07 3.3481177336087143e-06 -2.0568455743329394e-05 2.012555674140801e-06 -5.5279904772103252e-07 -4.1912973654013349e-06 -2.3212329690676377e-06 2.4255018021557637e-06 2.4203340599196685e-06
decision_type=2 2 2 2 2 2 2 2 2 2 2 2 2 2 2 2 2 2 2 2 2 2 2 2 2 2 2 2 2 2
left_child=3 19 4 5 23 -1 26 8 10 27 14 12 -5 -14 15 16 -8 18 -18 -2 -21 -19 24 -3 25 -4 -7 -6 29 -29
right_child=1 2 22 11 9 6 7 -9 -10 -11 -12 -13 13 -15 -16 -17 17 21 -20 20 -22 -23 -24 -25 -26 -27 -28 28 -30 -31
leaf_value=-0.051227946319667331 0.054111345558611502 0.01630763844247899 -0.038228837527222718 0.012572599506194819 -0.049348727436469286 -0.062789586254139843 -0.033579904552008065 0.054514580112308357 -0.034323781560180081 0.041304313620019406 0.053280926852766503 -0.042501304524017652 -0.078289484707358969 -4.9128142149377943e-05 -0.057080665620752084 -0.048379352146540391 0.0052977283726215506 0.057653988054076039 -0.070880535821357032 -0.039544249217402988 0.028707439088039213 0.010455615194225019 -0.029888163048713917 -0.041285467984554854 0.040360504101498079 0.026327762988665421 -0.019338026776702606 0.017655527822335853 -0.048428957361437867 -0.051190148200108969
leaf_count=78 115 32 32 406 36 81 68 27 141 55 30 43 26 53 37 42 95 54 25 26 151 119 29 127 178 52 112 184 39 21
internal_value=0 0.236616 0.0772048 -0.180189 -0.139733 -0.324814 -0.259015 -0.121695 -0.180989 0.0604881 -0.0389639 0.055365 0.132366 -0.50168 -0.117656 -0.0332907 0.0728713 0.233501 -0.188056 0.658594 0.378875 0.517055 0.446915 -0.581751 0.559855 0.0459683 -0.735623 -0.0944512 0.0342197 0.216668
internal_count=2514 1077 785 1437 494 909 831 638 611 335 470 528 485 79 440 403 361 293 120 292 177 173 291 159 262 84 193 280 244 205
shrinkage=0.05


Tree=20
num_leaves=31
num_cat=0
split_feature=670 283 146 502 149 448 785 472 13 816 75 541 901 92 367 786 747 746 593 592 367 622 96 586 785 549 845 149 247 717
split_gain=33.1993 20.4741 16.612 15.9515 13.9822 13.9501 13.8468 13.1529 16.6202 15.7453 13.9537 16.6503 12.8115 12.2528 11.7946 11.3633 12.12 11.4292 12.5896 10.3835 10.0571 10.0523 9.5685 11.798 9.54453 9.46349 10.1535 11.7517 10.5192 9.37052
